tree
version=v3
num_class=1
num_tree_per_iteration=1
label_index=0
max_feature_idx=20
objective=poisson
feature_names=cat1 cat2 cat3 cat4 cat5 cat6 cat7 cat8 cont1 cont2 cont3 cont4 cont5 cont6 cont7 cont8 cont9 cont10 cont11 cont12 cont13
feature_infos=-1:273:154:119:245:167:120:158:184:197:206:195:180:0:176:256:2:198:226:177:64:196:170:5:70:73:128:155:258:228:208:249:207:194:276:201:272:257:279:266:106:192:67:66:126:25:121:94:13:34:181:178:159:58:95:102:203:72:99:26:157:117:166:174:85:137:76:57:261:250:267:3:1:187:265:220:10:46:200:223:217:143:43:48:63:84:56:161:71:131:251:227:123:211:139:202:50:253:179:74:242:11:96:247:110:175:45:221:105:239:165:60:111:225:22:234:61:138:213:240:186:210:100:6:134:151:114 -1:6:9:4:5:2:7:11:8:10:1:0 -1:0:2:1 -1:0:2:1 -1:1:2:0 -1:0:1 -1:1:0 -1:6:2:5:3:1:9:4:0:8 [-0.69846918779531098:21.570221193555398] [-3.3849066398089875:6.8058837819532325] [-3.8761156244745298:5.4663918786169177] [-0.92106593358110278:6.4502583487927048] [-7.7412741334328219:3.3530692005435898] [-5.3338004762605369:3.7044999693492722] [-1.4725983637243047:3.1211930429214481] [-1.4039038152490291:6.2454848466063968] [-1.7815236349131995:4.3161717655362031] [-4.0784342062492618:3.856275274329573] [-2.1552891877765101:0.97040651241484943] [-0.99243321496119596:2.4714340913596078] [-0.48925817199165977:4.8858111792260432]
tree_sizes=2062 2055 2064 2064 2058 2059 2068 2065 2063 2074 2070 2059 1978 2063 2061 2042 2072 2056 2032 1982 2064 2068 2031 2067 2047 1982 2102 2096 2071 2099 2090 2077 2092 2053 2105 2087 2074 2113 2098 2050 2108 2107 2121 2127 2091 2113 2117 2097 2118 2126 2138 2127 2077 1933 2093 2132 2133 2121 1950 2127 2140 2129 2136 2131 2130 1931 2134 2135 2139 2148 2162 2169 2141 2127 2175 2147 2124 2177 2177 2172 2157 2121 2186 2137 2156 2182 2146 2021 2150 2180 2149 2198 2185 2134 2111 2202 2186 2085 2205 2099 2132 2171 2122 2213 2134 2137 2148 2141 2141 2229 2144 2077 1939 2136 2156 2132 1945 2135 2074 2126 2049 2118 2115 2101 2036 2087 2045 2109 2137 2154 2123 2049 2199 2167 2197 2049 2111 2192 2169 2020 2076 2046 2025 2152 2030 2069 2108 1999 2046 2087 2056 2004 2035 2055 1998 2045 2019 2034 2016 2036 1953 1997 2053 2031 2133 2104 2036 1984 2144 2204 2132 2201 2127 2057 2050 2115 2161 2059 2065 1954 2029 2110 2058 2116 2010 1973 2041 2028 2087 2086 2037 2072 2101 2043 2090 2140 2093 2121 2028 2065 2013 2047 2117 2110 2047 2117 2078 2074 2100 2058 2054 2053 2079 2111 2085 2013 2048 2049 1999 2048 1924 2145 2028 2013 2050 2079 1993 2000 1922 1876 2001 2050 2011 2015 2172 2015 2055 2053 2039 2056 1830 1951 2001 1986 2050 1905 1981 1917 2139 2067 2087 1977 2041 1884 1915 2020 2098 1913 1883 2010 1965 1955 1672 2108 1984 1995 1853 2074 1999 1929 1918 1914 1915 2055 1957 2007 1781 1995 1903 1893 1921 1904 1853 1962 1784 1952 2172 1937 1991 2082 1978 1947 1994 1852 1673 1999 2083 2106 1939 1951 1877 1968 2099 2106 2016 1944 2036 2052 1975 2050 2059 1967 1991 2096 2092 1878 1955 2019 1994 1981 2037 2001 2124 1997 2007 1943 2147 2060 1929 2103 2034 1968 1982 1926 1936 1939 2119 1945 1845 2010 1904 1986 1841 2017 2045 1984 2069 1993 2026 2081 1971 1972 1907 1800 1848 1929 2074 1911 2018 2026 2046 2041 2004 1898 2004 1986 2003 1939 2047 2101 2026 1787 2026 1915 2073 1997 1883 2008 1917 1866 1932 1919 2029 1787 2033 2086 2021 2166 2023 2009 1992 2121 2046 2158 2047 1916 1960 2105 1954 2000 1863 1850 2007 1994 2030 2057 1784 1751 1760 2150 2122 1773 1817 2099 2013 2162 2064 1993 1969 2147 1651 2170 1731 1772 1614 2166 1612 2071 2100 2098 2083 2173 2097 1964 2054

Tree=0
num_leaves=16
num_cat=10
split_feature=1 15 11 0 0 1 17 0 1 0 12 0 1 0 12
split_gain=9.51297e+06 6.10478e+06 867245 514856 354618 353879 225008 134089 68444.5 33369.5 24637.2 21980.7 24696.2 8555.67 2547.72
threshold=0 1.4854768896125223 -0.33707017177331872 1 2 3 1.0620383868283922 4 5 6 -0.45438533355197369 7 8 9 -0.23425216599367069
decision_type=9 2 2 9 9 9 2 9 9 9 2 9 9 9 2
left_child=1 4 6 -4 5 -1 -3 8 13 -10 -6 14 -13 -2 -9
right_child=7 2 3 -5 10 -7 -8 11 9 -11 -12 12 -14 -15 -16
leaf_value=-0.033445071116957985 -0.04006195994936728 -0.036061162881939189 -0.033995934423463825 -0.038943404572927179 -0.039185990134340938 -0.038648617731217173 -0.037279073016657366 -0.040240846896984178 -0.038788066612510781 -0.039641707942783863 -0.039742325098489656 -0.039207193236978036 -0.040064866127864467 -0.039556566601402943 -0.040147760328359462
leaf_weight=87412382.378779411 1040254614.7172036 4454615943.1666012 1836210172.1137352 149451313.75429726 647837746.01252842 4875748553.9953327 1283972645.6927652 10988921167.240118 772541779.20031643 492931345.25339746 2714534872.4758425 231329305.93130541 4771291095.9802151 279349414.86311007 2344085739.4156227
leaf_count=2027 21255 2739 170 9360 17838 75643 912 7833 13806 28458 69771 14804 198202 24020 5191
internal_value=0 -0.0374697 -0.0358284 -0.0343683 -0.0389924 -0.038557 -0.0363337 -0.0400931 -0.0395465 -0.0391206 -0.0396351 -0.0401701 -0.0400252 -0.039955 -0.0402245
internal_weight=0 1.60498e+10 7.72425e+09 1.98566e+09 8.32553e+09 4.96316e+09 5.73859e+09 2.09207e+10 2.58508e+09 1.26547e+09 3.36237e+09 1.83356e+10 5.00262e+09 1.3196e+09 1.3333e+10
internal_count=492029 178460 13181 9530 165279 77670 3651 313569 87539 42264 87609 226030 213006 45275 13024
cat_boundaries=0 1 2 11 12 21 22 31 39 40 47
cat_threshold=65 32 45 4 2147483721 0 512 3342464 114812 16 1245223 1 5 67125248 3224371265 35651656 8388609 67174528 16925 671088640 1063 1922 4 0 1 2097160 0 0 16385 536870912 1 3104 0 128 32768 0 66 0 28 128 4 16384 64 2097152 0 65664 16389
is_linear=0
shrinkage=0.0810582


Tree=1
num_leaves=16
num_cat=10
split_feature=1 15 11 0 0 1 17 0 1 0 12 0 1 0 12
split_gain=9.86176e+06 6.30189e+06 890088 528838 367866 364706 231664 139465 71104 34629 25592.9 22876.1 25673.2 8896.74 2652
threshold=0 1.4854768896125223 -0.33707017177331872 1 2 3 1.0620383868283922 4 5 6 -0.45438533355197369 7 8 9 -0.23425216599367069
decision_type=9 2 2 9 9 9 2 9 9 9 2 9 9 9 2
left_child=1 4 6 -4 5 -1 -3 8 13 -10 -6 14 -13 -2 -9
right_child=7 2 3 -5 10 -7 -8 11 9 -11 -12 12 -14 -15 -16
leaf_value=-0.0332135531133987 -0.040054179188046025 -0.035907267612425971 -0.033779586227200571 -0.038891425700735005 -0.039143375689769652 -0.038585423739881192 -0.037166141409113188 -0.040240376218768019 -0.038730155438143468 -0.039617016195232155 -0.039721648817312577 -0.039165402788816313 -0.04005720359916521 -0.039528493766479926 -0.040143477415464562
leaf_weight=84537215.737330437 999403722.29668975 4296839204.6245804 1774835647.4966469 143743041.8285017 622942539.59699965 4690902641.8708038 1236988537.8107719 10555496765.763517 743150084.56599808 473772950.04244137 2608768565.0147252 222435033.89034915 4583908744.3106451 268515009.35401416 2251840064.2014542
leaf_count=2027 21255 2739 170 9360 17838 75643 912 7833 13806 28458 69771 14804 198202 24020 5191
internal_value=0 -0.0373634 -0.0356671 -0.0341626 -0.0389423 -0.0384903 -0.0361887 -0.0400865 -0.039518 -0.0390754 -0.0396102 -0.0401667 -0.0400159 -0.0399429 -0.0402233
internal_weight=0 1.54596e+10 7.45241e+09 1.91858e+09 8.00715e+09 4.77544e+09 5.53383e+09 2.00985e+10 2.48484e+09 1.21692e+09 3.23171e+09 1.76137e+10 4.80634e+09 1.26792e+09 1.28073e+10
internal_count=492029 178460 13181 9530 165279 77670 3651 313569 87539 42264 87609 226030 213006 45275 13024
cat_boundaries=0 1 2 11 12 21 22 31 39 40 47
cat_threshold=65 32 45 4 2147483721 0 512 3342464 114812 16 1245223 1 5 67125248 3224371265 35651656 8388609 67174528 16925 671088640 1063 1922 4 0 1 2097160 0 0 16385 536870912 1 3104 0 128 32768 0 66 0 28 128 4 16384 64 2097152 0 65664 16389
is_linear=0
shrinkage=0.0810582


Tree=2
num_leaves=16
num_cat=10
split_feature=1 15 11 0 0 1 17 0 1 0 12 0 1 0 12
split_gain=1.02217e+07 6.5033e+06 913063 542942 381556 375727 238420 145050 73860.4 35931.5 26583.4 23807.5 26687.4 9250.97 2760.51
threshold=0 1.4854768896125223 -0.33707017177331872 1 2 3 1.0620383868283922 4 5 6 -0.45438533355197369 7 8 9 -0.23425216599367069
decision_type=9 2 2 9 9 9 2 9 9 9 2 9 9 9 2
left_child=1 4 6 -4 5 -1 -3 8 13 -10 -6 14 -13 -2 -9
right_child=7 2 3 -5 10 -7 -8 11 9 -11 -12 12 -14 -15 -16
leaf_value=-0.032975844853933331 -0.040046081989137713 -0.035748413729115684 -0.033557205531807292 -0.038837456089425161 -0.039099107323393133 -0.038519849089969291 -0.037049281882014146 -0.040239885763425146 -0.038670045366114444 -0.039591342478834501 -0.039700145663201063 -0.039121989163012218 -0.040049229347725278 -0.039499309133143368 -0.040139019264838677
leaf_weight=81775551.125491142 960164519.90007591 4145288642.0009937 1715883732.8862915 138259983.13223839 599029536.95891571 4513349694.070116 1191858311.9060097 10139172407.730541 714918013.00475979 455370412.81956315 2507175064.4975042 213891669.05669522 4403919185.1023417 258108056.28557086 2163233756.8687935
leaf_count=2027 21255 2739 170 9360 17838 75643 912 7833 13806 28458 69771 14804 198202 24020 5191
internal_value=0 -0.0372535 -0.0355006 -0.0339509 -0.0388903 -0.0384212 -0.0360389 -0.0400798 -0.0394884 -0.0390285 -0.0395842 -0.0401632 -0.0400063 -0.0399302 -0.0402221
internal_weight=0 1.48926e+10 7.19129e+09 1.85414e+09 7.70133e+09 4.59513e+09 5.33715e+09 1.93088e+10 2.38856e+09 1.17029e+09 3.1062e+09 1.69202e+10 4.61781e+09 1.21827e+09 1.23024e+10
internal_count=492029 178460 13181 9530 165279 77670 3651 313569 87539 42264 87609 226030 213006 45275 13024
cat_boundaries=0 1 2 11 12 21 22 31 39 40 47
cat_threshold=65 32 45 4 2147483721 0 512 3342464 114812 16 1245223 1 5 67125248 3224371265 35651656 8388609 67174528 16925 671088640 1063 1922 4 0 1 2097160 0 0 16385 536870912 1 3104 0 128 32768 0 66 0 28 128 4 16384 64 2097152 0 65664 16389
is_linear=0
shrinkage=0.0810582


Tree=3
num_leaves=16
num_cat=10
split_feature=1 15 11 0 0 1 17 0 1 0 12 0 1 0 12
split_gain=1.05929e+07 6.70893e+06 936135 557149 395696 386938 245268 150853 76716.8 37278 27609.7 24776.5 27739.8 9618.8 2873.46
threshold=0 1.4854768896125223 -0.33707017177331872 1 2 3 1.0620383868283922 4 5 6 -0.45438533355197369 7 8 9 -0.23425216599367069
decision_type=9 2 2 9 9 9 2 9 9 9 2 9 9 9 2
left_child=1 4 6 -4 5 -1 -3 8 13 -10 -6 14 -13 -2 -9
right_child=7 2 3 -5 10 -7 -8 11 9 -11 -12 12 -14 -15 -16
leaf_value=-0.032731896889926552 -0.040037655525278062 -0.035584493920162663 -0.033328723841024283 -0.038781425572425476 -0.039053124910078597 -0.038451812829955641 -0.036928386513812007 -0.040239375519153311 -0.038607660650347979 -0.039564648762343363 -0.039677783566509646 -0.039076892219097235 -0.040040930886830743 -0.039468970777457583 -0.040134379180776135
leaf_weight=79122910.402423859 922473420.73622084 3999718590.2351933 1659258865.0133667 132993252.30202007 576059986.60850716 4342801957.8089142 1148508795.7374535 9739273148.3166428 687799810.67740822 437693913.70174909 2409589740.9112921 205685371.26976395 4231030747.6524963 248111690.73787856 2078123231.4353142
leaf_count=2027 21255 2739 170 9360 17838 75643 912 7833 13806 28458 69771 14804 198202 24020 5191
internal_value=0 -0.0371397 -0.0353289 -0.0337333 -0.0388363 -0.0383495 -0.0358843 -0.0400727 -0.0394577 -0.0389798 -0.0395573 -0.0401596 -0.0399962 -0.0399171 -0.0402209
internal_weight=0 1.43481e+10 6.94048e+09 1.79225e+09 7.40757e+09 4.42192e+09 5.14823e+09 1.85502e+10 2.29608e+09 1.12549e+09 2.98565e+09 1.62541e+10 4.43672e+09 1.17059e+09 1.18174e+10
internal_count=492029 178460 13181 9530 165279 77670 3651 313569 87539 42264 87609 226030 213006 45275 13024
cat_boundaries=0 1 2 11 12 21 22 31 39 40 47
cat_threshold=65 32 45 4 2147483721 0 512 3342464 114812 16 1245223 1 5 67125248 3224371265 35651656 8388609 67174528 16925 671088640 1063 1922 4 0 1 2097160 0 0 16385 536870912 1 3104 0 128 32768 0 66 0 28 128 4 16384 64 2097152 0 65664 16389
is_linear=0
shrinkage=0.0810582


Tree=4
num_leaves=16
num_cat=10
split_feature=1 15 11 0 0 1 14 0 1 0 12 0 1 0 12
split_gain=1.09756e+07 6.91871e+06 959265 571441 410298 398329 245472 156882 79676.3 38669.7 28672.8 25784.6 28832 10000.7 2991
threshold=0 1.4854768896125223 -0.33707017177331872 1 2 3 -0.44768558442667006 4 5 6 -0.45438533355197369 7 8 9 -0.23425216599367069
decision_type=9 2 2 9 9 9 2 9 9 9 2 9 9 9 2
left_child=1 4 6 -4 5 -1 -3 8 13 -10 -6 14 -13 -2 -9
right_child=7 2 3 -5 10 -7 -8 11 9 -11 -12 12 -14 -15 -16
leaf_value=-0.032481666459078358 -0.040028886669442501 -0.035325363766764276 -0.033094081259685083 -0.038723261942067363 -0.03900536628264295 -0.038381232078594452 -0.036537862506782606 -0.040238844387864299 -0.03854292267608643 -0.039536896177536994 -0.039654529128679519 -0.039030051020104317 -0.04003229521993272 -0.039437434700210411 -0.040129549827338622
leaf_weight=76574994.49261713 886269348.30374146 3330911382.3429832 1604869289.3802433 127934314.68750763 553996669.82413244 4178983097.5638084 1635851573.1152668 9355151085.7546921 661751536.58734131 420714808.67867899 2315854464.2017002 197802841.78504252 4064963271.7125788 238509714.41955233 1996370562.9661045
leaf_count=2027 21255 529 170 9360 17838 75643 3122 7833 13806 28458 69771 14804 198202 24020 5191
internal_value=0 -0.0370219 -0.0351518 -0.0335097 -0.0387802 -0.0382751 -0.0357247 -0.0400654 -0.0394257 -0.0389292 -0.0395292 -0.0401558 -0.0399858 -0.0399035 -0.0402196
internal_weight=0 1.3825e+10 6.69957e+09 1.7328e+09 7.12541e+09 4.25556e+09 4.96676e+09 1.78215e+10 2.20725e+09 1.08247e+09 2.86985e+09 1.56143e+10 4.26277e+09 1.12478e+09 1.13515e+10
internal_count=492029 178460 13181 9530 165279 77670 3651 313569 87539 42264 87609 226030 213006 45275 13024
cat_boundaries=0 1 2 11 12 21 22 31 39 40 47
cat_threshold=65 32 45 4 2147483721 0 512 3342464 114812 16 1245223 1 5 67125248 3224371265 35651656 8388609 67174528 16925 671088640 1063 1922 4 0 1 2097160 0 0 16385 536870912 1 3104 0 128 32768 0 66 0 28 128 4 16384 64 2097152 0 65664 16389
is_linear=0
shrinkage=0.0810582


Tree=5
num_leaves=16
num_cat=10
split_feature=1 15 11 0 0 1 17 0 1 0 12 0 1 0 12
split_gain=1.13701e+07 7.13255e+06 982414 585796 425371 409894 259748 163145 82742.1 40107.5 29773.9 26833.2 29965.2 10397.3 3113.34
threshold=0 1.4854768896125223 -0.33707017177331872 1 2 3 1.0620383868283922 4 5 6 -0.45438533355197369 7 8 9 -0.23425216599367069
decision_type=9 2 2 9 9 9 2 9 9 9 2 9 9 9 2
left_child=1 4 6 -4 5 -1 -3 8 13 -10 -6 14 -13 -2 -9
right_child=7 2 3 -5 10 -7 -8 11 9 -11 -12 12 -14 -15 -16
leaf_value=-0.032225119393806893 -0.040019761765446249 -0.035240646332935936 -0.032853222381605221 -0.038662890726863713 -0.038955767676505437 -0.038308021559840873 -0.036675003629968728 -0.04023829133846913 -0.038475751518978821 -0.03950804409149479 -0.039630347961019892 -0.038981402740841768 -0.040023308614395708 -0.039404655884582897 -0.040124522985127489
leaf_weight=74127670.747553349 851493631.34307265 3725300252.1068916 1552626844.8371601 123074972.68214703 532803830.40614271 4021627644.7065163 1067159366.8093357 8986183804.7866364 636730978.04447269 404405583.49684739 2225817333.5866652 190231306.7844274 3905447653.7038403 229286567.02215576 1917843281.8691502
leaf_count=2027 21255 2739 170 9360 17838 75643 912 7833 13806 28458 69771 14804 198202 24020 5191
internal_value=0 -0.0369001 -0.0349693 -0.0332799 -0.038722 -0.0381979 -0.03556 -0.0400577 -0.0393925 -0.0388767 -0.0395001 -0.0401518 -0.0399749 -0.0398893 -0.0402183
internal_weight=0 1.33225e+10 6.46816e+09 1.6757e+09 6.85438e+09 4.09576e+09 4.79246e+09 1.71216e+10 2.12192e+09 1.04114e+09 2.75862e+09 1.49997e+10 4.09568e+09 1.08078e+09 1.0904e+10
internal_count=492029 178460 13181 9530 165279 77670 3651 313569 87539 42264 87609 226030 213006 45275 13024
cat_boundaries=0 1 2 11 12 21 22 31 39 40 47
cat_threshold=65 32 45 4 2147483721 0 512 3342464 114812 16 1245223 1 5 67125248 3224371265 35651656 8388609 67174528 16925 671088640 1063 1922 4 0 1 2097160 0 0 16385 536870912 1 3104 0 128 32768 0 66 0 28 128 4 16384 64 2097152 0 65664 16389
is_linear=0
shrinkage=0.0810582


Tree=6
num_leaves=16
num_cat=10
split_feature=1 15 11 0 0 1 14 0 1 0 12 0 1 0 12
split_gain=1.17766e+07 7.35032e+06 1.00554e+06 600192 440925 421622 259529 169649 85917.1 41592.6 30914.1 27924 31140.8 10808.9 3240.64
threshold=0 1.4854768896125223 -0.33707017177331872 1 2 3 -0.44768558442667006 4 5 6 -0.45438533355197369 7 8 9 -0.23425216599367069
decision_type=9 2 2 9 9 9 2 9 9 9 2 9 9 9 2
left_child=1 4 6 -4 5 -1 -3 8 13 -10 -6 14 -13 -2 -9
right_child=7 2 3 -5 10 -7 -8 11 9 -11 -12 12 -14 -15 -16
leaf_value=-0.031962229050088588 -0.040010266387126847 -0.03496512295775378 -0.032606101439483108 -0.038600235538772926 -0.038904262892414922 -0.038232094559873829 -0.036257575387215642 -0.040237715241734723 -0.038406065047178049 -0.039478050902963552 -0.039605204343633182 -0.038930882642179788 -0.040013957192872499 -0.039370587331309805 -0.040119291214218505
leaf_weight=71776977.277412891 818089921.30199575 3103961221.6638622 1502446842.5197353 118407352.05635929 512447128.94134021 3870480600.5264792 1521073631.7445765 8631773448.0239258 612697590.73858166 388739809.76109672 2139332448.4094498 182958496.8592906 3752225401.560698 220427303.09306765 1842414134.5271378
leaf_count=2027 21255 529 170 9360 17838 75643 3122 7833 13806 28458 69771 14804 198202 24020 5191
internal_value=0 -0.0367741 -0.0347813 -0.033044 -0.0386616 -0.0381179 -0.0353902 -0.0400498 -0.0393579 -0.0388222 -0.0394697 -0.0401477 -0.0399636 -0.0398745 -0.0402169
internal_weight=0 1.28399e+10 6.24589e+09 1.62085e+09 6.59404e+09 3.94226e+09 4.62503e+09 1.64493e+10 2.03995e+09 1.00144e+09 2.65178e+09 1.44094e+10 3.93518e+09 1.03852e+09 1.04742e+10
internal_count=492029 178460 13181 9530 165279 77670 3651 313569 87539 42264 87609 226030 213006 45275 13024
cat_boundaries=0 1 2 11 12 21 22 31 39 40 47
cat_threshold=65 32 45 4 2147483721 0 512 3342464 114812 16 1245223 1 5 67125248 3224371265 35651656 8388609 67174528 16925 671088640 1063 1922 4 0 1 2097160 0 0 16385 536870912 1 3104 0 128 32768 0 66 0 28 128 4 16384 64 2097152 0 65664 16389
is_linear=0
shrinkage=0.0810582


Tree=7
num_leaves=16
num_cat=10
split_feature=1 15 11 0 0 1 17 0 1 0 12 0 1 0 12
split_gain=1.21952e+07 7.5719e+06 1.02859e+06 614606 456969 433503 274611 176406 89204.8 43126 32094.6 29058.7 32360.1 11236.2 3373.13
threshold=0 1.4854768896125223 -0.33707017177331872 1 2 3 1.0620383868283922 4 5 6 -0.45438533355197369 7 8 9 -0.23425216599367069
decision_type=9 2 2 9 9 9 2 9 9 9 2 9 9 9 2
left_child=1 4 6 -4 5 -1 -3 8 13 -10 -6 14 -13 -2 -9
right_child=7 2 3 -5 10 -7 -8 11 9 -11 -12 12 -14 -15 -16
leaf_value=-0.03169297889882481 -0.040000385639834178 -0.034875199043371045 -0.032352678843618567 -0.038535218171419049 -0.038850784547514297 -0.038153362018528841 -0.036404360334240125 -0.040237116086442641 -0.038333778665241937 -0.039446873139033958 -0.039579061098734776 -0.038878423751914713 -0.040004226203831768 -0.039335180784189343 -0.040113846160871568
leaf_weight=69519101.491402149 786004087.30012441 3472115938.4660506 1454247980.2473698 113923888.32849884 492893574.75531244 3725297034.2136774 992101404.02283144 8291345518.8250961 589612430.11804581 373692100.91424417 2056259666.2237949 175972626.51259089 3605048220.1422133 211917566.78043652 1769960888.5934391
leaf_count=2027 21255 2739 170 9360 17838 75643 912 7833 13806 28458 69771 14804 198202 24020 5191
internal_value=0 -0.0366438 -0.0345877 -0.0328018 -0.0385989 -0.038035 -0.035215 -0.0400415 -0.039322 -0.0387656 -0.0394382 -0.0401434 -0.0399518 -0.0398591 -0.0402154
internal_weight=0 1.23764e+10 6.03239e+09 1.56817e+09 6.34397e+09 3.79482e+09 4.46422e+09 1.58036e+10 1.96123e+09 9.63305e+08 2.54915e+09 1.38423e+10 3.78102e+09 9.97922e+08 1.00613e+10
internal_count=492029 178460 13181 9530 165279 77670 3651 313569 87539 42264 87609 226030 213006 45275 13024
cat_boundaries=0 1 2 11 12 21 22 31 39 40 47
cat_threshold=65 32 45 4 2147483721 0 512 3342464 114812 16 1245223 1 5 67125248 3224371265 35651656 8388609 67174528 16925 671088640 1063 1922 4 0 1 2097160 0 0 16385 536870912 1 3104 0 128 32768 0 66 0 28 128 4 16384 64 2097152 0 65664 16389
is_linear=0
shrinkage=0.0810582


Tree=8
num_leaves=16
num_cat=10
split_feature=1 15 11 0 0 1 17 0 1 0 12 0 1 0 12
split_gain=1.26261e+07 7.79713e+06 1.05153e+06 629013 473514 445527 281836 183422 92608.2 44708.8 33316.4 30239 33624.8 11679.6 3511.01
threshold=0 1.4854768896125223 -0.33707017177331872 1 2 3 1.0620383868283922 4 5 6 -0.45438533355197369 7 8 9 -0.23425216599367069
decision_type=9 2 2 9 9 9 2 9 9 9 2 9 9 9 2
left_child=1 4 6 -4 5 -1 -3 8 13 -10 -6 14 -13 -2 -9
right_child=7 2 3 -5 10 -7 -8 11 9 -11 -12 12 -14 -15 -16
leaf_value=-0.031417363973601321 -0.039990104119291395 -0.034684362616662218 -0.032092925719267397 -0.038467758092182953 -0.038795262361086991 -0.038071732551041348 -0.036261697281171471 -0.040236491981612457 -0.038258806105165459 -0.039414466062329255 -0.039551880011369861 -0.03882395697683725 -0.03999410042804475 -0.039298386269191736 -0.040108178697092309
leaf_weight=67350381.983728886 755184135.34566855 3353112385.5021644 1407952086.902153 109617316.5047245 474111485.12720037 3585841691.2335458 956634081.86282396 7964348544.5413313 567438086.34614372 359238073.44206619 1976464367.1100118 169262375.71589017 3463677621.2061911 203743567.8256166 1700366135.8556185
leaf_count=2027 21255 2739 170 9360 17838 75643 912 7833 13806 28458 69771 14804 198202 24020 5191
internal_value=0 -0.0365091 -0.0343883 -0.0325534 -0.0385338 -0.0379491 -0.0350345 -0.0400329 -0.0392847 -0.0387068 -0.0394055 -0.040139 -0.0399396 -0.0398431 -0.0402139
internal_weight=0 1.19311e+10 5.82732e+09 1.51757e+09 6.10377e+09 3.65319e+09 4.30975e+09 1.51833e+10 1.8856e+09 9.26676e+08 2.45058e+09 1.32977e+10 3.63294e+09 9.58928e+08 9.66471e+09
internal_count=492029 178460 13181 9530 165279 77670 3651 313569 87539 42264 87609 226030 213006 45275 13024
cat_boundaries=0 1 2 11 12 21 22 31 39 40 47
cat_threshold=65 32 45 4 2147483721 0 512 3342464 114812 16 1245223 1 5 67125248 3224371265 35651656 8388609 67174528 16925 671088640 1063 1922 4 0 1 2097160 0 0 16385 536870912 1 3104 0 128 32768 0 66 0 28 128 4 16384 64 2097152 0 65664 16389
is_linear=0
shrinkage=0.0810582


Tree=9
num_leaves=16
num_cat=9
split_feature=1 15 11 17 0 1 17 0 1 0 12 0 1 0 12
split_gain=1.30695e+07 8.02586e+06 1.0743e+06 647715 490567 457681 289101 190708 96130.7 46342 34580.8 31466.6 34936.1 12139.8 3654.51
threshold=0 1.4854768896125223 -0.33707017177331872 1.1301290740052925 1 2 1.0620383868283922 3 4 5 -0.45438533355197369 6 7 8 -0.23425216599367069
decision_type=9 2 2 2 9 9 2 9 9 9 2 9 9 9 2
left_child=1 4 6 -4 5 -1 -3 8 13 -10 -6 14 -13 -2 -9
right_child=7 2 3 -5 10 -7 -8 11 9 -11 -12 12 -14 -15 -16
leaf_value=-0.031135387262014688 -0.0399794058395107 -0.034487852957690072 -0.032951245701461726 -0.027859238858747904 -0.038737624865607424 -0.037987113353421184 -0.036114334967638294 -0.040235842573246423 -0.038181059080042018 -0.039380783254351591 -0.039523621411138805 -0.038767412073159209 -0.039983564083657067 -0.039260152130926616 -0.040102280178117435
leaf_weight=65267303.330782413 725580122.1639297 3238805614.3926167 1280702500.7744639 188262315.15453506 456070422.16631818 3451888585.2553296 922566317.36971998 7650252501.5191717 546138626.50706482 345354304.73519611 1899817245.8365457 162816869.38730836 3327884514.0465755 195892060.4373486 1633517106.0265856
leaf_count=2027 21255 2739 9188 342 17838 75643 912 7833 13806 28458 69771 14804 198202 24020 5191
internal_value=0 -0.0363699 -0.0341832 -0.0322987 -0.0384663 -0.03786 -0.0348484 -0.0400239 -0.0392459 -0.0386458 -0.0393715 -0.0401343 -0.0399268 -0.0398265 -0.0402123
internal_weight=0 1.15034e+10 5.63034e+09 1.46896e+09 5.87304e+09 3.51716e+09 4.16137e+09 1.45874e+10 1.81297e+09 8.91493e+08 2.35589e+09 1.27745e+10 3.4907e+09 9.21472e+08 9.28377e+09
internal_count=492029 178460 13181 9530 165279 77670 3651 313569 87539 42264 87609 226030 213006 45275 13024
cat_boundaries=0 1 10 11 20 21 30 38 39 46
cat_threshold=65 45 4 2147483721 0 512 3342464 114812 16 1245223 1 5 67125248 3224371265 35651656 8388609 67174528 16925 671088640 1063 1922 4 0 1 2097160 0 0 16385 536870912 1 3104 0 128 32768 0 66 0 28 128 4 16384 64 2097152 0 65664 16389
is_linear=0
shrinkage=0.0810582


Tree=10
num_leaves=16
num_cat=10
split_feature=1 15 11 0 0 1 17 0 1 0 12 0 1 0 12
split_gain=1.35254e+07 8.25788e+06 1.09686e+06 664272 508137 469951 296397 198272 99775.5 48026.5 35888.8 32743.4 36295.7 12617.3 3803.84
threshold=0 1.4854768896125223 -0.33707017177331872 1 2 3 1.0620383868283922 4 5 6 -0.45438533355197369 7 8 9 -0.23425216599367069
decision_type=9 2 2 9 9 9 2 9 9 9 2 9 9 9 2
left_child=1 4 6 -4 5 -1 -3 8 13 -10 -6 14 -13 -2 -9
right_child=7 2 3 -5 10 -7 -8 11 9 -11 -12 12 -14 -15 -16
leaf_value=-0.030847062109479708 -0.039968274128571152 -0.034285581630226949 -0.031550397705281501 -0.038336499243166455 -0.038677798155400366 -0.037899409723937072 -0.035962163165639355 -0.040235166245949139 -0.038100447369379377 -0.039345776867523628 -0.039494244077085343 -0.038708716037654418 -0.039972600813962388 -0.039220424982775899 -0.040096141139904486
leaf_weight=63266492.12565279 697144074.78907132 3129010343.9152994 1320172252.624979 102107072.29858351 438741151.00667024 3323220634.5201898 889842899.1666255 7348548494.5079927 525679534.52476597 332018296.32772923 1826194099.1941555 156625664.23132372 3197448846.9929633 188350322.04171324 1569305464.2644358
leaf_count=2027 21255 2739 170 9360 17838 75643 912 7833 13806 28458 69771 14804 198202 24020 5191
internal_value=0 -0.0362261 -0.0339722 -0.0320376 -0.0383962 -0.0377677 -0.0346568 -0.0400146 -0.0392056 -0.0385825 -0.0393361 -0.0401295 -0.0399136 -0.0398092 -0.0402107
internal_weight=0 1.10926e+10 5.44113e+09 1.42228e+09 5.65142e+09 3.38649e+09 4.01885e+09 1.40151e+10 1.74319e+09 8.57698e+08 2.26494e+09 1.22719e+10 3.35407e+09 8.85494e+08 8.91785e+09
internal_count=492029 178460 13181 9530 165279 77670 3651 313569 87539 42264 87609 226030 213006 45275 13024
cat_boundaries=0 1 2 11 12 21 22 31 39 40 47
cat_threshold=65 32 45 4 2147483721 0 512 3342464 114812 16 1245223 1 5 67125248 3224371265 35651656 8388609 67174528 16925 671088640 1063 1922 4 0 1 2097160 0 0 16385 536870912 1 3104 0 128 32768 0 66 0 28 128 4 16384 64 2097152 0 65664 16389
is_linear=0
shrinkage=0.0810582


Tree=11
num_leaves=16
num_cat=10
split_feature=1 15 11 0 0 1 17 0 1 0 12 0 1 0 12
split_gain=1.39942e+07 8.493e+06 1.11913e+06 678642 526233 482324 303710 206126 103546 49763.4 37241.6 34071.3 37705 13112.6 3959.23
threshold=0 1.4854768896125223 -0.33707017177331872 1 2 3 1.0620383868283922 4 5 6 -0.45438533355197369 7 8 9 -0.23425216599367069
decision_type=9 2 2 9 9 9 2 9 9 9 2 9 9 9 2
left_child=1 4 6 -4 5 -1 -3 8 13 -10 -6 14 -13 -2 -9
right_child=7 2 3 -5 10 -7 -8 11 9 -11 -12 12 -14 -15 -16
leaf_value=-0.030552416728277638 -0.03995669162700427 -0.03407746147858675 -0.031271472215606971 -0.038261627721432448 -0.038615706315656667 -0.037808524672360302 -0.035805072582236287 -0.040234462086823186 -0.038016878264251507 -0.039309397487550898 -0.039463705593454745 -0.0386477936240203 -0.039961193528703344 -0.039179149709519114 -0.040089751923776111
leaf_weight=61344699.765606403 669829915.33282685 3023548633.6239023 1279170497.5685482 98266727.367526054 422095591.35144591 3199629347.7643142 858410792.1549778 7058747628.3312616 506027660.24625683 319208438.0952065 1755475622.2534697 150678728.63342023 3072159256.2531595 181106130.94327331 1507627174.0812502
leaf_count=2027 21255 2739 170 9360 17838 75643 912 7833 13806 28458 69771 14804 198202 24020 5191
internal_value=0 -0.0360776 -0.0337551 -0.0317702 -0.0383236 -0.037672 -0.0344595 -0.0400049 -0.0391638 -0.0385168 -0.0392993 -0.0401245 -0.0398998 -0.0397912 -0.040209
internal_weight=0 1.06979e+10 5.2594e+09 1.37744e+09 5.43855e+09 3.26097e+09 3.88196e+09 1.34654e+10 1.67617e+09 8.25236e+08 2.17757e+09 1.17892e+10 3.22284e+09 8.50936e+08 8.56637e+09
internal_count=492029 178460 13181 9530 165279 77670 3651 313569 87539 42264 87609 226030 213006 45275 13024
cat_boundaries=0 1 2 11 12 21 22 31 39 40 47
cat_threshold=65 32 45 4 2147483721 0 512 3342464 114812 16 1245223 1 5 67125248 3224371265 35651656 8388609 67174528 16925 671088640 1063 1922 4 0 1 2097160 0 0 16385 536870912 1 3104 0 128 32768 0 66 0 28 128 4 16384 64 2097152 0 65664 16389
is_linear=0
shrinkage=0.0810582


Tree=12
num_leaves=15
num_cat=5
split_feature=15 17 16 8 0 8 15 0 0 0 16 14 19 0
split_gain=2.94061e+06 971700 999314 463827 344246 258579 220014 71938.5 68216.1 42201.3 32870.5 31523.7 8272.71 2125.03
threshold=1.4854768896125223 1.1301290740052925 3.1265083481304043 -0.5056650057594142 0 -0.44951547994219165 0.18504311429300094 1 2 3 -1.0254541462951128 0.76768055030133764 0.7394995634861149 4
decision_type=2 2 2 2 9 2 2 9 9 9 2 2 2 9
left_child=4 3 13 8 10 -5 9 -8 -2 -6 12 -12 -1 -3
right_child=1 2 -4 5 6 -7 7 -9 -10 -11 11 -13 -14 -15
leaf_value=-0.038807482686424082 -0.035856807663163758 -0.038679704478622172 -0.029814807567852736 -0.038854548876040444 -0.039139251084413462 -0.037457449893689689 -0.038393611035520546 -0.039222493901966679 -0.038938719466613023 -0.039732433843937785 -0.037981392670371233 -0.038693343938742991 -0.037788325249917064 -0.039503971145776348
leaf_weight=893347463.62000895 1263610010.0131645 99591923.092262268 223755442.81229258 964268706.3374691 938065911.53369951 8944218946.2000465 1544756424.152842 1240530732.6533141 49022633.975236893 4930604792.5066261 1524658983.6012068 558252576.73054433 55588384.370436907 25966711.77955389
leaf_count=11198 293 308 466 3321 68320 26265 6493 74975 5124 154463 91122 42854 4958 1869
internal_value=0 -0.0372727 -0.0330625 -0.0374037 -0.0390956 -0.0375934 -0.0393561 -0.0387628 -0.0359719 -0.0396376 -0.0383524 -0.0381722 -0.0387478 -0.0388502
internal_weight=0 1.15704e+10 3.49314e+08 1.12211e+10 1.16858e+10 9.90849e+09 8.65396e+09 2.78529e+09 1.31263e+09 5.86867e+09 3.03185e+09 2.08291e+09 9.48936e+08 1.25559e+08
internal_count=492029 37646 2643 35003 454383 29586 304251 81468 5417 222783 150132 133976 16156 2177
cat_boundaries=0 9 18 19 28 37
cat_threshold=13 4 2147488833 2097152 32768 2293888 114812 536870912 1114147 32 0 1073741824 0 0 1572864 1 16 4 32 0 67371008 1076887560 32840 2155872768 68420608 513 8421392 131588 32 0 0 0 0 0 0 0 131072
is_linear=0
shrinkage=0.0810582


Tree=13
num_leaves=16
num_cat=10
split_feature=1 15 11 0 0 1 17 0 1 0 12 0 1 0 12
split_gain=1.50375e+07 9.03711e+06 1.17529e+06 716722 565561 514183 321865 222669 111638 53564.5 40169.1 36908.8 40733.6 14164 4286.6
threshold=0 1.4854768896125223 -0.33707017177331872 1 2 3 1.0620383868283922 4 5 6 -0.45438533355197369 7 8 9 -0.23425216599367069
decision_type=9 2 2 9 9 9 2 9 9 9 2 9 9 9 2
left_child=1 4 6 -4 5 -1 -3 8 13 -10 -6 14 -13 -2 -9
right_child=7 2 3 -5 10 -7 -8 11 9 -11 -12 12 -14 -15 -16
leaf_value=-0.029858026525006926 -0.039932614218165789 -0.033620070526158598 -0.03064674788002374 -0.038105130650198979 -0.038482950902983572 -0.037614020624083699 -0.035464879839484334 -0.040233018050779411 -0.037839542126336133 -0.039233250857455486 -0.03939877285772754 -0.038517738634159665 -0.039937155197646811 -0.039092447781083277 -0.040076397273716702
leaf_weight=57246561.788431644 619383418.37637687 2815030460.4968309 1195976206.8830853 91104577.97777319 390425743.88134837 2963741669.9613256 797412548.33749533 6530479161.0207157 468835175.30298042 295356481.00672174 1621928596.6797369 139381130.58352995 2837834531.6034436 167568155.46081519 1393174929.7819519
leaf_count=2027 21255 2739 170 9360 17838 75643 912 7833 13806 28458 69771 14804 198202 24020 5191
internal_value=0 -0.0357561 -0.0332779 -0.0311747 -0.0381683 -0.037467 -0.0340273 -0.0399847 -0.0390761 -0.0383782 -0.0392211 -0.040114 -0.0398707 -0.0397537 -0.0402055
internal_weight=0 9.93287e+09 4.89952e+09 1.28708e+09 5.03334e+09 3.02099e+09 3.61244e+09 1.2452e+10 1.55114e+09 7.64192e+08 2.01235e+09 1.09009e+10 2.97722e+09 7.86952e+08 7.92365e+09
internal_count=492029 178460 13181 9530 165279 77670 3651 313569 87539 42264 87609 226030 213006 45275 13024
cat_boundaries=0 1 2 11 12 21 22 31 39 40 47
cat_threshold=65 32 45 4 2147483721 0 512 3342464 114812 16 1245223 1 5 67125248 3224371265 35651656 8388609 67174528 16925 671088640 1063 1922 4 0 1 2097160 0 0 16385 536870912 1 3104 0 128 32768 0 66 0 28 128 4 16384 64 2097152 0 65664 16389
is_linear=0
shrinkage=0.0810582


Tree=14
num_leaves=16
num_cat=10
split_feature=1 15 11 0 0 1 17 0 1 0 12 0 1 0 12
split_gain=1.55472e+07 9.28144e+06 1.19653e+06 730761 585324 526887 329214 231449 115812 55469.5 41666.4 38403.2 42303.9 14716.9 4461.6
threshold=0 1.4854768896125223 -0.33707017177331872 1 2 3 1.0620383868283922 4 5 6 -0.45438533355197369 7 8 9 -0.23425216599367069
decision_type=9 2 2 9 9 9 2 9 9 9 2 9 9 9 2
left_child=1 4 6 -4 5 -1 -3 8 13 -10 -6 14 -13 -2 -9
right_child=7 2 3 -5 10 -7 -8 11 9 -11 -12 12 -14 -15 -16
leaf_value=-0.029542993596968346 -0.039919589403045533 -0.03339330302744755 -0.03034781153827025 -0.03802173318719311 -0.038413533429963058 -0.037512893723022828 -0.035292047379966933 -0.040232225913972429 -0.037746494686944396 -0.039192475037188472 -0.039364473138638098 -0.03844962321424264 -0.039924313932160532 -0.039046207857848937 -0.040069203869031372
leaf_weight=55562559.049114704 595137150.33530378 2721962178.8705845 1159879373.8593559 87698335.963218212 375686434.08939981 2854333969.0084887 769628011.34748697 6272953527.351697 451426119.1455164 283993055.42059088 1559269061.0977173 134114563.76725817 2726732803.4819942 161143894.17038655 1338445508.176919
leaf_count=2027 21255 2739 170 9360 17838 75643 912 7833 13806 28458 69771 14804 198202 24020 5191
internal_value=0 -0.0355924 -0.0330419 -0.0308872 -0.0380872 -0.0373607 -0.0338118 -0.0399738 -0.0390292 -0.0383049 -0.0391798 -0.0401084 -0.0398552 -0.0397335 -0.0402036
internal_weight=0 9.58402e+09 4.73917e+09 1.24758e+09 4.84485e+09 2.9099e+09 3.49159e+09 1.19639e+10 1.4917e+09 7.35419e+08 1.93496e+09 1.04722e+10 2.86085e+09 7.56281e+08 7.6114e+09
internal_count=492029 178460 13181 9530 165279 77670 3651 313569 87539 42264 87609 226030 213006 45275 13024
cat_boundaries=0 1 2 11 12 21 22 31 39 40 47
cat_threshold=65 32 45 4 2147483721 0 512 3342464 114812 16 1245223 1 5 67125248 3224371265 35651656 8388609 67174528 16925 671088640 1063 1922 4 0 1 2097160 0 0 16385 536870912 1 3104 0 128 32768 0 66 0 28 128 4 16384 64 2097152 0 65664 16389
is_linear=0
shrinkage=0.0810582


Tree=15
num_leaves=16
num_cat=9
split_feature=1 15 11 17 0 1 17 0 1 1 12 0 1 0 12
split_gain=1.607e+07 9.52779e+06 1.21724e+06 747726 605639 539622 336523 240559 120125 57478.9 43213.2 39957.2 43930.4 15290 4643.68
threshold=0 1.4854768896125223 -0.33707017177331872 1.1301290740052925 1 2 1.0620383868283922 3 4 5 -0.45438533355197369 6 7 8 -0.23425216599367069
decision_type=9 2 2 2 9 9 2 9 9 9 2 9 9 9 2
left_child=1 4 6 -4 5 -1 -3 8 13 -10 -6 14 -13 -2 -9
right_child=7 2 3 -5 10 -7 -8 11 9 -11 -12 12 -14 -15 -16
leaf_value=-0.029221888285825358 -0.039906038479582198 -0.033160391677969178 -0.031371188464114574 -0.025371057996231787 -0.038341525163538642 -0.037408178377514839 -0.035113863594244822 -0.040231401119161521 -0.036074457496565356 -0.038476532597582914 -0.039328826694636373 -0.038378960957336283 -0.039910953803518188 -0.038998182500003725 -0.040061717891532067
leaf_weight=53945085.034682751 571847469.29884672 2632567738.3291063 1052850392.1893432 156784420.55753827 361528656.60650063 2749243092.9880595 742939970.25698853 6025588066.260601 72984081.112491608 634797829.32115316 1499081652.5912552 129055785.85948491 2620014372.7900467 154973093.3538506 1285875314.7252817
leaf_count=2027 21255 2739 9188 342 17838 75643 912 7833 4549 37715 69771 14804 198202 24020 5191
internal_value=0 -0.0354236 -0.0327997 -0.0305935 -0.0380032 -0.0372506 -0.0335903 -0.0399625 -0.0389805 -0.0382288 -0.039137 -0.0401025 -0.039839 -0.0397125 -0.0402016
internal_weight=0 9.24894e+09 4.58514e+09 1.20963e+09 4.6638e+09 2.80319e+09 3.37551e+09 1.14951e+10 1.4346e+09 7.07782e+08 1.86061e+09 1.00605e+10 2.74907e+09 7.26821e+08 7.31146e+09
internal_count=492029 178460 13181 9530 165279 77670 3651 313569 87539 42264 87609 226030 213006 45275 13024
cat_boundaries=0 1 10 11 20 21 22 30 31 38
cat_threshold=65 45 4 2147483721 0 512 3342464 114812 16 1245223 1 5 67125248 3224371265 35651656 8388609 67174528 16925 671088640 1063 1922 2048 3104 0 128 32768 0 66 0 28 128 4 16384 64 2097152 0 65664 16389
is_linear=0
shrinkage=0.0810582


Tree=16
num_leaves=16
num_cat=9
split_feature=1 15 15 17 0 1 14 0 1 0 12 0 1 0 12
split_gain=1.6606e+07 9.77582e+06 1.15831e+06 790277 626511 552367 353167 250011 124580 59663.1 44810.7 41573 45614.9 15884.2 4833.15
threshold=0 1.4854768896125223 2.1177465262887023 1.1301290740052925 1 2 -0.44768558442667006 3 4 5 -0.45438533355197369 6 7 8 -0.23425216599367069
decision_type=9 2 2 2 9 9 2 9 9 9 2 9 9 9 2
left_child=1 4 6 -4 5 -1 -3 8 13 -10 -6 14 -13 -2 -9
right_child=7 2 3 -5 10 -7 -8 11 9 -11 -12 12 -14 -15 -16
leaf_value=-0.028894803093620823 -0.039891940608345444 -0.032756560188559936 -0.031200943536831501 -0.024967071899697119 -0.038266840031593634 -0.037299769381583921 -0.034558257031843898 -0.040230542522442375 -0.037548734127022573 -0.039107135595999529 -0.039291783387229488 -0.038305666039724511 -0.039897054242205167 -0.038948307378863262 -0.040053927149396033
leaf_weight=52391517.070739269 549476636.31297898 2156787679.8383212 1058261906.1572385 152923889.04664135 347929469.20911741 2648298757.5350924 1069224631.2272186 5787981894.9801006 418405372.63893127 262829702.8955934 1441268835.739871 124196601.0229044 2517506304.684371 149045753.2888484 1235379176.8811111
leaf_count=2027 21255 1524 7325 240 17838 75643 4092 7833 13806 28458 69771 14804 198202 24020 5191
internal_value=0 -0.0352495 -0.0325512 -0.0304139 -0.0379161 -0.0371367 -0.0333537 -0.0399507 -0.0389299 -0.03815 -0.0390925 -0.0400964 -0.0398222 -0.0396906 -0.0401995
internal_weight=0 8.92709e+09 4.4372e+09 1.21119e+09 4.48989e+09 2.70069e+09 3.22601e+09 1.10448e+10 1.37976e+09 6.81235e+08 1.7892e+09 9.66506e+09 2.6417e+09 6.98522e+08 7.02336e+09
internal_count=492029 178460 13181 7565 165279 77670 5616 313569 87539 42264 87609 226030 213006 45275 13024
cat_boundaries=0 1 10 11 20 21 30 38 39 46
cat_threshold=65 45 4 2147483721 0 512 3342464 114812 16 1245223 1 5 67125248 3224371265 35651656 8388609 67174528 16925 671088640 1063 1922 4 0 1 2097160 0 0 16385 536870912 1 3104 0 128 32768 0 66 0 28 128 4 16384 64 2097152 0 65664 16389
is_linear=0
shrinkage=0.0810582


Tree=17
num_leaves=16
num_cat=10
split_feature=1 15 11 0 0 1 17 0 1 0 12 0 1 0 12
split_gain=1.71551e+07 1.00252e+07 1.25845e+06 789737 647942 565102 351871 259817 129181 61745.2 46460 43253.2 47359.1 16500 5030.32
threshold=0 1.4854768896125223 -0.33707017177331872 1 2 3 1.0620383868283922 4 5 6 -0.45438533355197369 7 8 9 -0.23425216599367069
decision_type=9 2 2 9 9 9 2 9 9 9 2 9 9 9 2
left_child=1 4 6 -4 5 -1 -3 8 13 -10 -6 14 -13 -2 -9
right_child=7 2 3 -5 10 -7 -8 11 9 -11 -12 12 -14 -15 -16
leaf_value=-0.028561842591543752 -0.039877273996555274 -0.032675673699058619 -0.029400924766199699 -0.037786296836000405 -0.038189389713182371 -0.037187560520450573 -0.034743185476789562 -0.040229649077823872 -0.037442025685813604 -0.039056290417602842 -0.039253291163189763 -0.038229651633179748 -0.039882593843761763 -0.038896516544188686 -0.040045819686732285
leaf_weight=50899336.809723377 527988400.1453526 2464148421.5378256 1058668890.7920303 79325573.52493906 334866835.01855254 2551337384.0190668 692951694.6877923 5559749923.35676 401361628.63251424 254374024.36794972 1385736930.2043312 119529133.78876376 2419042488.8210344 143352268.93174529 1186875259.7647972
leaf_count=2027 21255 2739 170 9360 17838 75643 912 7833 13395 28869 69771 14804 198202 24020 5191
internal_value=0 -0.03507 -0.0322965 -0.0299854 -0.0378258 -0.0370188 -0.0331295 -0.0399384 -0.0388774 -0.0380682 -0.0390462 -0.04009 -0.0398048 -0.0396679 -0.0401973
internal_weight=0 8.61794e+09 4.29509e+09 1.13799e+09 4.32284e+09 2.60224e+09 3.1571e+09 1.06123e+10 1.32708e+09 6.55736e+08 1.7206e+09 9.2852e+09 2.53857e+09 6.71341e+08 6.74663e+09
internal_count=492029 178460 13181 9530 165279 77670 3651 313569 87539 42264 87609 226030 213006 45275 13024
cat_boundaries=0 1 2 11 12 21 22 31 39 40 47
cat_threshold=65 32 45 4 2147483721 0 512 3342464 114812 16 1245223 1 5 67125248 3224371265 35651656 8388609 67174528 16925 671088640 1063 1922 4 0 1 2097152 0 0 16385 536870912 1 3104 0 128 32768 0 66 0 28 128 4 16384 64 2097152 0 65664 16389
is_linear=0
shrinkage=0.0810582


Tree=18
num_leaves=16
num_cat=10
split_feature=1 15 11 0 0 1 17 0 1 1 12 0 1 0 12
split_gain=1.77174e+07 1.02755e+07 1.27724e+06 802987 669935 577803 358980 269988 133931 64046.8 48162.2 45000 49164.7 17138.2 5235.45
threshold=0 1.4854768896125223 -0.33707017177331872 1 2 3 1.0620383868283922 4 5 6 -0.45438533355197369 7 8 9 -0.23425216599367069
decision_type=9 2 2 9 9 9 2 9 9 9 2 9 9 9 2
left_child=1 4 6 -4 5 -1 -3 8 13 -10 -6 14 -13 -2 -9
right_child=7 2 3 -5 10 -7 -8 11 9 -11 -12 12 -14 -15 -16
leaf_value=-0.028223126681154256 -0.03986201623458159 -0.032424012449508453 -0.02907714766337538 -0.03769133221886492 -0.038109084300264093 -0.03707144406870249 -0.034548416456278007 -0.040228718665745171 -0.035578466058825649 -0.038260696414662933 -0.039213296380078894 -0.038150828574989006 -0.039867550466554685 -0.038842741674502676 -0.040037382478674749
leaf_weight=49466123.575995445 507347939.5685389 2384931993.9468346 1027996162.8192959 76384077.898360729 322319585.37848234 2458201850.6581202 669289775.99215841 5340522424.8211403 65238967.505969763 566003353.34391892 1332395948.8562369 115045820.51574016 2324463366.2890921 137883414.21173799 1140284968.6198082
leaf_count=2027 21255 2739 170 9360 17838 75643 912 7833 4549 37715 69771 14804 198202 24020 5191
internal_value=0 -0.0348851 -0.0320353 -0.0296729 -0.0377323 -0.0368969 -0.0328895 -0.0399256 -0.0388229 -0.0379835 -0.0389982 -0.0400833 -0.0397866 -0.0396442 -0.0401951
internal_weight=0 8.32099e+09 4.1586e+09 1.10438e+09 4.16238e+09 2.50767e+09 3.05422e+09 1.01968e+10 1.27647e+09 6.31242e+08 1.65472e+09 8.92032e+09 2.43951e+09 6.45231e+08 6.48081e+09
internal_count=492029 178460 13181 9530 165279 77670 3651 313569 87539 42264 87609 226030 213006 45275 13024
cat_boundaries=0 1 2 11 12 21 22 23 31 32 39
cat_threshold=65 32 45 4 2147483721 0 512 3342464 114812 16 1245223 1 5 67125248 3224371265 35651656 8388609 67174528 16925 671088640 1063 1922 2048 3104 0 128 32768 0 66 0 28 128 4 16384 64 2097152 0 65664 16389
is_linear=0
shrinkage=0.0810582


Tree=19
num_leaves=15
num_cat=8
split_feature=15 17 16 8 0 8 15 0 0 0 0 0 7 0
split_gain=3.71223e+06 1.18592e+06 1.18636e+06 575548 443935 330685 287591 93325.2 85060.4 54859.2 43181.8 31050.1 26691.3 2749.99
threshold=1.4854768896125223 1.1301290740052925 3.1265083481304043 -0.5056650057594142 0 -0.44951547994219165 0.18504311429300094 1 2 3 4 5 6 7
decision_type=2 2 2 2 9 2 2 9 9 9 9 9 9 9
left_child=4 3 13 8 10 -5 9 -8 -2 -6 11 -1 -12 -3
right_child=1 2 -4 5 6 -7 7 -9 -10 -11 12 -13 -14 -15
leaf_value=-0.03109610450178045 -0.034609991646453557 -0.038204846316976203 -0.027283338572170333 -0.038431090319351428 -0.03879614363571255 -0.036628065711718109 -0.037815223305032279 -0.038897306612952827 -0.038539058974851728 -0.039567969447275572 -0.03916860388662137 -0.037279135658822335 -0.037904559902942815 -0.039275541577141429
leaf_weight=5379225.5783320665 984382976.50281143 76494091.508827209 180079667.82407975 740063516.63399315 722121219.31397498 6897396165.1897602 1178143868.356514 942816680.96679878 37586854.976139069 3734841892.3919959 118368987.33041358 683462128.45550323 1512424637.1782486 19894090.344705343
leaf_count=6699 293 308 466 3321 70462 26265 6493 74975 5124 152321 8516 72559 62358 1869
internal_value=0 -0.0363942 -0.0311681 -0.036561 -0.0387332 -0.0368028 -0.0390732 -0.0382962 -0.0347545 -0.0394429 -0.037769 -0.0372309 -0.0379963 -0.0384258
internal_weight=0 8.9359e+09 2.76468e+08 8.65943e+09 8.89756e+09 7.63746e+09 6.57792e+09 2.12096e+09 1.02197e+09 4.45696e+09 2.31963e+09 6.88841e+08 1.63079e+09 9.63882e+07
internal_count=492029 37646 2643 35003 454383 29586 304251 81468 5417 222783 150132 79258 70874 2177
cat_boundaries=0 9 18 19 28 37 40 41 50
cat_threshold=13 4 2147488833 2097152 32768 2293888 114812 536870912 1114147 32 0 1073741824 0 0 1572864 1 16 4 32 0 67371008 1076887560 32840 2155872776 68420608 513 8486928 8520196 4 0 2147483649 0 0 65664 65560 0 35 0 0 1 768 32 0 0 0 0 0 0 0 131072
is_linear=0
shrinkage=0.0810582


Tree=20
num_leaves=16
num_cat=10
split_feature=1 15 11 0 0 1 17 0 1 0 12 0 1 0 12
split_gain=1.89891e+07 1.08761e+07 1.32962e+06 842388 718094 613272 378018 291370 144184 68964.2 51868.9 48738.3 53059.8 18493.7 5666.47
threshold=0 1.4854768896125223 -0.33707017177331872 1 2 3 1.0620383868283922 4 5 6 -0.45438533355197369 7 8 9 -0.23425216599367069
decision_type=9 2 2 9 9 9 2 9 9 9 2 9 9 9 2
left_child=1 4 6 -4 5 -1 -3 8 13 -10 -6 14 -13 -2 -9
right_child=7 2 3 -5 10 -7 -8 11 9 -11 -12 12 -14 -15 -16
leaf_value=-0.0273984358777348 -0.039830517754084194 -0.031865147294751636 -0.028340248184749384 -0.03749383834835178 -0.037937047825792283 -0.036822434378016897 -0.03412409717968666 -0.040226830380926316 -0.037108380046318112 -0.038916755703708721 -0.039128238254413771 -0.037982293163915722 -0.039835932645692518 -0.038730149084816909 -0.040019835342897936
leaf_weight=46292429.879433632 469460759.0891633 2226016062.8315992 964402698.03363991 70915336.973890781 298369549.71553421 2279736116.9462309 622947932.7492981 4944816665.2803135 359801564.91305137 225364115.60243273 1231574341.5025849 106504347.84812355 2147955833.0962963 127684351.74951243 1054218036.2481232
leaf_count=2027 21255 2739 170 9360 17838 75643 912 7833 13806 28458 69771 14804 198202 24020 5191
internal_value=0 -0.0344824 -0.031455 -0.0289672 -0.037532 -0.0366349 -0.0323591 -0.0398992 -0.0387091 -0.0378048 -0.0388959 -0.0400697 -0.0397484 -0.0395952 -0.0401905
internal_weight=0 7.74025e+09 3.88428e+09 1.03532e+09 3.85597e+09 2.32603e+09 2.84896e+09 9.43581e+09 1.18231e+09 5.85166e+08 1.52994e+09 8.25349e+09 2.25446e+09 5.97145e+08 5.99903e+09
internal_count=492029 178460 13181 9530 165279 77670 3651 313569 87539 42264 87609 226030 213006 45275 13024
cat_boundaries=0 1 2 11 12 21 22 31 39 40 47
cat_threshold=65 32 45 4 2147483721 0 512 3342464 114812 16 1245223 1 5 67125248 3224371265 35651656 8388609 67174528 16925 671088640 1063 1922 4 0 1 2097160 0 0 16385 536870912 1 3104 0 128 32768 0 66 0 28 128 4 16384 64 2097152 0 65664 16389
is_linear=0
shrinkage=0.0810582


Tree=21
num_leaves=16
num_cat=10
split_feature=1 15 11 0 0 1 17 0 1 0 12 0 1 0 12
split_gain=1.95933e+07 1.11284e+07 1.34591e+06 854488 741853 625852 384803 302707 149410 71301.1 53740.8 50702.4 55063.4 19203.5 5897.33
threshold=0 1.4854768896125223 -0.33707017177331872 1 2 3 1.0620383868283922 4 5 6 -0.45438533355197369 7 8 9 -0.23425216599367069
decision_type=9 2 2 9 9 9 2 9 9 9 2 9 9 9 2
left_child=1 4 6 -4 5 -1 -3 8 13 -10 -6 14 -13 -2 -9
right_child=7 2 3 -5 10 -7 -8 11 9 -11 -12 12 -14 -15 -16
leaf_value=-0.027041391585071094 -0.039813378381948789 -0.031593586073099512 -0.027997828291302145 -0.037388449168327349 -0.037847526147014345 -0.036693783757999983 -0.033911367860870477 -0.040225784335743822 -0.036989522177087189 -0.038863755487504995 -0.039083383301583431 -0.037894414001192221 -0.039819010883566326 -0.038670038825629992 -0.040010342934949206
leaf_weight=45041306.326065063 451129390.11749709 2156201923.889266 937454936.04825592 68305677.508854866 287262309.44824958 2197317424.9159369 602049005.36505032 4749850089.1741467 346694604.51661742 216762141.29577613 1184315612.7167203 102534929.48937738 2064071898.4324985 122833658.41528249 1012861466.6641817
leaf_count=2027 21255 2739 170 9360 17838 75643 912 7833 13806 28458 69771 14804 198202 24020 5191
internal_value=0 -0.03428 -0.0311739 -0.0286356 -0.037428 -0.0364999 -0.0320995 -0.0398848 -0.0386482 -0.0377105 -0.0388421 -0.0400622 -0.0397279 -0.0395687 -0.0401879
internal_weight=0 7.47795e+09 3.76401e+09 1.00576e+09 3.71394e+09 2.24236e+09 2.75825e+09 9.06674e+09 1.13742e+09 5.63457e+08 1.47158e+09 7.92932e+09 2.16661e+09 5.73963e+08 5.76271e+09
internal_count=492029 178460 13181 9530 165279 77670 3651 313569 87539 42264 87609 226030 213006 45275 13024
cat_boundaries=0 1 2 11 12 21 22 31 39 40 47
cat_threshold=65 32 45 4 2147483721 0 512 3342464 114812 16 1245223 1 5 67125248 3224371265 35651656 8388609 67174528 16925 671088640 1063 1922 4 0 1 2097160 0 0 16385 536870912 1 3104 0 128 32768 0 66 0 28 128 4 16384 64 2097152 0 65664 16389
is_linear=0
shrinkage=0.0810582


Tree=22
num_leaves=16
num_cat=10
split_feature=1 15 11 0 0 1 14 0 1 1 12 0 1 0 12
split_gain=2.02101e+07 1.13798e+07 1.36119e+06 866084 766174 638293 392044 314459 154797 73980.8 55669.8 52744 57135.4 19938.4 6137.52
threshold=0 1.4854768896125223 -0.33707017177331872 1 2 3 -0.44768558442667006 4 5 6 -0.45438533355197369 7 8 9 -0.23425216599367069
decision_type=9 2 2 9 9 9 2 9 9 9 2 9 9 9 2
left_child=1 4 6 -4 5 -1 -3 8 13 -10 -6 14 -13 -2 -9
right_child=7 2 3 -5 10 -7 -8 11 9 -11 -12 12 -14 -15 -16
leaf_value=-0.026679275432148999 -0.039795550288096684 -0.031152398202025217 -0.027649881030235659 -0.037279346918651972 -0.037754766558482596 -0.0365607826640666 -0.033249318769967208 -0.040224695449472207 -0.034828907943238348 -0.037934665850064352 -0.039036792998919441 -0.037803348309042091 -0.039801409070576839 -0.038607653810540474 -0.040000465230258166
leaf_weight=43839648.031229973 433521251.20840764 1803449254.1352901 911572253.8150444 65798986.59695816 276593312.97947216 2118150874.8619361 867670400.0352397 4562575551.2031107 56222421.202792168 486381944.81914163 1138921409.6649694 98722126.802385688 1983497440.3755794 118174344.28858542 973136535.40215588
leaf_count=2027 21255 529 170 9360 17838 75643 3122 7833 4549 37715 69771 14804 198202 24020 5191
internal_value=0 -0.0340718 -0.0308865 -0.0282982 -0.0373203 -0.0363604 -0.0318335 -0.0398699 -0.038585 -0.0376129 -0.0387863 -0.0400545 -0.0397067 -0.0395411 -0.0401853
internal_weight=0 7.226e+09 3.64849e+09 9.77371e+08 3.57751e+09 2.16199e+09 2.67112e+09 8.71223e+09 1.0943e+09 5.42604e+08 1.41551e+09 7.61793e+09 2.08222e+09 5.51696e+08 5.53571e+09
internal_count=492029 178460 13181 9530 165279 77670 3651 313569 87539 42264 87609 226030 213006 45275 13024
cat_boundaries=0 1 2 11 12 21 22 23 31 32 39
cat_threshold=65 32 45 4 2147483721 0 512 3342464 114812 16 1245223 1 5 67125248 3224371265 35651656 8388609 67174528 16925 671088640 1063 1922 2048 3104 0 128 32768 0 66 0 28 128 4 16384 64 2097152 0 65664 16389
is_linear=0
shrinkage=0.0810582


Tree=23
num_leaves=16
num_cat=10
split_feature=1 15 11 0 0 1 17 0 1 0 12 0 1 0 12
split_gain=2.08393e+07 1.16299e+07 1.37542e+06 877138 791051 650565 399336 326640 160348 76513.3 57656.8 54866 59277.7 20699.2 6387.38
threshold=0 1.4854768896125223 -0.33707017177331872 1 2 3 1.0620383868283922 4 5 6 -0.45438533355197369 7 8 9 -0.23425216599367069
decision_type=9 2 2 9 9 9 2 9 9 9 2 9 9 9 2
left_child=1 4 6 -4 5 -1 -3 8 13 -10 -6 14 -13 -2 -9
right_child=7 2 3 -5 10 -7 -8 11 9 -11 -12 12 -14 -15 -16
leaf_value=-0.026312282877159893 -0.039777006528238491 -0.031030226378409933 -0.027296563285842193 -0.037166424785986557 -0.037658669644084389 -0.036423319847300489 -0.033470904916497637 -0.040223561640853035 -0.036736866205173774 -0.038753353926405026 -0.038988404643367003 -0.037708997083753797 -0.039783100495556438 -0.038542915626957649 -0.039990187172993248
leaf_weight=42685502.663256645 416607806.69982207 2024483878.8157024 886712650.83153915 63391202.718522072 266345270.24412489 2042108179.000706 562944998.954144 4382689520.4438915 321777591.05034173 200797157.77141786 1095318172.2273214 95059760.494063735 1906101888.8864598 113698860.18012571 934978867.65187836
leaf_count=2027 21255 2739 170 9360 17838 75643 912 7833 13806 28458 69771 14804 198202 24020 5191
internal_value=0 -0.0338576 -0.0305927 -0.0279551 -0.0372088 -0.0362163 -0.0315612 -0.0398543 -0.0385194 -0.0375117 -0.0387283 -0.0400464 -0.0396846 -0.0395124 -0.0401825
internal_weight=0 6.98399e+09 3.53753e+09 9.50104e+08 3.44646e+09 2.08479e+09 2.58743e+09 8.37171e+09 1.05288e+09 5.22575e+08 1.36166e+09 7.31883e+09 2.00116e+09 5.30307e+08 5.31767e+09
internal_count=492029 178460 13181 9530 165279 77670 3651 313569 87539 42264 87609 226030 213006 45275 13024
cat_boundaries=0 1 2 11 12 21 22 31 39 40 47
cat_threshold=65 32 45 4 2147483721 0 512 3342464 114812 16 1245223 1 5 67125248 3224371265 35651656 8388609 67174528 16925 671088640 1063 1922 4 0 1 2097160 0 0 16385 536870912 1 3104 0 128 32768 0 66 0 28 128 4 16384 64 2097152 0 65664 16389
is_linear=0
shrinkage=0.0810582


Tree=24
num_leaves=16
num_cat=9
split_feature=1 15 11 17 0 1 14 0 1 1 12 0 1 0 12
split_gain=2.14808e+07 1.18781e+07 1.38852e+06 894620 816480 662641 405828 339262 166065 79121.4 59702.6 57071.7 61492 21486.6 6647.36
threshold=0 1.4854768896125223 -0.33707017177331872 1.1301290740052925 1 2 -0.44768558442667006 3 4 5 -0.45438533355197369 6 7 8 -0.23425216599367069
decision_type=9 2 2 2 9 9 2 9 9 9 2 9 9 9 2
left_child=1 4 6 -4 5 -1 -3 8 13 -10 -6 14 -13 -2 -9
right_child=7 2 3 -5 10 -7 -8 11 9 -11 -12 12 -14 -15 -16
leaf_value=-0.025940621178764812 -0.039757719181755809 -0.030568564969979249 -0.028590752119577435 -0.021142589301684663 -0.037559133948536327 -0.036281284109983498 -0.032772178309931649 -0.040222381850797767 -0.034422449047342818 -0.037753023365141178 -0.038938153587053284 -0.037611260213939499 -0.039764057409379272 -0.038475744304940038 -0.039979492135228119
leaf_weight=41576996.372300863 400361649.00802183 1694719171.3088493 801821997.10219884 122092237.12011981 256501575.60165012 1969066116.8712621 812323719.34341192 4209900509.8414021 52302582.835440159 451032854.53116143 1053435243.332724 91541896.754267693 1831759830.430933 109399952.92506003 898326638.02147865
leaf_count=2027 21255 529 9188 342 17838 75643 3122 7833 4549 37715 69771 14804 198202 24020 5191
internal_value=0 -0.0336374 -0.0302927 -0.0276065 -0.0370934 -0.0360675 -0.0312826 -0.0398382 -0.0384513 -0.0374069 -0.0386681 -0.040038 -0.0396616 -0.0394826 -0.0401797
internal_weight=0 6.75154e+09 3.43096e+09 9.23914e+08 3.32058e+09 2.01064e+09 2.50704e+09 8.04463e+09 1.0131e+09 5.03335e+08 1.30994e+09 7.03153e+09 1.9233e+09 5.09762e+08 5.10823e+09
internal_count=492029 178460 13181 9530 165279 77670 3651 313569 87539 42264 87609 226030 213006 45275 13024
cat_boundaries=0 1 10 11 20 21 22 30 31 38
cat_threshold=65 45 4 2147483721 0 512 3342464 114812 16 1245223 1 5 67125248 3224371265 35651656 8388609 67174528 16925 671088640 1063 1922 2048 3104 0 128 32768 0 66 0 28 128 4 16384 64 2097152 0 65664 16389
is_linear=0
shrinkage=0.0810582


Tree=25
num_leaves=15
num_cat=5
split_feature=16 17 11 8 0 8 16 14 15 13 0 0 0 7
split_gain=4.48219e+06 1.24014e+06 1.49054e+06 694334 617109 462080 263711 137524 69720 60949 56016.5 49668 38568.7 34211.3
threshold=1.7865933748910112 1.1301290740052925 -0.33707017177331872 -0.49504732652472389 0 -0.44951547994219165 -1.0000000180025095e-35 -0.32977145705943883 0.05431950320538316 1.0000000180025095e-35 1 2 3 4
decision_type=2 2 2 2 9 2 2 2 2 2 9 9 9 9
left_child=4 3 9 7 10 -5 11 -2 -8 -3 12 -6 -1 -12
right_child=1 2 -4 5 6 -7 8 -9 -10 -11 13 -13 -14 -15
leaf_value=-0.028943287141737547 -0.033316533341202985 -0.038064284434520472 -0.024789082608150839 -0.038021243355958113 -0.038519196138360377 -0.035768864136534823 -0.038763275103574156 -0.038947694386648954 -0.03778135541996961 -0.033595729686209636 -0.038944312531483297 -0.039493698262900848 -0.036510209039300578 -0.037309838277295795
leaf_weight=4462310.1232140064 803209473.63500988 88559386.232987404 151032385.7609787 668560304.0989027 397935051.79841983 5706790284.5595474 767203391.76485085 29543625.406725764 1247955855.7974751 25926584.864501953 90448447.754446387 2520443265.0791869 547842263.19399405 1208793371.976203
leaf_count=6871 1980 2806 466 2854 56635 20025 65638 1713 62864 188 8142 125008 73922 62917
internal_value=0 -0.0355171 -0.0300767 -0.0357175 -0.0383948 -0.0360051 -0.0388684 -0.0335163 -0.0381552 -0.0370523 -0.0371329 -0.0393608 -0.0364491 -0.0374236
internal_weight=0 7.47362e+09 2.65518e+08 7.2081e+09 6.78508e+09 6.37535e+09 4.93354e+09 8.32753e+08 2.01516e+09 1.14486e+08 1.85155e+09 2.91838e+09 5.52305e+08 1.29924e+09
internal_count=492029 30032 3460 26572 461997 22879 310145 3693 128502 2994 151852 181643 80793 71059
cat_boundaries=0 9 18 27 30 31
cat_threshold=13 4 2147488833 2097152 32768 2293888 114812 536870912 1114147 4 0 2147484673 0 0 65664 65560 0 35 2 67125248 1076888072 33864 2155872768 68158464 33554945 8486912 8519684 0 0 1 768
is_linear=0
shrinkage=0.0810582


Tree=26
num_leaves=16
num_cat=10
split_feature=1 16 11 17 0 14 0 0 1 0 2 0 1 0 12
split_gain=2.29591e+07 1.25178e+07 1.93688e+06 865531 780613 747990 365727 284649 178471 85234.2 73979 61789.4 66278.9 23162.8 7190.96
threshold=0 1.6101355071862282 -0.33707017177331872 1.1301290740052925 1 -0.44768558442667006 2 3 4 5 6 7 8 9 -0.23425216599367069
decision_type=9 2 2 2 9 2 9 9 9 9 1 9 9 9 2
left_child=1 4 5 -4 10 -3 8 -6 13 -10 -1 14 -13 -2 -8
right_child=6 2 3 -5 7 -7 11 -9 9 -11 -12 12 -14 -15 -16
leaf_value=-0.039321138555684539 -0.03971819857640143 -0.029917755425843327 -0.027639983119763092 -0.020100053519509397 -0.036674496002295609 -0.032656801172631804 -0.040220011656777896 -0.038435826070615818 -0.036322307782764678 -0.038573766987479927 -0.032633539066148951 -0.037402320448068085 -0.039724191165123379 -0.038335501282436485 -0.039957392327954644
leaf_weight=11391551.434872985 370737791.96393287 1588916251.0799358 737529393.73260713 115729376.69961715 1025954403.2701433 1114600122.1973379 3901040725.4924011 1461966971.1810439 287834737.51070321 179313966.50564814 236626883.4977144 84830750.998260856 1693486373.3257003 101395742.17232144 831010327.46391106
leaf_count=2118 21255 1031 5285 146 46125 6043 7833 83128 13806 28458 34584 14804 198202 24020 5191
internal_value=0 -0.0331551 -0.0299843 -0.0266173 -0.0372772 -0.031047 -0.0398051 -0.0377095 -0.0383098 -0.0371865 -0.0329407 -0.0400208 -0.0396134 -0.0394213 -0.0401739
internal_weight=0 6.29271e+09 3.55678e+09 8.53259e+08 2.73594e+09 2.70352e+09 7.44965e+09 2.48792e+09 9.39282e+08 4.67149e+08 2.48018e+08 6.51037e+09 1.77832e+09 4.72134e+08 4.73205e+09
internal_count=492029 178460 12505 5431 165955 7074 313569 129253 87539 42264 36702 226030 213006 45275 13024
cat_boundaries=0 1 10 19 28 29 38 39 47 48 55
cat_threshold=65 12 4 2147483649 0 0 2293888 65592 0 35 5 67125248 3224371265 35651656 8388609 67174528 16925 671088640 1063 1 0 72 2097152 512 1049600 49220 28 1245188 1922 4 0 1 2097160 0 0 16385 536870912 1 2 3104 0 128 32768 0 66 0 28 128 4 16384 64 2097152 0 65664 16389
is_linear=0
shrinkage=0.0810582


Tree=27
num_leaves=16
num_cat=10
split_feature=1 16 11 17 0 14 0 0 1 0 2 0 1 0 12
split_gain=2.36393e+07 1.2769e+07 1.95049e+06 860003 802298 757805 379752 293996 184719 87968.3 75805 64266.5 68724.7 24035.3 7483.3
threshold=0 1.6101355071862282 -0.33707017177331872 1.1301290740052925 1 -0.44768558442667006 2 3 4 5 6 7 8 9 -0.23425216599367069
decision_type=9 2 2 2 9 2 9 9 9 9 1 9 9 9 2
left_child=1 4 5 -4 10 -3 8 -6 13 -10 -1 14 -13 -2 -8
right_child=6 2 3 -5 7 -7 11 -9 9 -11 -12 12 -14 -15 -16
leaf_value=-0.0392837943456441 -0.039696557459573609 -0.029603897552781335 -0.027286515943266136 -0.019690894249305927 -0.036540845500898651 -0.032404661253661877 -0.040218686163556165 -0.038364648787247491 -0.036176936682482515 -0.038507754103679993 -0.03238081020046938 -0.037293705365858937 -0.03970278965886917 -0.038260592700443657 -0.039945369311135022
leaf_weight=10952314.869986296 356301347.82465625 1542083478.7544804 717423242.20525169 113426429.62196255 989009648.96640897 1078788773.5920787 3747254190.9594884 1406841248.8231156 277567509.47494185 172528856.20305622 229029548.78794897 81716487.901667476 1627532649.3917284 97582248.559937596 798459970.73232412
leaf_count=2118 21255 1031 5285 146 46125 6043 7833 83128 13806 28458 34584 14804 198202 24020 5191
internal_value=0 -0.0329159 -0.0296718 -0.0262496 -0.0371642 -0.0307567 -0.0397869 -0.0376118 -0.038234 -0.0370704 -0.0326958 -0.0400113 -0.0395876 -0.0393878 -0.0401707
internal_weight=0 6.08755e+09 3.45172e+09 8.3085e+08 2.63583e+09 2.62087e+09 7.15894e+09 2.39585e+09 9.0398e+08 4.50096e+08 2.39982e+08 6.25496e+09 1.70925e+09 4.53884e+08 4.54571e+09
internal_count=492029 178460 12505 5431 165955 7074 313569 129253 87539 42264 36702 226030 213006 45275 13024
cat_boundaries=0 1 10 19 28 29 38 39 47 48 55
cat_threshold=65 12 4 2147483649 0 0 2293888 65592 0 35 5 67125248 3224371265 35651656 8388609 67174528 16925 671088640 1063 1 0 72 2097152 512 1049600 49220 28 1245188 1922 4 0 1 2097160 0 0 16385 536870912 1 2 3104 0 128 32768 0 66 0 28 128 4 16384 64 2097152 0 65664 16389
is_linear=0
shrinkage=0.0810582


Tree=28
num_leaves=16
num_cat=10
split_feature=1 16 11 17 0 11 0 0 1 1 2 0 1 0 12
split_gain=2.43301e+07 1.30165e+07 1.96228e+06 853534 824210 716422 394273 303558 191142 91007 77634.5 66840.3 71249.6 24937.4 7787.38
threshold=0 1.6101355071862282 -0.33707017177331872 1.1301290740052925 1 -0.74716497339834032 2 3 4 5 6 7 8 9 -0.23425216599367069
decision_type=9 2 2 2 9 2 9 9 9 9 1 9 9 9 2
left_child=1 4 5 -4 10 -3 8 -6 13 -10 -1 14 -13 -2 -8
right_child=6 2 3 -5 7 -7 11 -9 9 -11 -12 12 -14 -15 -16
leaf_value=-0.039244990095690213 -0.039674052067525507 -0.033631137413301183 -0.02692785332836059 -0.019282008789933556 -0.036402716998475804 -0.029876060422709953 -0.040217305964375248 -0.038290822060389688 -0.033508207842015351 -0.037350771870026618 -0.032121752908918853 -0.037181284924950882 -0.039680533054147198 -0.038182911676214654 -0.039932860075496339
leaf_weight=10530407.692409277 342434465.65050185 395320899.06506991 698111928.31594753 111214807.48394871 953522711.13242996 2146171354.2807486 3599535012.0688386 1353890491.3128242 45212366.028243303 388504514.94636714 221732171.77440262 78725103.140459895 1564181004.3285828 93919215.666291118 767193816.10481024
leaf_count=2118 21255 4511 5285 146 46125 2563 7833 83128 4549 37715 34584 14804 198202 24020 5191
internal_value=0 -0.0326705 -0.0293532 -0.0258772 -0.0370473 -0.0304602 -0.039768 -0.0375106 -0.0381553 -0.0369502 -0.0324447 -0.0400015 -0.0395608 -0.0393531 -0.0401673
internal_weight=0 5.89049e+09 3.35082e+09 8.09327e+08 2.53968e+09 2.54149e+09 6.87971e+09 2.30741e+09 8.70071e+08 4.33717e+08 2.32263e+08 6.00963e+09 1.64291e+09 4.36354e+08 4.36673e+09
internal_count=492029 178460 12505 5431 165955 7074 313569 129253 87539 42264 36702 226030 213006 45275 13024
cat_boundaries=0 1 10 19 28 29 30 31 39 40 47
cat_threshold=65 12 4 2147483649 0 0 2293888 65592 0 35 5 67125248 3224371265 35651656 8388609 67174528 16925 671088640 1063 1 0 72 2097152 512 1049600 49220 28 1245188 1922 2048 2 3104 0 128 32768 0 66 0 28 128 4 16384 64 2097152 0 65664 16389
is_linear=0
shrinkage=0.0810582


Tree=29
num_leaves=16
num_cat=10
split_feature=1 16 11 0 17 14 0 0 1 0 2 0 1 0 12
split_gain=2.5031e+07 1.32598e+07 1.97217e+06 846321 846137 783453 409305 313332 197743 94164.5 79464.4 69514.4 73855.3 25869.9 8103.69
threshold=0 1.6101355071862282 -0.33707017177331872 1 1.1301290740052925 -0.44768558442667006 2 3 4 5 6 7 8 9 -0.23425216599367069
decision_type=9 2 2 9 2 2 9 9 9 9 1 9 9 9 2
left_child=1 3 5 10 -4 -3 8 -5 13 -10 -1 14 -13 -2 -8
right_child=6 2 4 7 -6 -7 11 -9 9 -11 -12 12 -14 -15 -16
leaf_value=-0.039204671708280847 -0.039650648917186851 -0.028951222486076619 -0.026564179664595421 -0.036259999359353347 -0.018873735364933118 -0.031888594797641265 -0.040215869422561321 -0.03821425839173774 -0.035862803314424915 -0.038362883898719807 -0.031856345208706519 -0.037064950524148772 -0.039657388310911694 -0.038102368006710817 -0.039919845079063369
leaf_weight=10125146.203475595 329114674.62548029 1453023191.525104 679564125.29314482 919436080.00929296 109090906.900473 1012224251.9151092 3457643760.3419547 1303028890.8981719 256963012.15015018 161020695.69874692 214722923.15918076 75851751.411016822 1503328776.1348367 90400707.415025234 737161208.19224405
leaf_count=2118 21255 1031 5285 46125 146 6043 7833 83128 13395 28869 34584 14804 198202 24020 5191
internal_value=0 -0.0324188 -0.0290286 -0.0369263 -0.0255004 -0.0301573 -0.0397484 -0.0374058 -0.0380737 -0.0368259 -0.0321872 -0.0399913 -0.0395329 -0.039317 -0.0401638
internal_weight=0 5.70122e+09 3.2539e+09 2.44731e+09 7.88655e+08 2.46525e+09 6.61148e+09 2.22246e+09 8.37499e+08 4.17984e+08 2.24848e+08 5.77399e+09 1.57918e+09 4.19515e+08 4.1948e+09
internal_count=492029 178460 12505 165955 5431 7074 313569 129253 87539 42264 36702 226030 213006 45275 13024
cat_boundaries=0 1 10 19 28 29 38 39 47 48 55
cat_threshold=65 12 4 2147483649 0 0 2293888 65592 0 35 5 67125248 3224371265 35651656 8388609 67174528 16925 671088640 1063 1 0 72 2097152 512 1049600 49220 28 1245188 1922 4 0 1 2097152 0 0 16385 536870912 1 2 3104 0 128 32768 0 66 0 28 128 4 16384 64 2097152 0 65664 16389
is_linear=0
shrinkage=0.0810582


Tree=30
num_leaves=16
num_cat=11
split_feature=1 16 14 17 0 1 0 0 1 0 2 0 1 0 12
split_gain=2.57415e+07 1.34982e+07 1.9902e+06 1.317e+06 868604 539388 424864 323317 204522 97087.2 81291.6 72292.4 76543.4 26833.5 8432.67
threshold=0 1.6101355071862282 -0.44768558442667006 1.1301290740052925 1 2 3 4 5 6 7 8 9 10 -0.23425216599367069
decision_type=9 2 2 2 9 9 9 9 9 9 1 9 9 9 2
left_child=1 4 3 -3 10 -4 8 -6 13 -10 -1 14 -13 -2 -8
right_child=6 2 5 -5 7 -7 11 -9 9 -11 -12 12 -14 -15 -16
leaf_value=-0.039162783424850051 -0.039626313305773195 -0.027771090912345909 -0.021310400166041476 -0.018581740945805579 -0.036115098857623484 -0.032023325575437224 -0.040214373962033374 -0.038136653279912967 -0.03570771271104662 -0.038297375104016138 -0.031584574509964193 -0.036944594618663402 -0.03963332109775252 -0.038018869291766608 -0.039906304754797312
leaf_weight=9735873.6754639149 316320391.05789566 2050455314.6128106 31895085.75017643 107863791.32908535 888906065.78970695 970601367.65156794 3321350552.0768547 1251962484.5346673 248909035.53824151 153962314.67235386 207990440.82263815 73091774.983867764 1444877358.2780495 87021022.309760928 708313476.39719486
leaf_count=2118 21255 2893 259 220 47219 9133 7833 82034 13806 28458 34584 14804 198202 24020 5191
internal_value=0 -0.0321608 -0.0286981 -0.0273118 -0.0368012 -0.0316825 -0.0397279 -0.0372973 -0.0379892 -0.0366974 -0.0319234 -0.0399806 -0.0395039 -0.0392795 -0.0401602
internal_weight=0 5.51941e+09 3.16082e+09 2.15832e+09 2.35859e+09 1.0025e+09 6.35385e+09 2.14087e+09 8.06213e+08 4.02871e+08 2.17726e+08 5.54763e+09 1.51797e+09 4.03341e+08 4.02966e+09
internal_count=492029 178460 12505 3113 165955 9392 313569 129253 87539 42264 36702 226030 213006 45275 13024
cat_boundaries=0 1 10 11 20 29 30 39 40 48 49 56
cat_threshold=65 12 4 2147483649 0 0 2293888 65592 0 35 1 5 67125248 3224371265 35651656 8388609 67174528 16925 671088640 1063 1 0 72 2097152 512 1049600 49220 28 9633796 1922 4 0 1 2097160 0 0 16385 536870912 1 2 3104 0 128 32768 0 66 0 28 128 4 16384 64 2097152 0 65664 16389
is_linear=0
shrinkage=0.0810582


Tree=31
num_leaves=16
num_cat=9
split_feature=1 16 11 0 17 14 0 0 1 1 0 1 14 0 12
split_gain=2.6461e+07 1.3731e+07 2.00749e+06 891029 823619 793840 440962 333511 211480 100611 75178.3 79315.7 48383.7 27829 8774.87
threshold=0 1.6101355071862282 -0.33707017177331872 1 1.1301290740052925 -0.44768558442667006 2 3 4 5 6 7 -0.63523934544422811 8 -0.23425216599367069
decision_type=9 2 2 9 2 2 9 9 9 9 9 9 2 9 2
left_child=1 3 5 12 -4 -3 8 -5 13 -10 14 -12 -1 -2 -8
right_child=6 2 4 7 -6 -7 10 -9 9 -11 11 -13 -14 -15 -16
leaf_value=-0.029794727712850737 -0.039601009083229388 -0.028291733286712854 -0.025797834169037855 -0.035960342084965728 -0.018057805525427101 -0.031339714874500629 -0.040212817201214231 -0.03805256431127757 -0.032747635779165431 -0.037010493533018239 -0.03682010665414201 -0.03960829568133075 -0.032464374072471915 -0.03793232146533411 -0.039892217517962639
leaf_weight=64071699.545189619 304030882.235829 1372905556.1984363 643535090.03010297 855242819.0829258 105080431.51823211 949886729.00017023 3190434515.5391541 1207248891.9930243 40630255.570233345 347725062.21441078 70440702.291056633 1388732031.9470406 146814071.39512694 83774683.495255351 680603873.93366337
leaf_count=14788 21255 1031 5285 46125 146 6043 7833 83128 4549 37715 14804 198202 21914 24020 5191
internal_value=0 -0.0318964 -0.0283617 -0.0366719 -0.0247114 -0.0295382 -0.0397067 -0.037185 -0.0379016 -0.0365645 -0.0399695 -0.0394737 -0.0316533 -0.0392405 -0.0401564
internal_weight=0 5.34479e+09 3.07141e+09 2.27338e+09 7.48616e+08 2.32279e+09 6.10637e+09 2.06249e+09 7.76161e+08 3.88355e+08 5.33021e+09 1.45917e+09 2.10886e+08 3.87806e+08 3.87104e+09
internal_count=492029 178460 12505 165955 5431 7074 313569 129253 87539 42264 226030 213006 36702 45275 13024
cat_boundaries=0 1 10 19 28 29 30 38 39 46
cat_threshold=65 12 4 2147483649 0 0 2293888 65592 0 35 5 67125248 3224371265 35651656 8388609 67174528 16925 671088640 1063 1 0 72 2097152 512 1049600 49220 28 1245188 1922 2048 3104 0 128 32768 0 66 0 28 128 4 16384 64 2097152 0 65664 16389
is_linear=0
shrinkage=0.0810582


Tree=32
num_leaves=16
num_cat=11
split_feature=1 16 14 17 0 1 0 0 1 0 2 0 1 0 12
split_gain=2.71887e+07 1.39576e+07 2.01935e+06 1.29637e+06 913564 559076 457616 343907 218618 103791 85864.5 78175.8 82173.5 28857 9130.78
threshold=0 1.6101355071862282 -0.44768558442667006 1.1301290740052925 1 2 3 4 5 6 7 8 9 10 -0.23425216599367069
decision_type=9 2 2 2 9 9 9 9 9 9 1 9 9 9 2
left_child=1 4 3 -3 10 -4 8 -6 13 -10 -1 14 -13 -2 -8
right_child=6 2 5 -5 7 -7 11 -9 9 -11 -12 12 -14 -15 -16
leaf_value=-0.039083626134126241 -0.039574699246657317 -0.027061647799543505 -0.020286725144258694 -0.017771291612836464 -0.035805875032495764 -0.031486139738737907 -0.04021119664866174 -0.037969163269792008 -0.035412044693186782 -0.038221491920622276 -0.031018457721423316 -0.036691377206686138 -0.039582275276975422 -0.037842628406631801 -0.039877561936071587
leaf_weight=9076445.9760482311 292226233.35826564 1940174210.2210507 30259759.491904974 103975259.22328401 827087859.03499746 911123483.68761873 3064683501.1935272 1160119584.6645193 239127077.03550446 135285011.61385989 195238793.90593302 67894236.280441284 1334801815.3586264 80656430.44960165 653987499.68531132
leaf_count=2118 21255 2893 259 220 47219 9133 7833 82034 15241 27023 34584 14804 198202 24020 5191
internal_value=0 -0.0316257 -0.0280197 -0.0265891 -0.0365381 -0.0311261 -0.0396846 -0.0370688 -0.0378108 -0.0364272 -0.0313767 -0.039958 -0.0394423 -0.0392 -0.0401525
internal_weight=0 5.17706e+09 2.98553e+09 2.04415e+09 2.19152e+09 9.41383e+08 5.86866e+09 1.98721e+09 7.47295e+08 3.74412e+08 2.04315e+08 5.12137e+09 1.4027e+09 3.72883e+08 3.71867e+09
internal_count=492029 178460 12505 3113 165955 9392 313569 129253 87539 42264 36702 226030 213006 45275 13024
cat_boundaries=0 1 10 11 20 29 30 39 40 48 49 56
cat_threshold=65 12 4 2147483649 0 0 2293888 65592 0 35 1 5 67125248 3224371265 35651656 8388609 67174528 16925 671088640 1063 1 0 72 2097152 512 1049600 49220 28 9633796 1922 4 16384 65 2097160 0 0 16385 536870912 1 2 3104 0 128 32768 0 66 0 28 128 4 16384 64 2097152 0 65664 16389
is_linear=0
shrinkage=0.0810582


Tree=33
num_leaves=16
num_cat=11
split_feature=1 16 11 0 0 14 0 0 1 1 2 0 1 0 12
split_gain=2.79238e+07 1.41772e+07 2.03622e+06 936174 809533 800998 474839 354497 225937 107048 87683.4 81288.9 85118.5 29918.2 9500.9
threshold=0 1.6101355071862282 -0.33707017177331872 1 2 -0.44768558442667006 3 4 5 6 7 8 9 10 -0.23425216599367069
decision_type=9 2 2 9 9 2 9 9 9 9 1 9 9 9 2
left_child=1 3 5 10 -4 -3 8 -5 13 -10 -1 14 -13 -2 -8
right_child=6 2 4 7 -6 -7 11 -9 9 -11 -12 12 -14 -15 -16
leaf_value=-0.039037045296324624 -0.039547345222443936 -0.027611076713297964 -0.023286558532405383 -0.035643781826467241 -0.035986249518969213 -0.030765311031574361 -0.040209509336458629 -0.037880807151346299 -0.032210732848263562 -0.0367634346755214 -0.030727549298691662 -0.036558294974862127 -0.039555221779093916 -0.037749692200371339 -0.039862315853321562
leaf_weight=8728548.396430254 280887314.85696745 1298982655.5466056 677027178.81494141 797997170.13944328 34668171.984509945 892374495.5385766 2943893747.955749 1116896578.9709873 37917541.487616062 323101524.35034478 189275747.70138693 65448250.995053172 1282999315.6648002 77661210.008267522 628421220.1185503
leaf_count=2118 21255 1031 166 47219 5265 6043 7833 82034 4549 37715 34584 14804 198202 24020 5191
internal_value=0 -0.0313486 -0.0276721 -0.0363999 -0.0239052 -0.0288956 -0.0396616 -0.0369486 -0.0377167 -0.0362853 -0.0310939 -0.039946 -0.0394098 -0.039158 -0.0401484
internal_weight=0 5.01595e+09 2.90305e+09 2.1129e+09 7.11695e+08 2.19136e+09 5.64033e+09 1.91489e+09 7.19568e+08 3.61019e+08 1.98004e+08 4.92076e+09 1.34845e+09 3.58549e+08 3.57231e+09
internal_count=492029 178460 12505 165955 5431 7074 313569 129253 87539 42264 36702 226030 213006 45275 13024
cat_boundaries=0 1 10 11 20 29 30 31 32 40 41 48
cat_threshold=65 12 4 2147483649 0 0 2293888 65592 0 35 32 5 67125248 3224371265 35651656 8388609 67174528 16925 671088640 1063 1 0 72 2097152 512 1049600 49220 28 9633796 1922 2048 2 3104 0 128 32768 0 66 0 28 128 4 16384 64 2097152 0 65664 16389
is_linear=0
shrinkage=0.0810582


Tree=34
num_leaves=16
num_cat=10
split_feature=1 16 11 0 17 11 0 0 1 0 2 0 1 0 12
split_gain=2.86657e+07 1.43894e+07 2.03573e+06 958821 816017 796384 492647 365280 233435 110839 89485.2 84521.9 88151.9 31013.5 9885.83
threshold=0 1.6101355071862282 -0.33707017177331872 1 1.1301290740052925 -0.74716497339834032 2 3 4 5 6 7 8 9 -0.23425216599367069
decision_type=9 2 2 9 2 2 9 9 9 9 1 9 9 9 2
left_child=1 3 5 10 -4 -3 8 -5 13 -10 -1 14 -13 -2 -8
right_child=6 2 4 7 -6 -7 11 -9 9 -11 -12 12 -14 -15 -16
leaf_value=-0.038988666473815888 -0.039518906926186786 -0.03224388914530342 -0.024641977047737389 -0.035473672545859466 -0.016695011874603691 -0.027894965996629703 -0.040207753107140608 -0.037787199276974728 -0.035052375563854724 -0.038064327413686004 -0.030430333608473196 -0.036420749069809757 -0.039527095496563441 -0.037653413187256679 -0.039846455636812945
leaf_weight=8394376.6453267336 269995752.801162 326841989.62582827 595884951.27998698 768142627.87727273 99001511.361034751 1802103306.0535002 2827869495.213685 1077290817.1491318 222587148.07913589 125567397.69156492 183548215.40584493 63098782.244362831 1233240589.8375587 74784168.709050298 603863606.7188673
leaf_count=2118 21255 4511 5285 46125 146 2563 7833 83128 15241 27023 34584 14804 198202 24020 5191
internal_value=0 -0.0310652 -0.0273192 -0.0362571 -0.0235098 -0.0285626 -0.0396377 -0.0368242 -0.0376192 -0.0361387 -0.0308046 -0.0399335 -0.0393759 -0.0391143 -0.0401442
internal_weight=0 4.86121e+09 2.82383e+09 2.03738e+09 6.94886e+08 2.12895e+09 5.42101e+09 1.84543e+09 6.92934e+08 3.48155e+08 1.91943e+08 4.72807e+09 1.29634e+09 3.4478e+08 3.43173e+09
internal_count=492029 178460 12505 165955 5431 7074 313569 129253 87539 42264 36702 226030 213006 45275 13024
cat_boundaries=0 1 10 19 28 29 38 39 47 48 55
cat_threshold=65 12 4 2147483649 0 0 2293888 65592 0 35 5 67125248 3224371265 35651656 8388609 67174528 16925 671088640 1063 1 0 72 2097152 512 1049600 49220 28 1245188 1922 4 16384 65 2097160 0 0 16385 536870912 1 2 3104 0 128 32768 0 66 0 28 128 4 16384 64 2097152 0 65664 16389
is_linear=0
shrinkage=0.0810582


Tree=35
num_leaves=16
num_cat=11
split_feature=1 16 14 11 0 1 0 0 1 0 2 0 1 0 12
split_gain=2.94133e+07 1.45932e+07 2.06282e+06 1.08945e+06 981468 595442 511054 376247 241113 114093 91266 87879.1 91275.3 32143.4 10286.2
threshold=0 1.6101355071862282 -0.44768558442667006 -0.33707017177331872 1 2 3 4 5 6 7 8 9 10 -0.23425216599367069
decision_type=9 2 2 2 9 9 9 9 9 9 1 9 9 9 2
left_child=1 4 3 -3 10 -4 8 -6 13 -10 -1 14 -13 -2 -8
right_child=6 2 5 -5 7 -7 11 -9 9 -11 -12 12 -14 -15 -16
leaf_value=-0.038938425602599677 -0.039489343131823944 -0.026889448001089496 -0.01860878264631918 -0.022805780913848068 -0.035304070819158019 -0.030644703605613197 -0.040205925060400396 -0.037694396222609484 -0.034810833117543842 -0.03788492647225717 -0.03012685341138702 -0.036278628283454892 -0.039497855608534645 -0.037553689911324913 -0.039829956953648701
leaf_weight=8073389.1776170731 259533898.1907624 1228834251.2354522 27913833.90073061 659667571.61947966 743212391.27626121 831327129.18321133 2716422731.7084589 1035501572.5769612 207285828.07303894 128511853.4164741 178046909.44617927 60842023.411075711 1185445004.7829442 72020644.081763029 580274869.26226473
leaf_count=2118 21255 1031 259 2082 47219 9133 7833 82034 13395 28869 34584 14804 198202 24020 5191
internal_value=0 -0.0307754 -0.0269611 -0.025463 -0.0361096 -0.0302537 -0.0396129 -0.0366956 -0.0375183 -0.0359873 -0.0305091 -0.0399205 -0.0393407 -0.0390689 -0.0401397
internal_weight=0 4.71258e+09 2.74774e+09 1.8885e+09 1.96483e+09 8.59241e+08 5.21034e+09 1.77871e+09 6.67352e+08 3.35798e+08 1.8612e+08 4.54298e+09 1.24629e+09 3.31555e+08 3.2967e+09
internal_count=492029 178460 12505 3113 165955 9392 313569 129253 87539 42264 36702 226030 213006 45275 13024
cat_boundaries=0 1 10 11 20 29 30 39 40 48 49 56
cat_threshold=65 12 4 2147483649 0 0 2293888 65592 0 35 1 5 67125248 3224371265 35651656 8388609 67174528 16925 671088640 1063 1 0 72 2097152 512 1049600 49220 28 9633796 1922 4 0 1 2097152 0 0 16385 536870912 1 2 3104 0 128 32768 0 66 0 28 128 4 16384 64 2097152 0 65664 16389
is_linear=0
shrinkage=0.0810582


Tree=36
num_leaves=16
num_cat=10
split_feature=1 16 14 17 0 10 0 0 1 1 2 0 1 0 12
split_gain=3.01658e+07 1.47881e+07 2.06699e+06 1.30603e+06 1.00407e+06 613219 530075 387386 248968 117874 93021.7 91364.8 94489.7 33308.7 10702.4
threshold=0 1.6101355071862282 -0.44768558442667006 1.1301290740052925 1 0.15133269812294184 2 3 4 5 6 7 8 9 -0.23425216599367069
decision_type=9 2 2 2 9 2 9 9 9 9 1 9 9 9 2
left_child=1 4 3 -3 10 -4 8 -6 13 -10 -1 14 -13 -2 -8
right_child=6 2 5 -5 7 -7 11 -9 9 -11 -12 12 -14 -15 -16
leaf_value=-0.038886255857781146 -0.03945861107087411 -0.025587621473495054 -0.027745278615776987 -0.015870274523706932 -0.03512625731777172 -0.032142178473841015 -0.040204022030864345 -0.037596136685231409 -0.03132800104487516 -0.036362002757657476 -0.029817163510864723 -0.03613182168418539 -0.039467459796274591 -0.037450419735211696 -0.039812795037213869
leaf_weight=7765065.8624272346 249484796.98326242 1745156954.8350739 416273349.39072192 95868526.00118494 717431727.76863396 417363596.10608184 2609372882.3670144 997195465.90212929 34166996.963624954 289761450.10103863 172762911.12640929 58674316.563509226 1139535108.5234053 69366157.929291904 557616775.40620804
leaf_count=2118 21255 2893 3832 220 47219 5560 7833 82034 4549 37715 34584 14804 198202 24020 5191
internal_value=0 -0.0304794 -0.0265979 -0.0250816 -0.0359573 -0.0299466 -0.039587 -0.0365627 -0.0374138 -0.035831 -0.0302073 -0.039907 -0.0393041 -0.0390217 -0.0401351
internal_weight=0 4.56982e+09 2.67466e+09 1.84103e+09 1.89516e+09 8.33637e+08 5.00798e+09 1.71463e+09 6.42779e+08 3.23928e+08 1.80528e+08 4.3652e+09 1.19821e+09 3.18851e+08 3.16699e+09
internal_count=492029 178460 12505 3113 165955 9392 313569 129253 87539 42264 36702 226030 213006 45275 13024
cat_boundaries=0 1 10 19 28 29 30 31 39 40 47
cat_threshold=65 12 4 2147483649 0 0 2293888 65592 0 35 5 67125248 3224371265 35651656 8388609 67174528 16925 671088640 1063 1 0 72 2097152 512 1049600 49220 28 9633796 1922 2048 2 3104 0 128 32768 0 66 0 28 128 4 16384 64 2097152 0 65664 16389
is_linear=0
shrinkage=0.0810582


Tree=37
num_leaves=16
num_cat=10
split_feature=1 16 14 17 0 10 0 0 1 0 0 1 2 0 12
split_gain=3.09222e+07 1.49734e+07 2.06898e+06 1.28745e+06 1.02659e+06 618902 549725 398696 257001 121653 94983.5 97796.5 94748.2 34509.9 11135.3
threshold=0 1.6101355071862282 -0.44768558442667006 1.1301290740052925 1 0.15133269812294184 2 3 4 5 6 7 8 9 -0.23425216599367069
decision_type=9 2 2 2 9 2 9 9 9 9 9 9 1 9 2
left_child=1 4 3 -3 12 -4 8 -6 13 -10 14 -12 -1 -2 -8
right_child=6 2 5 -5 7 -7 10 -9 9 -11 11 -13 -14 -15 -16
leaf_value=-0.038832088454426802 -0.039426666477891711 -0.025207544954811284 -0.027393408631884907 -0.015480238182374498 -0.034939825922989207 -0.031877266468696458 -0.040202040601302967 -0.037492102177604382 -0.034472180275151525 -0.037805467218346031 -0.035980218068726331 -0.039435864221099737 -0.029501331750916265 -0.03734349801413539 -0.039794943582281743
leaf_weight=7468907.1126739979 239832165.79833871 1701069000.7932372 404882480.4008081 94359076.001032591 690952740.31864417 404161922.93957376 2506546474.2215738 962116532.98045051 200244407.65410161 112283201.33433592 56592149.513171136 1095436506.7660322 167687652.26034033 66816408.840482414 535852615.07514811
leaf_count=2118 21255 2893 3832 220 46125 5560 7833 83128 15241 27023 14804 198202 34584 24020 5191
internal_value=0 -0.030177 -0.0262299 -0.0246963 -0.0358001 -0.0296333 -0.0395602 -0.0364253 -0.0373056 -0.0356697 -0.039893 -0.0392661 -0.0298992 -0.0389728 -0.0401303
internal_weight=0 4.4327e+09 2.60447e+09 1.79543e+09 1.82823e+09 8.09044e+08 4.8136e+09 1.65307e+09 6.19176e+08 3.12528e+08 4.19443e+09 1.15203e+09 1.75157e+08 3.06649e+08 3.0424e+09
internal_count=492029 178460 12505 3113 165955 9392 313569 129253 87539 42264 226030 213006 36702 45275 13024
cat_boundaries=0 1 10 19 28 29 38 46 47 48 55
cat_threshold=65 12 4 2147483649 0 0 2293888 65592 0 35 5 67125248 3224371265 35651656 8388609 67174528 16925 671088640 1063 1 0 72 2097152 512 1049600 49220 28 1245188 1922 4 16384 65 2097160 0 0 16385 536870912 1 3104 0 128 32768 0 66 0 28 128 2 4 16384 64 2097152 0 65664 16389
is_linear=0
shrinkage=0.0810582


Tree=38
num_leaves=16
num_cat=11
split_feature=1 16 14 17 0 1 0 0 1 0 0 1 2 0 12
split_gain=3.16813e+07 1.51484e+07 2.06874e+06 1.26764e+06 1.04898e+06 629978 570018 410160 265208 125036 98739.9 101196 96441.2 35747.8 11585.3
threshold=0 1.6101355071862282 -0.44768558442667006 1.1301290740052925 1 2 3 4 5 6 7 8 9 10 -0.23425216599367069
decision_type=9 2 2 2 9 9 9 9 9 9 9 9 1 9 2
left_child=1 4 3 -3 12 -4 8 -6 13 -10 14 -12 -1 -2 -8
right_child=6 2 5 -5 7 -7 10 -9 9 -11 11 -13 -14 -15 -16
leaf_value=-0.038775853344394304 -0.039393463827757276 -0.024823483098904399 -0.016865756641428409 -0.015093776650235242 -0.034754178240867475 -0.029737342994867022 -0.040199978519059806 -0.037389010031177859 -0.034269452257399892 -0.037711192208340398 -0.035823708467618433 -0.039403023487201427 -0.029179438725257897 -0.037232818992062627 -0.039776375538752844
leaf_weight=7184432.9545235634 230560361.7767176 1658725149.6657047 25833383.039642811 92909623.313439846 668880481.64083433 759590045.88356018 2407776854.9110246 925059966.50290203 193459169.5222953 108117521.18744761 54592147.612567723 1053077738.0593207 162812902.32552528 64367264.688232124 514947116.35875702
leaf_count=2118 21255 2893 259 220 47219 9133 7833 82034 15241 27023 14804 198202 34584 24020 5191
internal_value=0 -0.0298685 -0.0258573 -0.0243074 -0.0356378 -0.029314 -0.0395322 -0.0362833 -0.0371936 -0.0355033 -0.0398783 -0.0392266 -0.029585 -0.0389219 -0.0401253
internal_weight=0 4.301e+09 2.53706e+09 1.75163e+09 1.76394e+09 7.85423e+08 4.6269e+09 1.59394e+09 5.96504e+08 3.01577e+08 4.03039e+09 1.10767e+09 1.69997e+08 2.94928e+08 2.92272e+09
internal_count=492029 178460 12505 3113 165955 9392 313569 129253 87539 42264 226030 213006 36702 45275 13024
cat_boundaries=0 1 10 11 20 29 30 39 47 48 49 56
cat_threshold=65 12 4 2147483649 0 0 2293888 65592 0 35 1 5 67125248 3224371265 35651656 8388609 67174528 16925 671088640 1063 1 0 72 2097152 512 1049600 49220 28 9633796 1922 4 16384 65 2097160 0 0 16385 536870912 1 3104 0 128 32768 0 66 0 28 128 2 4 16384 64 2097152 0 65664 16389
is_linear=0
shrinkage=0.0810582


Tree=39
num_leaves=16
num_cat=11
split_feature=1 16 11 0 0 11 0 0 1 1 0 1 2 0 12
split_gain=3.2442e+07 1.53125e+07 2.0782e+06 1.0712e+06 900574 843895 590969 421909 273587 129445 102639 104691 98096.4 37022.8 12053.3
threshold=0 1.6101355071862282 -0.33707017177331872 1 2 -0.74716497339834032 3 4 5 6 7 8 9 10 -0.23425216599367069
decision_type=9 2 2 9 9 2 9 9 9 9 9 9 1 9 2
left_child=1 3 5 12 -4 -3 8 -5 13 -10 14 -12 -1 -2 -8
right_child=6 2 4 7 -6 -7 10 -9 9 -11 11 -13 -14 -15 -16
leaf_value=-0.038717477934711073 -0.039358955430822566 -0.03092988487296508 -0.020713380861743506 -0.0343394391411097 -0.035233910573892364 -0.026105941515397177 -0.040197831606204118 -0.037140131271652804 -0.030366525093372902 -0.035920255300664616 -0.035662183466618494 -0.0393688908177195 -0.028851578286035559 -0.037118275443860427 -0.039757062811286749
leaf_weight=6911182.4404672384 221654361.3017512 280773329.53124428 587866148.26269531 550738051.39166081 29470857.008419991 1574199877.4742818 2312903997.6345849 986406848.70681274 30843969.176109195 260213974.66010445 52671069.852560639 1012390162.4853162 158130756.70993972 62014757.085748553 494866404.08219671
leaf_count=2118 21255 4511 166 42770 5265 2563 7833 86483 4549 37715 14804 198202 34584 24020 5191
internal_value=0 -0.0295539 -0.0254803 -0.0354704 -0.0214066 -0.0268361 -0.0395032 -0.0361367 -0.0370777 -0.0353317 -0.0398631 -0.0391856 -0.0292647 -0.0388691 -0.0401201
internal_weight=0 4.1745e+09 2.47231e+09 1.70219e+09 6.17337e+08 1.85497e+09 4.44756e+09 1.53714e+09 5.74727e+08 2.91058e+08 3.87283e+09 1.06506e+09 1.65042e+08 2.83669e+08 2.80777e+09
internal_count=492029 178460 12505 165955 5431 7074 313569 129253 87539 42264 226030 213006 36702 45275 13024
cat_boundaries=0 1 10 11 20 29 30 31 39 40 41 48
cat_threshold=65 12 4 2147483649 0 0 2293888 65592 0 35 32 5 67125248 3224371265 35651656 8388609 67174528 16925 671088640 1063 1 0 72 0 512 1049600 49220 24 1245188 1922 2048 3104 0 128 32768 0 66 0 28 128 2 4 16384 64 2097152 0 65664 16389
is_linear=0
shrinkage=0.0810582


Tree=40
num_leaves=16
num_cat=10
split_feature=1 16 14 11 0 10 0 0 1 0 0 1 2 0 12
split_gain=3.32032e+07 1.5465e+07 2.07884e+06 1.11209e+06 1.09318e+06 658440 612591 433968 282134 133063 106685 108280 99709.5 38335.5 12539.8
threshold=0 1.6101355071862282 -0.44768558442667006 -0.33707017177331872 1 0.15133269812294184 2 3 4 5 6 7 8 9 -0.23425216599367069
decision_type=9 2 2 2 9 2 9 9 9 9 9 9 1 9 2
left_child=1 4 3 -3 12 -4 8 -6 13 -10 14 -12 -1 -2 -8
right_child=6 2 5 -5 7 -7 10 -9 9 -11 11 -13 -14 -15 -16
leaf_value=-0.038656887424729398 -0.03932309266360115 -0.025055486031358192 -0.026262956555783659 -0.020674611078338997 -0.034358429255521142 -0.031093164522889929 -0.040195597006436663 -0.037167456812532369 -0.033772418366457557 -0.037405952685254637 -0.035495535735710571 -0.039333417734223462 -0.028517857959145076 -0.036999759487540196 -0.039736976407415352
leaf_weight=6648712.7520646453 213099732.08861518 1080537869.6993783 372164734.87694693 587858153.0809226 623968035.35812521 369562182.99427533 2221774154.7085438 858622554.36442327 174067911.07502627 106886414.80797166 50825803.138733149 973307846.03263021 153633621.57859039 59755073.431137621 475577935.22613955
leaf_count=2118 21255 1031 3832 2082 47219 5560 7833 82034 13395 28869 14804 198202 34584 24020 5191
internal_value=0 -0.0292332 -0.0250992 -0.0235119 -0.0352977 -0.0286696 -0.039473 -0.0359852 -0.0369578 -0.0351548 -0.0398473 -0.039143 -0.0289384 -0.0388143 -0.0401147
internal_weight=0 4.053e+09 2.41012e+09 1.6684e+09 1.64287e+09 7.41727e+08 4.27529e+09 1.48259e+09 5.53809e+08 2.80954e+08 3.72149e+09 1.02413e+09 1.60282e+08 2.72855e+08 2.69735e+09
internal_count=492029 178460 12505 3113 165955 9392 313569 129253 87539 42264 226030 213006 36702 45275 13024
cat_boundaries=0 1 10 19 28 29 38 46 47 48 55
cat_threshold=65 12 4 2147483649 0 0 2293888 65592 0 35 5 67125248 3224371265 35651656 8388609 67174528 16925 671088640 1063 1 0 72 2097152 512 1049600 49220 28 9633796 1922 4 0 1 2097152 0 0 16385 536870912 1 3104 0 128 32768 0 66 0 28 128 2 4 16384 64 2097152 0 65664 16389
is_linear=0
shrinkage=0.0810582


Tree=41
num_leaves=16
num_cat=11
split_feature=1 16 14 17 0 1 0 0 1 0 0 1 2 0 12
split_gain=3.39636e+07 1.56052e+07 2.07174e+06 1.2734e+06 1.11489e+06 662972 634904 445839 290906 137136 110519 111993 101276 39659.6 13045.6
threshold=0 1.6101355071862282 -0.44768558442667006 1.1301290740052925 1 2 3 4 5 6 7 8 9 10 -0.23425216599367069
decision_type=9 2 2 2 9 9 9 9 9 9 9 9 1 9 2
left_child=1 4 3 -3 12 -4 8 -6 13 -10 14 -12 -1 -2 -8
right_child=6 2 5 -5 7 -7 10 -9 9 -11 11 -13 -14 -15 -16
leaf_value=-0.038594005722420104 -0.039283852981571749 -0.023654224272663914 -0.015089501630804318 -0.013615807543427857 -0.034152405581053778 -0.028789096582416122 -0.040193270829279135 -0.037050643156471268 -0.033617204190929707 -0.037414749805788863 -0.035322886645826203 -0.039297923089239087 -0.028178399143508327 -0.036877161766814576 -0.039716086301536953
leaf_weight=6396598.5974758267 205783448.39045143 1541875609.0566962 24009791.070861816 87754384.672745705 602893589.4997983 696756159.64070964 2134239654.5289776 827295516.84640837 174441640.37216467 97350534.14143312 49014558.723675847 934362702.8642596 149314202.81094992 57584552.006619096 457050456.26213288
leaf_count=2118 21777 2893 259 220 47219 9133 7833 82034 15241 27356 14775 197376 34584 24020 5191
internal_value=0 -0.0289065 -0.0247141 -0.0231137 -0.0351197 -0.0283327 -0.0394416 -0.0358289 -0.0368378 -0.0349774 -0.0398314 -0.0390998 -0.0286063 -0.0387576 -0.0401091
internal_weight=0 3.9363e+09 2.3504e+09 1.62963e+09 1.5859e+09 7.20766e+08 4.10983e+09 1.43019e+09 5.3516e+08 2.71792e+08 3.57467e+09 9.83377e+08 1.55711e+08 2.63368e+08 2.59129e+09
internal_count=492029 178460 12505 3113 165955 9392 313569 129253 88394 42597 225175 212151 36702 45797 13024
cat_boundaries=0 1 10 11 20 29 30 39 47 48 49 56
cat_threshold=65 12 4 2147483649 0 0 2293888 65592 0 35 1 5 67125248 3224371265 35651656 2155872257 67174528 16925 671088640 1063 1 0 72 2097152 512 1049600 49220 28 9633796 1922 4 16384 65 2097160 0 0 16385 536870912 1 3104 0 128 32768 0 66 0 28 128 2 4 16384 64 2097152 2147483648 65664 16389
is_linear=0
shrinkage=0.0810582


Tree=42
num_leaves=16
num_cat=10
split_feature=1 16 14 0 11 10 0 0 1 0 0 1 2 0 12
split_gain=3.47218e+07 1.57327e+07 2.06233e+06 1.13626e+06 1.11125e+06 680527 657966 458039 277092 167256 107546 120521 102791 42515.1 13571.4
threshold=0 1.6101355071862282 -0.44768558442667006 1 -0.33707017177331872 0.15133269812294184 2 3 4 5 6 7 8 9 -0.23425216599367069
decision_type=9 2 2 9 2 2 9 9 9 9 9 9 1 9 2
left_child=1 3 4 12 -3 -4 8 -5 13 -10 14 -12 -1 -2 -8
right_child=6 2 5 7 -6 -7 10 -9 9 -11 11 -13 -14 -15 -16
leaf_value=-0.038528753817417966 -0.039244793420739936 -0.024297026019029576 -0.025479106559216917 -0.033698924349997432 -0.019818421316836775 -0.03053167464336937 -0.040190849197171807 -0.036775453287408132 -0.033390358608927126 -0.037516059893153063 -0.035001911775972026 -0.039288507476808301 -0.027833336730901975 -0.036944986072086412 -0.039694360446391498
leaf_weight=6154431.391533792 197916494.41255355 1029172734.042521 352418084.78039819 496910045.94015312 563226614.8864727 348215297.58240384 2050158649.3122644 882945484.89126611 168674874.62262785 104603385.53473663 45335383.033722878 872896632.29027081 145165494.00499713 72049227.754998446 439253945.18154764
leaf_count=2118 21902 1031 3832 42770 2082 5560 7833 86483 15241 32958 13697 185163 34584 31584 5191
internal_value=0 -0.0285739 -0.0243254 -0.0349363 -0.022713 -0.0279902 -0.039409 -0.0356675 -0.0367891 -0.0349696 -0.0398267 -0.0390769 -0.0282683 -0.038631 -0.0401032
internal_weight=0 3.82421e+09 2.29303e+09 1.53118e+09 1.5924e+09 7.00633e+08 3.95089e+09 1.37986e+09 5.43244e+08 2.73278e+08 3.40764e+09 9.18232e+08 1.5132e+08 2.69966e+08 2.48941e+09
internal_count=492029 178460 12505 165955 3113 9392 313569 129253 101685 48199 211884 198860 36702 53486 13024
cat_boundaries=0 1 10 19 28 29 38 46 47 48 55
cat_threshold=65 12 4 2147483649 0 0 2293888 65592 0 35 5 83902464 3224371265 52428872 2155872257 67174528 16925 671088640 1063 1 0 72 0 512 1049600 49220 24 1245188 1922 4 16384 65 2097160 0 0 16385 536870912 1 3104 0 128 32768 0 66 0 28 128 2 4 16793600 64 2097152 2147483648 65664 16389
is_linear=0
shrinkage=0.0810582


Tree=43
num_leaves=16
num_cat=10
split_feature=1 16 14 17 0 10 0 0 1 0 0 1 2 0 12
split_gain=3.54765e+07 1.58467e+07 2.05062e+06 1.25922e+06 1.15726e+06 682810 681753 470435 285494 171551 111768 124547 104251 43999.4 14118
threshold=0 1.6101355071862282 -0.44768558442667006 1.1301290740052925 1 0.15133269812294184 2 3 4 5 6 7 8 9 -0.23425216599367069
decision_type=9 2 2 2 9 2 9 9 9 9 9 9 1 9 2
left_child=1 4 3 -3 12 -4 8 -6 13 -10 14 -12 -1 -2 -8
right_child=6 2 5 -5 7 -7 10 -9 9 -11 11 -13 -14 -15 -16
leaf_value=-0.038461051288638894 -0.039204467415833645 -0.022863673377712206 -0.025097862228611125 -0.012709288847649587 -0.03372120192083046 -0.030230309973827738 -0.040188328627518075 -0.036805332534619831 -0.033157367305985626 -0.037411456588492542 -0.034814883574442859 -0.039249887259335182 -0.027482819736582832 -0.036820511630236703 -0.039671767721209103
leaf_weight=5921818.7300666571 190299738.89631999 1471776337.9545984 343552215.68737882 84866141.082157612 563088745.06034291 337744363.38213068 1969394881.7891383 768419547.98467028 163135751.38680035 100751778.96203381 43776007.767851174 839266786.24403834 141180765.37258941 69435941.271372318 422159559.17124891
leaf_count=2118 21902 2893 3832 220 47219 5560 7833 82034 15241 32958 13697 185163 34584 31584 5191
internal_value=0 -0.0282356 -0.0239333 -0.0223101 -0.0347473 -0.0276422 -0.0393751 -0.0355011 -0.0366594 -0.0347816 -0.0398094 -0.03903 -0.0279248 -0.0385672 -0.0400971
internal_weight=0 3.71655e+09 2.23794e+09 1.55664e+09 1.47861e+09 6.81297e+08 3.79822e+09 1.33151e+09 5.23623e+08 2.63888e+08 3.2746e+09 8.83043e+08 1.47103e+08 2.59736e+08 2.39155e+09
internal_count=492029 178460 12505 3113 165955 9392 313569 129253 101685 48199 211884 198860 36702 53486 13024
cat_boundaries=0 1 10 19 28 29 38 46 47 48 55
cat_threshold=65 12 4 2147483649 0 0 2293888 65592 0 35 5 83902464 3224371265 52428872 2155872257 67174528 16925 671088640 1063 1 0 72 2097152 512 1049600 49220 28 9633796 1922 4 16384 65 2097160 0 0 16385 536870912 1 3104 0 128 32768 0 66 0 28 128 2 4 16793600 64 2097152 2147483648 65664 16389
is_linear=0
shrinkage=0.0810582


Tree=44
num_leaves=16
num_cat=3
split_feature=16 13 17 0 14 8 0 16 8 15 16 14 0 19 9
split_gain=7.40089e+06 1.68288e+06 2.28605e+06 1.12921e+06 760099 583193 557283 522652 230930 132134 104102 98632.5 97408 25943.7 21150.7
threshold=1.7865933748910112 -0.18231960732724747 1.1301290740052925 0 -0.44768558442667006 -0.49504732652472389 1 1.0000000180025095e-35 -0.23191842315605335 -0.25005458195640357 -1.0254541462951128 0.76768055030133764 2 0.7394995634861149 1.022174828270116
decision_type=2 2 2 9 2 2 9 2 2 2 2 2 9 2 2
left_child=3 2 5 10 14 -2 -4 12 -6 -9 13 -12 -5 -1 -3
right_child=1 4 6 7 8 -7 -8 9 -10 -11 11 -13 -14 -15 -16
leaf_value=-0.035537583627599782 -0.027540383322301153 -0.031819329964823534 -0.015584521341303052 -0.036722864555156144 -0.036470990845535151 -0.03115095858687186 -0.036823235776710823 -0.037451618591793502 -0.033305469812792692 -0.035372851398438578 -0.032897996925928784 -0.035175433279759846 -0.038671840632189952 -0.032292823210895848 -0.030880228301188389
leaf_weight=273769981.81957448 440128382.98796391 1727951023.2170491 94131567.999267578 195786732.30131781 330808915.37303555 884932800.71142888 8883381.6429634094 281013223.66263664 279232507.18086374 704792922.55572307 474094259.61111975 169658890.79925728 1208939707.4937568 17208282.817967296 173390494.59424019
leaf_count=11235 2548 1147 94 58350 6351 11482 1051 46326 6923 82176 93539 42120 123293 4958 436
internal_value=0 -0.0312691 -0.0290474 -0.0364621 -0.0325325 -0.0299517 -0.017416 -0.0373961 -0.035022 -0.0359654 -0.0340733 -0.0334982 -0.0384002 -0.0353457 -0.0317337
internal_weight=0 3.93946e+09 1.42808e+09 3.32526e+09 2.51138e+09 1.32506e+09 1.03015e+08 2.39053e+09 6.10041e+08 9.85806e+08 9.34731e+08 6.43753e+08 1.40473e+09 2.90978e+08 1.90134e+09
internal_count=492029 30032 15175 461997 14857 14030 1145 310145 13274 128502 151852 135659 181643 16193 1583
cat_boundaries=0 9 10 19
cat_threshold=13 4 2147488833 2097152 32768 2293888 114812 536870912 1114147 32 2 67125248 1076888328 33864 2155872768 68158528 2181038593 8486912 8519684
is_linear=0
shrinkage=0.0810582


Tree=45
num_leaves=16
num_cat=11
split_feature=1 16 14 0 17 0 1 0 1 0 0 1 2 0 12
split_gain=3.74334e+07 1.63044e+07 2.06894e+06 1.21275e+06 1.18589e+06 731070 718675 496713 304170 181735 120835 133449 109347 47253 15246.9
threshold=0 1.6101355071862282 -0.44768558442667006 1 1.1301290740052925 2 3 4 5 6 7 8 9 10 -0.23425216599367069
decision_type=9 2 2 9 2 9 9 9 9 9 9 9 1 9 2
left_child=1 3 4 12 -3 8 -4 -5 13 -10 14 -12 -1 -2 -7
right_child=5 2 6 7 -6 10 -8 -9 9 -11 11 -13 -14 -15 -16
leaf_value=-0.038328101077148312 -0.039124797925454986 -0.021898962791085066 -0.012334071590602836 -0.033253369509237185 -0.011892859012971796 -0.040183530539148235 -0.027361637427771483 -0.036537866747645677 -0.032664534465088102 -0.037199381827134927 -0.034411844303507862 -0.039170290449446456 -0.026677401505625684 -0.036562935528473242 -0.039626206997217181
leaf_weight=5512660.7063186169 176853298.84783137 1394415059.9051909 21640110.454939604 525450046.53283614 82422958.686216116 1832018874.200098 619600320.58034325 713088065.94470692 152539944.32549179 93752962.23615247 40755110.098245025 777527884.61045277 132804315.96721834 64588229.044539094 391439769.11535025
leaf_count=2118 21902 2893 259 47219 220 7833 9133 82034 15241 32958 13697 185163 34584 31584 5191
internal_value=0 -0.0274736 -0.0230099 -0.0343405 -0.0213405 -0.0393083 -0.0268545 -0.0351444 -0.036395 -0.0343908 -0.0397755 -0.0389333 -0.0271417 -0.0384395 -0.0400854
internal_weight=0 3.49493e+09 2.11808e+09 1.37686e+09 1.47684e+09 3.52948e+09 6.4124e+08 1.23854e+09 4.87734e+08 2.46293e+08 3.04174e+09 8.18283e+08 1.38317e+08 2.41442e+08 2.22346e+09
internal_count=492029 178460 12505 165955 3113 313569 9392 129253 101685 48199 211884 198860 36702 53486 13024
cat_boundaries=0 1 10 19 20 29 30 39 47 48 49 56
cat_threshold=65 12 4 2147483649 0 0 2293888 65592 0 35 5 83902464 3224371265 52428872 2155872257 67174528 16925 671088640 1063 1 1 0 72 2097152 512 1049600 49220 28 9633796 1922 4 16384 65 2097160 0 0 16385 536870912 1 3104 0 128 32768 0 66 0 28 128 2 4 16793600 64 2097152 2147483648 65664 16389
is_linear=0
shrinkage=0.0810582


Tree=46
num_leaves=16
num_cat=10
split_feature=1 16 14 0 17 0 10 0 1 0 0 1 2 0 12
split_gain=3.81756e+07 1.63729e+07 2.04927e+06 1.2324e+06 1.15556e+06 757085 716328 510050 313027 186098 125552 137789 110951 48868.7 15859.5
threshold=0 1.6101355071862282 -0.44768558442667006 1 1.1301290740052925 2 0.15133269812294184 3 4 5 6 7 8 9 -0.23425216599367069
decision_type=9 2 2 9 2 9 2 9 9 9 9 9 1 9 2
left_child=1 3 4 12 -3 8 -4 -5 13 -10 14 -12 -1 -2 -7
right_child=5 2 6 7 -6 10 -8 -9 9 -11 11 -13 -14 -15 -16
leaf_value=-0.038252797360529646 -0.039079809708079741 -0.021492610050927563 -0.02377820815114548 -0.032742990291842147 -0.01155357028266888 -0.040180710139888977 -0.029270291587860323 -0.036223482358278283 -0.032412590924816458 -0.037083675823003683 -0.0342073647438845 -0.039127066215794856 -0.026290772212996884 -0.036425544678534226 -0.039600898580814919
leaf_weight=5304562.3445524573 170067560.16443008 1364210757.1443877 316032047.94067514 434344746.08463502 81448518.999818802 1759861375.6742575 308219665.02432406 761977361.44684315 147637796.53430879 90329480.517515957 39376507.84814024 747660664.28876352 128754962.21579295 62269344.654964507 376231801.94927573
leaf_count=2108 21902 2893 3832 43393 220 7833 5560 86483 15241 32958 13697 185163 33971 31584 5191
