tree
version=v3
num_class=1
num_tree_per_iteration=1
label_index=0
max_feature_idx=20
objective=poisson
feature_names=cat1 cat2 cat3 cat4 cat5 cat6 cat7 cat8 cont1 cont2 cont3 cont4 cont5 cont6 cont7 cont8 cont9 cont10 cont11 cont12 cont13
feature_infos=-1:273:154:119:167:245:158:120:195:197:226:176:184:177:180:256:198:0:2:206:196:258:272:170:70:64:257:228:128:249:34:207:155:194:208:276:279:67:73:106:94:181:5:192:66:201:26:261:72:174:3:126:266:203:102:95:166:117:58:99:121:13:85:178:25:76:63:267:123:50:57:56:131:48:159:165:137:46:61:43:143:114:105:223:234:179:247:97:193:68:1 -1:6:9:4:2:5:8:7:10:11 -1:0:1:2 -1:0:2:1 -1:1:2:0 -1:0:1 -1:1:0 -1:6:2:5:1:3:4:8:9:0 [-0.68638006827164832:19.916760789038999] [-3.3257811767291803:6.6250556549863919] [-3.8761156244745298:4.5260526006084376] [-0.92106593358110278:5.437999028325879] [-7.7204407525553265:3.1162033818697985] [-5.3338004762605369:3.6727832502654909] [-1.4725983637243047:2.6530485955870127] [-1.4039038152490291:5.2259353197978218] [-1.7815236349131995:4.3161717655362031] [-3.7914358420833016:3.856275274329573] [-2.1552891877765101:0.97040651241484943] [-0.99243321496119596:2.4714340913596078] [-0.48925817199165977:4.8858111792260432]
tree_sizes=7571 7699 7589 7587 7639 7748 7664 7719 7738 7844 7554 7767 7800 7769 7763 7585 7800 7807 7678

Tree=0
num_leaves=70
num_cat=9
split_feature=15 20 1 16 14 1 14 8 14 7 11 9 17 17 17 15 11 19 14 9 17 8 15 14 16 11 19 14 16 16 19 8 1 1 11 16 14 7 1 11 8 15 19 14 16 11 9 9 8 17 19 14 14 16 14 15 8 16 14 9 9 14 1 19 16 15 1 16 9
split_gain=61358.9 25092.1 69889.7 123279 158334 40459.7 45685.3 22607.3 16107.9 16027.1 15892.8 14739.2 16779.3 20027.2 12163 11888.1 19357.4 11430.6 10257.6 10008.4 7824.37 6228.25 6224.79 19196.7 6127.39 6028.02 8450.43 7500.13 5521.88 5063.29 4974.65 7013.2 4822.08 4310.03 4044.85 6780.56 3724.2 3547.41 3497.06 7026.15 3328.65 3189.31 3073.07 2984.58 3957.76 3388 2936.89 15498.5 2782.59 2636.49 2623.11 2523.43 2547.65 2446.35 2373.77 2357.2 3058.44 2302.61 5018.62 3309.56 5487.47 3250.23 2948.54 11609.3 3608.61 2277.19 2102.44 2176.47 2505.15
threshold=-0.35497042465644335 1.6227919931503478 0 -0.17991111132050827 -0.93137053318036334 1 -1.2366304703810906 -0.40003881093021398 2.2186939691501593 2 -0.21767548269261622 1.2903685842462111 -0.21094544107715799 -0.14966669796971896 1.9122961009148305 -0.94449175361262594 -0.88213288279391711 0.73380484119509048 -0.94832550384371561 -0.42911019536505329 0.53386265101503949 -0.23382941734569443 -0.49581865110249213 -0.91945173787385603 1.3338399900730009 -0.42012734678598135 -0.82149800683196772 -1.0650212016769931 -0.049148496179235793 -0.78408048228203275 1.0000000180025095e-35 -0.49785416973756241 3 4 -0.70563638589200905 -0.085912103346731591 -0.43406558011729307 5 6 0.69076236900838117 -0.33839539957021453 1.0070442041082084 0.57984281936237447 -0.83691598206776829 -0.80186554390422704 1.2410161534672712 -0.031936263104927497 -0.10173140488286612 -0.27474204597184276 -0.42183587393436478 0.73950620510528775 -0.99375957843649465 -0.87379607847503549 1.6958829616410813 -0.91945173787385603 -0.87799161510388612 -0.59631477322581772 -0.9814483910984434 -0.46587419698200055 0.47076595382672703 0.26866088423453355 -0.72783998942273509 7 -0.82149800683196772 1.1708137463994295 1.1395594152646 8 -0.52080202904768569 -0.79838594430410248
decision_type=2 2 9 2 2 9 2 2 2 9 2 2 2 2 2 2 2 2 2 2 2 2 2 2 2 2 2 2 2 2 2 2 9 9 2 2 2 9 9 2 2 2 2 2 2 2 2 2 2 2 2 2 2 2 2 2 2 2 2 2 2 2 9 2 2 2 9 2 2
left_child=1 5 34 20 -5 6 -1 9 22 19 21 12 18 -14 15 16 -15 -13 -8 49 29 25 33 -24 28 26 -9 -28 38 -4 31 -20 -25 -7 35 -3 -26 -30 39 -12 42 -11 -18 54 48 -46 47 55 -45 -2 -48 -49 -53 -38 -17 -35 -57 -23 59 60 -59 -61 63 -60 -64 -66 67 -58 -69
right_child=7 2 3 4 -6 8 11 10 -10 41 24 17 13 14 -16 43 40 -19 30 -21 -22 57 23 32 36 -27 27 -29 37 -31 -32 -33 -34 46 -36 -37 53 -39 -40 -41 -42 -43 -44 44 45 -47 50 51 -50 -51 -52 52 -54 -55 -56 56 66 58 62 61 -62 -63 64 -65 65 -67 -68 68 -70
leaf_value=0.038808731272283722 0.005576567121223632 0.025848696389237154 0.0072415208177493027 0.29640016343976811 0.038963795162115865 0.021703322275843848 -0.021045445255388612 0.046919179030143005 0.035353796319041224 -0.0028889857656645983 -0.015261539752619277 0.043208033688264987 0.044812953995099422 0.0491847712091125 0.032028242659443228 0.0010358752438904008 0.028592705184300866 0.0063454028193300508 -0.0054596920675506356 -0.020345929829642038 -0.020635488362034278 -0.013063699999405324 0.088310683434738302 0.018112345883058524 0.046757710621454514 0.05098272337712971 0.02334625640545299 -0.014160113263510493 -0.022179490552542633 0.053831692780217634 -0.0077302674294926071 0.024911438961405536 -0.016623638028194183 -0.019216529081917219 -0.0099963880410517472 -0.0066019826818264861 0.020942303973130127 -0.0068853434091967975 -0.0061680462639711236 0.055288805804928023 0.00094460232381015936 0.02063375109255294 0.0069524867460371261 0.0068398212999387529 -0.012218494948432556 0.0074040948252878528 -0.017710492273036484 0.049573006795632792 -0.0054939040298757 -0.015903463491198581 0.012766753398070036 0.041965991654428776 -0.011110127877544607 -0.010282682312776806 0.014348097483276086 0.023446294044137381 -0.01924593306144699 0.0061851247710589911 0.092430779074937158 0.019129129997887299 0.047984040408939541 -0.0040381711192222485 -0.011138243972267219 -0.025069750828019696 0.020828011728540083 -0.0017457160996470621 -0.01818088665181147 0.034469721993637084 -0.0034826041636505495
leaf_weight=132205.89489340782 59114.437756303698 35423.595487117767 15646.799261391163 12423.098168194294 15148.675671949983 10494.519624233246 98758.226844549179 16537.117146015167 23237.677121441811 189831.27912726719 8079.6022678613663 50947.672426253557 39881.015623569489 38858.996152430773 48310.633754312992 95316.230649352074 31613.128940671682 45492.939774334431 43768.71907684952 577692.48620201647 15339.61752897501 23865.003580603749 7158.9531944394112 17086.320716720074 7227.3858156055212 14133.479613259435 29293.599140707403 31732.093993246555 125381.03288455307 11608.822146311402 103568.75841410458 43123.356777906418 34413.154348631389 94269.859311833978 56667.346125483513 38269.451399326324 13105.338497437537 66210.590921193128 158822.11522323452 8051.2895070314407 97993.416682124138 18031.203204778256 46072.672370284796 142527.89851990342 134986.25101831555 30890.543771147728 249125.08957776264 12460.609001159668 82514.210184022784 22553.489807248116 8337.5630556344986 4882.0690505206585 5486.9609806237277 15822.132491379976 63941.697227790952 8516.1622844096273 11414.8626508452 18585.306958019733 4268.8838281482458 31503.430601067841 17350.805558264256 38374.784641981125 82706.627693735063 5492.8579710125923 20156.406560748816 34824.89677631855 42758.793929934502 7552.1039009839296 14524.165744453669
leaf_count=104 296 145 120 89 146 65 223 146 190 1559 256 87 46 112 109 325 71 113 104 1268 187 225 150 58 131 185 106 214 536 115 194 118 589 820 175 69 180 504 1109 173 416 267 166 229 490 68 2960 16 195 222 86 59 142 155 200 175 188 136 150 241 90 318 672 170 168 320 603 97 222
internal_value=0 0.00589895 0.0238914 0.0669023 0.154962 0.00402222 0.00894159 -0.00786859 -0.00820019 -0.0137901 -0.00121258 0.00575352 0.00405915 0.0078318 0.00601774 0.00437451 0.0150468 0.0258194 -0.00706638 -0.0178699 0.0099003 0.00680344 -0.0101153 0.00630191 -0.00855432 0.0188786 0.0130281 0.00384366 -0.0106251 0.0270863 0.000182085 0.00961307 -0.00509885 -0.0121651 0.000740426 0.00899676 0.0124388 -0.0168942 -0.00375965 0.019952 0.00749559 -0.000848404 0.0157589 0.000212874 -0.00229988 -0.00856421 -0.0129389 -0.008112 0.00231749 -0.000355365 -0.0167235 0.0333626 0.0138801 0.00386343 0.00638078 -0.0134007 -0.00693272 0.00280798 0.00430361 0.0131856 0.0263672 0.0064064 -0.00207032 0.0263158 -0.00408297 0.00652993 -0.0103259 -0.000296972 0.00950081
internal_weight=0 2.12302e+06 200527 70167 27571.8 1.92249e+06 1.37077e+06 1.63875e+06 551719 867223 771525 1.23857e+06 1.14213e+06 852907 813026 764715 214538 96440.6 289219 659360 42595.2 368825 528481 58658.4 402699 91696.3 77562.8 61025.7 366545 27255.6 190461 86892.1 51499.5 469823 130360 73693 36154.9 191592 174953 16130.9 175679 207862 77685.8 550177 390919 165877 459328 201866 225042 81667.9 257463 22829.6 10369 28927.5 159258 179036 84766.1 277129 253264 105814 35936.1 69878.2 147450 9761.74 137688 54981.3 76249.9 33491.1 22076.3
internal_count=20633 10836 1046 657 235 9790 3370 9797 6420 3612 6185 3266 3066 2427 2381 2272 765 200 639 1786 422 3141 6230 797 3044 651 466 320 2578 235 416 222 647 5433 389 214 466 1040 1538 429 653 1826 237 1507 982 558 5368 2322 424 518 3046 217 201 335 525 2105 1285 2490 2265 785 226 559 1480 320 1160 488 1110 507 319
cat_boundaries=0 1 2 3 4 5 6 7 8 9
cat_threshold=64 64 64 32 128 64 512 16 512
is_linear=0
shrinkage=0.0534508


Tree=1
num_leaves=70
num_cat=20
split_feature=12 0 0 0 1 13 3 14 12 19 15 0 12 11 10 9 12 12 15 12 0 20 11 1 13 12 13 20 11 9 15 10 10 0 7 9 11 15 12 19 0 9 1 15 14 9 1 15 1 0 12 11 1 19 9 14 12 14 14 10 19 0 14 0 13 9 0 11 5
split_gain=91023.4 114504 44891 39003.8 43184.2 53888.1 30305.5 27023.5 15760.9 13019.4 11039.3 10970.5 10188.3 10116.4 18348.4 9512.2 9398.79 7761.81 7331.33 7226.92 8530.83 6691.91 10495.5 7269.29 10189.1 6866.61 6397.96 10514.6 7738.01 5416.3 5020.35 5002.95 15405.2 4009.44 3778.73 3404.68 3210.4 8147.7 3113.76 3095.39 3266.8 3019.83 2805.67 4010.53 2666.76 4438.89 2576.41 2518.07 5500.22 9748.7 4951.23 2991.34 3893.94 4951.5 2906.64 3177.38 2603.55 2003.28 3530.21 1895.55 2871.53 1822.34 1799.66 1727.31 1602.14 1573.09 1559.35 1537.44 1524.1
threshold=-0.10175457241862124 0 1 2 3 -0.75851860590457376 4 -1.2366304703810906 0.43345367187251749 0.71583360050660261 -0.94449175361262594 5 0.92767813866891136 -0.90289717654708279 0.073534844186988371 -1.8211067724650858 1.1907981600141164 0.47530340961270728 -0.90770685505102977 1.677496218532273 6 -0.48398412572513078 -0.65891672494738629 7 -0.020467856823343799 1.0000000180025095e-35 -0.14318833274457377 -0.33994430350529475 -0.84060429528758573 0.21370010418647709 0.9104346812196672 0.030689649265738653 0.073534844186988371 8 9 1.0000000180025095e-35 -0.67968101870055198 -0.36949961613277993 0.29803118562388914 -0.95971442499118897 10 -0.068999412914079891 11 -0.28663198787106275 -0.40751759391304648 0.36265872859533932 12 1.3534300417786145 13 14 -0.82058547353906397 -0.16576474830970209 15 0.23629281039088318 1.4035450412580823 0.77005852105506822 -0.82058547353906397 0.33111433301908627 -0.61691047232646345 0.93043874261198256 -0.3873864052922536 16 -0.99375957843649465 17 -0.14318833274457377 -0.20299898739202007 18 2.2377022536192226 19
decision_type=2 9 9 9 9 2 1 2 2 2 2 9 2 2 2 2 2 2 2 2 9 2 2 9 2 2 2 2 2 2 2 2 2 9 9 2 2 2 2 2 9 2 9 2 2 2 9 2 9 9 2 2 9 2 2 2 2 2 2 2 2 9 2 9 2 2 9 2 1
left_child=2 -2 44 4 5 7 8 -3 31 12 35 42 68 14 -4 -14 41 -13 -9 21 -21 30 26 24 -24 -25 27 28 -23 -26 34 -7 -33 65 -5 -11 37 -28 64 -29 -41 -10 43 -12 45 -1 -36 50 56 -50 54 52 61 -54 55 57 -49 58 59 -35 -61 -52 -42 -48 -34 -15 -27 -59 -6
right_child=1 3 13 19 9 6 -8 18 16 10 11 17 15 33 -16 -17 -18 -19 -20 20 -22 22 23 25 29 66 36 39 -30 -31 -32 32 38 47 46 -37 -38 -39 -40 40 62 -43 -44 -45 -46 -47 63 48 49 -51 51 -53 53 -55 -56 -57 -58 67 -60 60 -62 -63 -64 -65 -66 -67 -68 -69 -70
leaf_value=-0.02098083345259253 0.093651908228027561 0.066483564769388201 -0.00013024596373317274 0.013718692270578425 -0.020398143816323537 0.0034199883224021832 0.032963609242143657 0.036872394958702884 -0.018853583223055928 0.0059655247863067296 -0.0088717362224203025 0.050741238472177617 0.078734332607717936 0.023197610603740971 0.1460824211106235 -0.014049288169182439 0.0090510688211608587 0.013203857974048001 0.011900272094453454 0.036266627061282218 -0.0018715781257090964 0.0055129348433566551 -0.019800755070365762 0.016457160884856985 0.061245703614104093 -0.02122624776121023 0.012445071397271306 0.018856815417781086 0.071663272823203714 0.0099774772807378325 0.015620861081567119 0.046859106290224189 -0.0092882505356170694 -0.0066838136607641971 -0.019618757961103052 -0.022425697681618065 0.013018233820263209 0.067046733328757296 0.018284563956781873 -0.015322329303394992 0.025335413134604131 -0.0050501848930489049 -0.022126022818011945 0.039120649801173697 -0.022017852994063808 -0.0013117670882660491 -0.0025838146567989718 -0.018208021890540486 0.071852273123307706 -0.011469451796919817 -0.020396235506906543 -0.014038047831830524 -0.011895780498073886 0.051802930807403606 0.015288071744564627 -0.014467115091987929 0.0053077752463712696 0.012443461822018343 -0.013050732840283876 0.032466746651378713 0.00015374187081420191 0.0048443305379089934 -0.0025203137641867383 -0.0088462079350925867 0.0098058889844840451 0.0038135324371310233 -0.0076319557477858091 0.00065258587228748976 -0.0014870548571776321
leaf_weight=89942.298065043986 42105.620887756348 76492.336709499359 7180.2818870618939 23689.136315137148 144730.48033598065 74411.589246496558 130441.27211594582 84981.065799996257 86163.77196007967 17900.259578615427 15375.458961769938 28857.16140418034 6144.3925202377141 22295.272324092686 3723.1570267677307 6491.2743079066277 96388.155286669731 34618.44025683403 55541.388329803944 29379.819214820862 38973.136794619262 9800.8449333906174 15541.260809630156 20196.55906303972 11934.985251493752 83245.734823942184 16725.326322376728 15733.572889626026 10427.22290968895 11619.100094139576 28530.401800364256 44057.416551828384 26976.020043820143 22224.284478422254 50441.708168739453 37030.271879203618 27922.720022320747 14644.735739350319 51455.071773529053 50456.645206451416 10134.774113640189 95438.795419603586 16849.612888835371 7353.3375363349915 564640.39835645258 51580.259890012443 176361.29732767493 18682.839258104563 8691.2038582861423 7437.9190193964168 17974.193300247192 171721.24635901302 6098.7882366329432 8138.0119475126266 30486.220072001219 49203.789910096675 48028.912244319916 47953.59480035305 65843.166364073753 13450.682518702932 18894.091672796756 14967.234332233667 19137.769390955567 439724.48455904424 23483.52449285984 25807.383931398392 34041.93469594419 92616.721340551972 13294.826321080327
leaf_count=226 36 9 205 178 1018 154 143 163 100 113 172 124 110 163 61 136 123 109 88 156 422 202 137 140 174 123 174 92 52 47 147 74 114 221 1539 266 25 101 127 126 209 175 332 105 445 156 1778 154 154 506 95 1626 236 174 110 140 266 102 307 167 275 129 405 3384 95 439 532 165 82
internal_value=0 0.00632068 -0.0108597 0.00473013 0.0115642 0.0179531 0.0100273 0.0409186 0.00402408 -0.00487828 0.00617891 0.0164945 -0.0151142 -0.00128165 0.0498008 0.0310699 -0.00443925 0.0302599 0.0270023 -0.00231894 0.0145313 -0.0033951 0.002648 -0.0065455 0.0137916 -0.0123287 0.0119254 0.00460834 0.0396137 0.0359565 -0.00635099 0.0146997 0.0204496 -0.00208835 -0.00725923 -0.0131737 0.0262019 0.0379362 0.00903262 -0.00280922 -0.00708493 -0.0115995 -0.00559484 0.0066553 -0.0203728 -0.0138122 -0.00800483 -0.00320295 0.00549424 0.033504 -0.00449064 -0.010763 0.00115771 0.0245157 -0.000460316 -0.00200817 -0.0012779 0.000340752 -0.00471898 0.00533404 0.0135917 -0.00893731 0.00711914 -0.00705392 -0.000401827 0.0127929 -0.0172856 0.00467496 -0.0188072
internal_weight=0 2.35524e+06 1.40758e+06 2.31314e+06 1.17448e+06 845830 628816 217015 498374 328646 157985 103054 170661 701419 10903.4 12635.7 277991 63475.6 140522 1.13866e+06 68353 1.07031e+06 351563 176580 39095.3 137484 174984 115691 20228.1 23554.1 718747 220384 145972 690516 690217 54930.5 59292.8 31370.1 101915 95462.8 79729.2 181603 39578.4 22728.8 706163 141523 666527 642413 82840.9 16129.1 559572 218899 47178.2 14236.8 340673 310186 66711.8 260983 120412 54569.1 32344.8 32941.4 29272.5 616086 50459.5 48102.7 117288 140570 158025
internal_count=20633 14111 6522 14075 3932 1365 1105 260 962 2567 1221 842 1346 5695 266 246 398 233 251 10143 578 9565 2539 1153 358 795 1386 1086 254 221 7026 564 410 5429 6879 379 300 275 336 832 740 275 609 277 827 382 6701 4827 1080 660 3747 2260 634 410 1487 1377 420 1237 970 663 442 224 614 5162 209 602 655 267 1100
cat_boundaries=0 3 11 20 21 22 29 38 39 47 48 53 54 55 56 61 62 71 80 85 86
cat_threshold=32 0 16 32 0 0 0 1207959552 0 16384 20 0 0 8 0 67108864 1152 49240 0 1114116 64 1 0 0 0 0 67108864 128 8 0 0 64 0 0 0 0 0 131072 512 1 0 0 0 0 65536 32 2097152 4 0 0 64 0 1073741824 512 16 64 0 0 0 0 67108864 64 0 0 0 0 67108864 0 0 0 8388608 5 0 0 16777216 0 16973824 65537 2097156 1 0 0 0 0 1073741824 1
is_linear=0
shrinkage=0.0534508


Tree=2
num_leaves=70
num_cat=8
split_feature=12 12 13 1 14 18 13 17 14 16 17 12 18 16 16 16 18 12 8 18 12 4 17 12 14 13 14 16 8 8 13 1 13 1 17 18 15 12 17 14 15 18 1 16 16 12 16 16 8 1 15 8 15 19 12 19 17 13 18 17 4 14 1 14 15 19 14 14 16
split_gain=86597.7 27972.1 16605.2 66364.6 37723.8 20046.1 15151.8 14904.7 12372.8 51742.7 85233.6 10920.3 10812 15534.3 15404.7 10511.2 14108.2 10911.5 9124.32 11893.7 8688.75 8020.89 8016.31 7411.92 7406.85 10725.9 5150.9 5042.01 4531.64 5361.81 4006.93 4340.37 20952.9 4554.27 3950.78 3858.35 3711.22 3383.03 3844.21 3379.8 3466.25 3311.45 3248.41 13112.3 3594.17 2872.58 2598.86 3369.49 2630.5 2809.32 6246.13 2494.51 5644.43 2972.62 2358.41 2342.12 2267.82 2195.83 2159.72 2222.19 2125.74 2069.68 2163.14 2060.17 2070.56 1902.71 1873.39 1799.06 2420.55
threshold=-0.10175457241862124 -0.24193221452788158 -0.75851860590457376 0 -1.2366304703810906 -0.59177432437692046 -0.40228885938341236 -2.2461035815130748 -0.93137053318036334 -0.26746711803923395 0.070127032960585062 0.22076748207655619 -1.1206764849071831 -0.52080202904768569 -0.46237734478988785 1.1708137463994295 -0.50272072300266035 -0.82058547353906397 -0.19015168757147158 0.25699152012507293 0.38947689807698072 1 -0.26998641865000167 0.42305462035632363 1.0000000180025095e-35 0.027778607175783104 -1.0927492516162063 -0.22882549492327353 -0.50579136846230532 -0.385813622529873 1.0000000180025095e-35 2 -0.14318833274457377 3 -0.5828248269289239 -0.12504323154163546 -0.68968013986656973 0.92767813866891136 0.90587338740042311 -0.94832550384371561 1.3534300417786145 0.16728476665705469 4 3.1973217890169923 1.6958829616410813 1.4108743493518914 -0.84236381198213495 -0.57239955016554889 -0.48325951585759785 5 0.35407591480218642 -0.41732622144077908 -0.24575077419768507 -0.82149800683196772 -0.27737944237373618 0.75449314667277734 0.50817132047134439 -0.33257209017625206 0.43262449608002523 0.49344553538685737 6 1.6519145855539537 7 -0.61691047232646345 -0.059530660260783595 -0.99242497658579121 -0.83691598206776829 -0.91945173787385603 -0.95398711314476636
decision_type=2 2 2 9 2 2 2 2 2 2 2 2 2 2 2 2 2 2 2 2 2 1 2 2 2 2 2 2 2 2 2 9 2 9 2 2 2 2 2 2 2 2 9 2 2 2 2 2 2 9 2 2 2 2 2 2 2 2 2 2 1 2 9 2 2 2 2 2 2
left_child=1 15 3 4 -2 -6 20 -8 9 11 -11 -9 13 28 -15 17 -17 46 -5 -20 22 -7 -4 26 25 30 34 -24 -10 36 31 32 56 41 -13 -29 -30 -16 -39 54 65 66 44 -44 -18 61 -1 -48 63 50 -50 -3 -53 -54 -19 -21 -14 -51 -43 -60 -31 62 -26 -49 -65 -41 -33 68 -23
right_child=2 51 6 18 5 21 7 8 12 10 -12 23 24 14 37 16 42 39 19 55 -22 67 27 -25 45 -27 -28 35 29 60 -32 33 -34 -35 -36 -37 -38 38 -40 40 -42 58 43 -45 -46 -47 47 48 49 57 -52 52 53 -55 -56 -57 -58 -59 59 -61 -62 -63 -64 64 -66 -67 -68 -69 -70
leaf_value=0.0055491359850482263 0.060253273509797069 -0.020862791703466537 -0.015277819302238977 -0.021292882308210276 0.044584562792775444 0.034996327165139222 0.04094576562083202 -0.01580190847272964 -0.012729063300783603 0.11350199337200599 -0.0009661563969606586 0.013248011658482849 -0.017330499943955045 0.064461026720702946 0.011011372028786765 0.081377291105001734 0.014570782607032621 -0.0095559564998299387 0.042913214807473191 -0.016025132669272194 -0.010547994330190585 0.0086956298006728126 -0.0029664831610030891 -0.0068242537115751041 0.020093621102777199 0.044214694323586719 -0.0050264636247998864 0.013731493726984975 0.0265152276766706 0.003594774505199739 -0.023016781429502611 0.019929405822764489 0.043990429374552442 -0.01247581230580559 0.038469240162586758 0.041694043704610481 0.0049607001199914562 0.013238207857991563 0.063404067699821764 -0.0086410088871979214 0.010910024751994906 -0.013150893121034919 -0.0023494708666872712 0.093514335427923048 -0.009542490606767132 0.0046877481208606308 -0.010845684088824414 0.023096415061410275 0.058516609473317514 0.00020668906437686793 -0.014040881318437733 -0.022319803741343201 0.022673787470904868 -0.0065820858693756753 0.018528671048299184 0.017344412033133742 0.012783035126660579 -0.015685270789941159 0.0046867657029338265 -0.0099995468084933519 -0.01273892820109811 -0.018745914898370689 -0.0079653333884089714 0.013789335442283585 -0.012494430009990053 -0.021662839794766586 0.0052412932487060949 0.012396525373391006 -0.0081908377203735606
leaf_weight=125826.87214148045 82875.992181539536 487243.81249717064 37760.676290363073 109989.78341815621 61533.705486416817 28610.980025440454 34820.509385376936 67664.767694696784 41116.923433855176 35628.323843270307 38847.979569673538 34969.580553889275 33810.350662067533 25170.260930523276 64558.929457684746 7808.6128891855478 31904.75817912817 26246.36273534596 16725.232302814489 35127.977479413152 280426.37095241342 46252.348934426904 34807.622821442783 46824.73040252924 8188.6101528052241 17962.395659118891 19406.904372736812 47147.240768522024 48097.976067513227 76585.383060842752 17422.731569647789 41800.073378562927 36861.687860995531 62418.794280485483 36026.921244323254 20112.668135523563 43429.055084697902 9016.7040429115295 8458.6553289741278 39785.961390718818 11590.948137044907 32417.977303624153 13905.740432359278 5766.3294193521142 39553.376089155674 50327.677687041461 112955.32265911251 22300.884097778471 6243.2527452409267 57154.055906362832 7414.6654132604599 78299.495793297887 12397.732929892838 49689.562062784797 12663.956273078918 7248.6322970986366 9058.551087975502 43933.241912744939 149625.99101471901 36643.00945186615 32391.408197049052 52459.134307546541 189286.81582971476 19563.181344168261 15227.5606585145 165108.03784880787 61036.265779674053 49058.74302315712 50984.362751483917
leaf_count=246 26 440 192 674 151 47 85 595 235 171 88 112 481 72 414 142 158 309 135 666 1491 160 296 310 97 112 175 351 154 255 88 110 188 858 163 101 171 76 113 458 99 45 540 135 235 407 276 205 99 428 139 254 144 484 50 65 103 200 442 141 156 364 2411 82 167 1232 181 161 222
internal_value=0 -0.0106908 0.00610234 0.0148844 0.0292222 0.0183452 0.00382396 0.0063946 0.00555179 0.0156398 0.053794 0.00177107 0.00309714 0.0109488 0.0278827 -0.00382894 0.0124273 -0.00624388 -0.0121913 0.00474686 -0.00512093 0.00911375 0.00576303 0.0104361 -0.000329368 0.00366166 0.0193762 0.0135474 0.00343541 0.00675029 0.00214749 0.00309309 0.0144414 0.000736432 0.0260467 0.0220935 0.0162879 0.0166591 0.0375218 -0.0149188 -0.0175257 0.00330142 0.00651866 0.0257519 0.00122358 -0.00696276 -0.000848228 -0.00367474 0.00103899 -0.00362578 0.0191269 -0.019054 -0.012776 -0.000739947 -0.00041508 -0.0103169 -0.010967 -0.00670005 -0.000418347 0.0017976 -0.00126011 -0.00930878 -0.00680174 0.0104145 0.00228499 -0.0191343 0.0112117 0.00405174 -0.000158421
internal_weight=0 1.39258e+06 2.371e+06 488408 319316 236440 1.88259e+06 1.46234e+06 1.42751e+06 279369 74476.3 204893 1.14815e+06 348825 107205 764953 98938.8 666014 169092 59101.8 420255 174906 139828 137228 799320 499058 90403.4 102068 241621 200504 481095 463673 79730.6 383942 70996.5 67259.9 91527 82034.3 17475.4 255395 216485 321523 91130.2 19672.1 71458.1 300262 410619 284792 171837 114745 13657.9 627631 140387 62087.3 38910.3 42376.6 42868.9 101087 218687 186269 108977 249935 197475 57091.6 34790.7 204894 102836 146295 97236.7
internal_count=20633 6522 14111 2307 767 741 11804 9373 9288 1614 259 1355 7674 1646 675 5200 1210 3990 1540 866 2431 590 940 760 6028 2749 450 748 971 736 2637 2549 772 1777 275 452 325 603 189 2148 1789 919 1068 675 393 3279 1842 1596 1320 866 238 1322 882 628 359 731 584 628 628 583 411 2872 2508 454 249 1690 291 543 382
cat_boundaries=0 1 2 3 4 5 6 7 8
cat_threshold=64 1 512 64 64 512 4 32
is_linear=0
shrinkage=0.0534508


Tree=3
num_leaves=70
num_cat=6
split_feature=12 12 13 1 14 18 13 17 10 14 11 14 12 18 9 15 12 12 11 15 10 10 17 4 12 9 12 15 1 19 17 13 11 8 9 9 8 8 11 15 12 1 18 18 8 17 9 1 14 15 14 8 11 8 9 9 8 9 18 17 8 10 13 14 11 14 1 9 9
split_gain=82391.7 27415.1 15317 60866.4 31997.2 17644.1 14264.6 13384.2 11637.4 11386.6 65929 33208 10976.1 10095.9 9289.83 14829.1 8788.09 8312.09 8226.21 13071.3 7811.24 10393.3 7564.76 7234.69 6817.73 5276.04 5260.69 7925.49 6652.27 5270.66 4996.72 4962.45 4950.56 4603.31 4465.36 4285.35 4219.16 4186.4 4115.42 3274.91 3041.66 2955.66 4538.66 3202.77 2744.25 2519.18 2959.17 2848.39 3372.9 2516.05 6858.82 2492.73 6293.79 4099.76 2491.23 3902.41 3579.8 3126.18 2668.31 2457.65 2406.35 2336.5 2226.37 2414.57 2120.14 3236.37 2118.16 1950.67 4330.49
threshold=-0.10175457241862124 -0.24193221452788158 -0.75851860590457376 0 -1.2366304703810906 -0.59177432437692046 -0.40228885938341236 -2.2461035815130748 -0.21510646896669372 -0.93137053318036334 -0.82503107497271155 -0.94832550384371561 0.22076748207655619 -1.1206764849071831 -1.0900107071907967 -0.83262256835044246 0.42305462035632363 0.38947689807698072 -0.89251502967049989 0.68011772656204972 0.030689649265738653 0.053239751855870106 -0.26998641865000167 1 1.677496218532273 0.26866088423453355 -0.82058547353906397 1.6283648258479968 2 0.86463813010690782 0.53386265101503949 -0.11288921308793223 -0.89251502967049989 -0.48889562379929308 -0.53528885978402407 0.17850902812952144 0.085218553161320112 -0.385813622529873 -0.88213288279391711 0.58608049679191532 0.38947689807698072 3 -0.54838712694580216 -0.54838712694580216 0.33552658739792507 0.41172117317865542 -0.29895635243567492 4 -0.83691598206776829 -0.22810301416750273 -0.54864258844547276 -0.41732622144077908 1.0000000180025095e-35 -0.19015168757147158 1.5033294555682628 0.47076595382672703 -0.57488382690330242 0.17850902812952144 0.97040222919588903 -0.26998641865000167 1.0000000180025095e-35 0.66885755256645807 2.5733541047738666 1.6519145855539537 1.1242170011057142 1.6519145855539537 5 0.81644573362899175 0.68476711484600516
decision_type=2 2 2 9 2 2 2 2 2 2 2 2 2 2 2 2 2 2 2 2 2 2 2 1 2 2 2 2 9 2 2 2 2 2 2 2 2 2 2 2 2 9 2 2 2 2 2 9 2 2 2 2 2 2 2 2 2 2 2 2 2 2 2 2 2 2 9 2 2
left_child=1 18 3 4 -2 -6 17 -8 35 10 -9 12 -12 14 24 -16 25 22 19 -1 62 31 -4 -7 33 -14 54 34 61 -30 38 -22 -24 64 -28 -5 -17 -35 -23 -32 -27 43 -43 -34 -10 47 -47 48 -40 -49 -51 -3 53 -53 55 56 -20 -58 -57 -36 -50 -29 63 -15 -11 -66 -26 68 -25
right_child=2 51 6 8 5 23 7 9 44 13 11 -13 16 20 15 36 -18 -19 26 -21 21 30 32 67 66 40 27 28 29 -31 39 -33 41 37 59 -37 -38 -39 45 -41 -42 42 -44 -45 -46 46 -48 49 60 50 -52 52 -54 -55 -56 58 57 -59 -60 -61 -62 -63 -64 -65 65 -67 -68 -69 -70
leaf_value=-0.017606908826332816 0.055177989266154651 -0.020743044912947355 -0.015104395103199922 0.041566600959731415 0.041483057365168878 0.032879970310415001 0.038238242292294521 0.11561314396731104 -0.019856297638221911 -0.020313409858675632 -0.015696058690270763 0.069834850499191914 -0.0015473739854259196 -0.0047851708230252279 0.056083868475442333 0.018544220363625831 -0.0035687514537074243 -0.010378387361107843 -0.010762686029613663 0.089191592957010943 0.011815815226260597 -0.013154181964036336 -0.0059418564880038723 0.00078542029573397236 0.013928222828040933 0.019718006188779516 0.00091542084583606158 -0.013270083826275592 0.023547724221762344 0.10541976960342557 -0.021739635339597597 0.044276849194857575 0.013845718478754805 0.019713444889733592 -0.020143186140436909 -0.0038888680045081011 -0.010246340674645332 -0.00065790666647204269 0.017550988482028962 0.0075565098656068018 0.042758395983829238 0.026973476152573818 -0.024529892983202014 0.039565638319390119 0.0092498494279085446 0.0048273745150722233 0.03606674924881989 -0.013207754429571112 -0.0044116411831309037 0.045819043346830603 -0.018654472476775243 0.034280587171326635 -0.021940905871929227 -0.0050814342586970145 0.01491293982028262 -0.003926261172568191 0.0030498635583653022 0.025535478600229016 -0.019996166120155728 -0.007154633207390927 0.011827714071528323 0.012170537936917039 0.012132428761775116 -0.016587150440682104 -0.01987144214431499 0.019683665334665066 0.036625415224995163 -0.0071550750245389346 0.024143348423638585
leaf_weight=6264.5053281188011 88023.04875421524 477183.85474907979 37188.159107297659 13925.444165706635 64339.23579326272 29629.985342204571 36275.852856785059 17445.949304461479 132890.34555647522 36014.390197247267 67812.605803251266 22944.320562362671 23554.955415084958 311293.16367126349 29250.831394553185 59642.186509236693 79280.388318002224 277483.98082159925 50290.656672742218 6857.8364014774561 29507.286250114441 34649.613955646753 28538.154798232019 80685.538884282112 32124.723467469215 48182.993390247226 50312.004646897316 21155.373061478138 8649.3751071020961 3034.5047556459904 38718.339644938707 24734.04992556572 28041.447089284658 41877.367755241692 159978.35488856211 10313.504072800279 19230.727394092828 92437.101670444012 64652.582182794809 15173.083657294512 24795.498491346836 10235.04202580452 9356.7125513404608 27301.24527490139 9946.8238825798035 18006.188159145415 16696.53993755579 40464.525165840983 64760.885054469109 8568.7411190271378 10477.642942674458 9018.5559678375721 82875.145659372211 46723.147653967142 27612.226591825485 92506.30048013106 196347.71966846753 19411.023855522275 43356.26295273006 56259.899634707719 43633.057145535946 20124.430398106575 18925.301978193223 58897.801967488602 11595.84457705915 12050.363240923733 18520.434445079416 34668.921038582921 31540.985307216644
leaf_count=95 26 440 192 20 151 47 85 64 1115 83 607 111 197 3046 12 359 349 1491 259 158 104 274 192 266 156 225 432 130 233 112 237 99 108 123 1095 229 206 210 187 171 61 166 188 94 176 119 66 543 173 81 200 131 247 504 83 370 970 136 259 796 124 72 181 423 96 125 276 198 79
internal_value=0 -0.0105226 0.00589294 0.0142533 0.0275993 0.0175206 0.00369945 0.00617399 -0.0120182 0.00536393 0.0149496 0.00836131 0.00257167 0.00300045 0.0105323 0.0235794 0.00961772 -0.00501284 -0.00374572 0.0382077 -0.000324078 0.00482373 0.00557182 0.00878673 0.00476539 0.0204474 -0.00448073 -0.00967438 0.00921074 0.0448159 0.0015011 0.0266185 0.013003 0.000205759 -0.0134269 0.0222257 0.0115244 0.0056936 0.00417729 -0.0134912 0.0275467 0.020218 0.00237594 0.0265341 -0.0178293 0.00642432 0.0198581 0.00441963 0.00788865 -0.0056675 0.0103515 -0.0189101 -0.0126002 0.00128718 -0.000617266 -0.00168426 0.0020795 0.0050729 -0.00905458 -0.0167639 0.00212534 -0.000867298 -0.00574874 -0.00666292 -0.0121489 0.000285976 0.0222288 0.00392678 0.00735025
internal_weight=0 1.37796e+06 2.3863e+06 495964 328888 240865 1.89034e+06 1.4722e+06 167076 1.43592e+06 284017 266571 243626 1.1519e+06 352744 108124 175814 418145 762160 13122.3 799159 410043 140661 176525 244620 96533.4 749038 319514 52963.7 11683.9 355801 54241.3 103473 193975 266550 24238.9 78872.9 134314 301910 53891.4 72978.5 74934.4 19591.8 55342.7 142837 267260 34702.7 232557 173047 59510.9 19046.4 615801 138617 55741.7 429524 401912 266049 215759 135863 216238 108394 41279.8 389116 370191 59660.6 23646.2 50645.2 146895 112227
internal_count=20633 6522 14111 2307 767 741 11804 9373 1540 9288 1614 1550 1439 7674 1646 577 832 2431 5200 253 6028 2378 940 590 1069 483 4947 2870 547 345 2175 203 748 637 2323 249 565 333 1767 408 286 556 354 202 1291 1493 185 1308 484 824 281 1322 882 635 2077 1994 1365 1106 629 1891 297 202 3650 3469 304 221 432 543 345
cat_boundaries=0 1 2 3 4 5 6
cat_threshold=64 1 64 64 64 64
is_linear=0
shrinkage=0.0534508


Tree=4
num_leaves=70
num_cat=22
split_feature=12 0 0 0 1 10 12 19 1 11 10 10 18 10 0 0 12 11 10 16 15 16 16 19 8 12 1 15 1 8 18 7 15 0 16 1 10 15 1 16 10 19 15 0 15 11 1 19 10 16 11 0 1 10 12 1 15 0 18 0 12 11 15 15 10 1 10 16 1
split_gain=78400.8 91701.5 42529.3 33261 39016.3 19954.4 12228.5 15174.5 13732 11883.4 11792.4 10583 10169.5 17085.2 10583.5 9704.5 10910.2 8200.83 13599.6 6908.86 6425.62 6650.84 4790.02 4021.44 4297.53 3560.8 5264.53 4744.08 4403.11 4080.87 14512.2 4326.35 3842.87 3254.9 3150.82 3048.49 2956.55 2805.08 2649.11 2563.84 2945.55 2365.41 3634.02 9367.85 2346.4 2119.15 2386.43 5584.77 6200.79 3372.63 2054.2 2014.47 1978.44 1948.89 2083.88 2210.68 7688.09 2120.64 3525.73 3407.56 1888.64 2291.88 1870.97 7496.73 2549.64 6329.15 3011.98 1855.44 1972.86
threshold=-0.10175457241862124 0 1 2 3 0.25393566490803982 1.4108743493518914 0.69657977470593002 4 -0.81464892809612877 0.28099578801619751 0.93043874261198256 -0.59177432437692046 -1.7552784758726696 5 6 0.47530340961270728 -0.90289717654708279 0.68915264489757633 -0.47835023311687647 -0.80158448825529971 -0.52080202904768569 3.1973217890169923 0.7998744721365213 -0.081855176383102135 1.677496218532273 7 -0.059530660260783595 8 -0.54391344379194684 -0.50272072300266035 9 0.9104346812196672 10 -0.84236381198213495 11 0.66885755256645807 -0.36949961613277993 12 -0.57239955016554889 0.93043874261198256 0.23629281039088318 -0.22810301416750273 13 -0.46382442394416706 -0.16576474830970209 14 0.23629281039088318 0.58654967811247838 0.52054757148988584 -0.80426678121954587 15 16 0.45914159847823577 1.0000000180025095e-35 17 -0.59085765947407543 18 -0.59240463013566624 19 -1.177007457262816 1.9547887512323407 -0.12280288062258908 -0.22810301416750273 0.11074251346070527 20 0.21334548024580322 -0.47835023311687647 21
decision_type=2 9 9 9 9 2 2 2 9 2 2 2 2 2 9 9 2 2 2 2 2 2 2 2 2 2 9 2 9 2 2 9 2 9 2 9 2 2 9 2 2 2 2 9 2 2 9 2 2 2 2 9 9 2 2 9 2 9 2 9 2 2 2 2 2 9 2 2 9
left_child=2 -2 41 4 5 12 7 -6 -8 51 -7 -12 13 -3 20 35 -17 18 -4 -15 -14 -22 33 25 -25 28 -27 -28 -5 30 38 -31 52 -19 60 37 -24 -11 -30 44 45 42 -1 -44 -36 46 -41 -48 49 -49 -16 -9 -33 54 -54 56 -56 58 59 -57 61 -35 63 64 65 -59 -66 -42 -69
right_child=1 3 17 23 6 10 8 9 -10 15 11 -13 14 19 50 16 -18 22 -20 -21 21 -23 36 24 -26 26 27 -29 29 31 -32 32 -34 34 39 -37 -38 -39 -40 40 67 -43 43 -45 -46 -47 47 48 -50 -51 -52 -53 53 -55 55 57 -58 62 -60 -61 -62 -63 -64 -65 66 -67 -68 68 -70
leaf_value=-0.023482253379669665 0.078767970044814534 -0.0010641636325195542 -0.0012190939925142941 -0.016821017328428708 -0.019075444194778933 0.044845236678870977 -0.0070936895133630971 0.0053790388904840468 0.098080209329340307 -0.0074735413440011568 0.00051243957818729075 0.036894050844299794 0.0033305691533512889 0.033324439129436875 -0.0032133051744344205 0.055637494197159139 0.0095071929825859096 0.012599109924867805 0.11625074134863013 0.014818034118943854 0.029415354726444867 0.0071416070370565413 0.0017850276662716728 0.046696122099402923 0.0016881635987994867 -0.0024275586580144006 0.015220381268006017 0.071044206465707582 -0.010752983904496553 0.016358038866329101 0.048888015152331973 -0.02605899753861407 0.014229507868578135 0.013506823649591495 -0.020513720968070845 -0.022094764673533687 0.037831118771846237 0.029725631442051134 0.016378183131717933 -0.0044253902988420687 0.018716480393514711 -0.021335474461509598 -0.025274057323255092 0.019508897184375897 -0.0068074389473192923 -0.010027586939441941 -0.02558836119361876 0.053118028785857835 0.097071552125985533 -0.014396347124505196 -0.019697784165017267 -0.016171835426038134 0.0095654142977531983 -0.017533585537722787 -0.013184147337570519 0.040259553896598549 0.059622279082692922 -0.0091450905510957262 -0.0041472975233420124 0.0029226384820717588 -0.0066403604072655699 -0.002342044613930473 -0.014912156767189636 0.016653481672171656 -0.019560746911282182 0.011391903710483009 -0.005365465230819124 0.0057373334974108745 -0.015690310789018513
leaf_weight=45430.140552841127 48059.456493735313 90250.248777925968 7546.0253721624613 71151.190905775875 159858.37357442267 93670.109524965286 7371.2908151447773 15407.718147963285 6834.8823056071997 14133.143238306046 47878.685076713562 43685.759712219238 161439.35003042221 149079.2981364727 51445.109221071005 25872.14172035642 33763.308843180537 37080.50568510592 4490.98936855793 93960.360576510429 78945.184013843536 74392.401809215546 12464.327680170536 9488.5877635478973 16778.457774579525 40586.04397046566 16681.231739774346 5883.1785971447825 45131.291682079434 28521.069944560528 19296.318874418736 13188.520341646858 29160.547248840332 62039.074506670237 52876.038115518168 16490.872826468199 13588.532916128635 9811.3515281677246 13314.679685033858 54921.775435447693 21747.535073046573 567868.80471599847 26701.256999071687 26638.915063023567 109757.03753151 147016.0892853532 5733.6589735299349 3628.8697486519814 3617.8253782242537 5061.7813912034035 37226.242387935519 63260.05846106261 28539.689314614981 34833.552553981543 11352.413773573935 10787.701468765736 6524.7845867946744 190573.84463264793 123441.18943821639 19775.90587438643 41034.248244538903 44957.079031661153 77667.807418778539 38430.53400272131 92555.758867189288 55316.307472504675 79290.422775730491 53572.675088196993 15924.498583311215
leaf_count=122 36 130 218 2069 1203 26 98 185 93 131 184 28 185 156 147 87 148 239 48 166 123 141 150 38 243 205 219 134 248 166 113 559 166 123 187 303 120 119 249 348 161 483 148 74 534 1817 226 84 67 235 129 308 153 324 182 101 110 927 1043 409 269 91 592 106 381 825 423 305 473
internal_value=0 0.00569298 -0.010355 0.00419974 0.0100443 0.015829 -0.00507213 -0.00711049 0.043509 0.00359059 0.0315113 0.0178704 0.011886 0.0187952 0.00617821 0.0158103 0.0295108 -0.00112364 0.0426115 0.0261698 0.0107726 0.0186093 -0.00189222 -0.00270996 0.0179475 -0.00322581 0.00907954 0.0297769 -0.00401167 -0.00301852 0.00869744 -0.00410291 -0.0048221 -0.00278096 -0.00369831 -0.0044082 0.0205864 0.00776903 -0.00457197 -0.00582491 -0.00298275 -0.020007 -0.0123729 -0.00291082 -0.0112638 -0.00633174 0.00111501 0.0179804 0.0382769 0.0137958 -0.0101317 -0.0119536 -0.0055323 -0.00518027 -0.0045942 -0.00516684 0.0133893 -0.00564914 -0.000122984 0.01613 0.00310858 0.00684749 -0.00724308 -0.00593762 -0.00801597 -0.00452497 -0.0130111 0.00509118 0.000827246
internal_weight=0 2.40111e+06 1.3637e+06 2.35305e+06 1.27478e+06 921973 352803 338597 14206.2 178739 185235 91564.4 736738 333290 403448 100071 59635.5 697059 12037 243040 314777 153338 685022 1.07827e+06 26267 1.052e+06 63150.5 22564.4 988854 917702 77742.3 839960 811439 658969 621888 40435.4 26052.9 23944.5 58446 473858 311225 666639 98770.3 53340.2 162633 219980 72963.9 18042.1 12308.5 8690.65 88671.4 78667.8 782278 769090 734256 705717 17877.2 687839 154005 30563.6 148030 106996 533835 456167 417736 245890 171846 91244.7 69497.2
internal_count=20633 14111 6522 14075 4090 1415 2675 2484 191 1281 238 212 1177 452 725 788 235 5695 266 322 449 264 5429 9985 281 9704 558 353 9146 7077 610 6467 6301 5159 4920 553 270 250 497 4437 3716 827 344 222 721 2777 960 612 386 319 276 493 6135 5576 5252 5099 292 4807 1553 510 483 214 3254 2662 2556 1752 804 939 778
cat_boundaries=0 3 11 20 21 22 29 36 37 38 39 46 47 48 56 57 66 67 68 77 84 85 86
cat_threshold=32 0 16 32 0 0 0 1207959552 0 16384 20 0 0 72 0 67108864 1152 49240 0 1114116 64 512 0 0 0 0 67108864 128 16392 0 0 0 0 67108864 128 8 64 16 4 1 0 0 0 0 65536 32 512 64 32 0 0 0 0 0 0 4 64 0 0 0 0 67108864 0 0 0 4 4 32 5 0 0 16777216 0 196608 65536 2097156 1 1 0 0 0 0 131072 65536 64 64
is_linear=0
shrinkage=0.0534508


Tree=5
num_leaves=70
num_cat=12
split_feature=0 13 0 20 0 0 17 14 0 19 11 13 19 18 14 13 13 0 13 11 9 20 16 13 19 0 11 4 9 9 9 11 9 18 14 14 18 16 9 9 9 4 11 0 18 16 3 11 13 18 19 0 11 11 14 14 13 17 13 13 19 14 11 18 13 14 9 9 16
split_gain=69541.6 61905.2 55193.7 25501.3 63553.5 24811.7 17512.3 23342.1 12039.2 10908.1 8713.36 7962.55 7476.87 7192.16 9204.36 7701.53 7220 6547.31 10271.2 10047.3 8605.52 7984.29 4684.02 5157.22 4139.27 6818.91 4095.79 3820.04 5429.52 7624.34 4504.09 6689.72 4810.24 3825.72 3527.41 6460.04 3462.84 3662.16 3288.4 3262.75 3169.07 3122.43 3042.57 2698.57 4868.43 2682.06 5302.8 3397.29 3105.88 2602.45 3196.86 3444.07 2414.23 2340.99 2841.49 2289.96 2656.36 2240.52 11376.2 2190.58 6303.47 2165.22 2896.8 3627.19 2727.84 2052.5 2004.48 3279.69 2404.98
threshold=0 1.555270188218143 1 -0.48884054361575729 2 3 0.30239723793926859 -1.0927492516162063 4 0.75449314667277734 -0.65891672494738629 -0.14318833274457377 0.28895574581922673 -0.59177432437692046 1.8560866633230073 0.059423658540895707 1.0000000180025095e-35 5 -0.75851860590457376 0.69076236900838117 -0.79838594430410248 1.7575224712636868 -0.61167216919147138 -1.11770880554769 -0.9709519531860441 6 -0.69525423901542627 7 1.2903685842462111 0.39857524039950837 -0.37437765553854252 -0.83541322184929434 -0.29895635243567492 0.72317545195751531 -0.94832550384371561 -0.27621314131894387 -1.7254708272589376 0.73791682839187256 -0.15928716699414927 0.17850902812952144 0.64278970498355836 8 -0.31630587802015303 9 -0.59240463013566624 -0.54782477100839688 10 0.14569965798778264 1.3922846673710481 -1.3266367733707554 -0.98684654116965398 11 -0.73678282652175753 -0.50837559523693532 -0.34381023378305792 -0.91945173787385603 -0.053979887526365393 1.9122961009148305 -0.35202347618888918 -0.59313981570916718 -0.76910071201007502 -0.6869707918052752 -0.75235604683663182 0.97040222919588903 -0.5716132341221809 0.74282712347758395 1.0651651151405617 -0.33420697158329432 1.3338399900730009
decision_type=9 2 9 2 9 9 2 2 9 2 2 2 2 2 2 2 2 9 2 2 2 2 2 2 2 9 2 1 2 2 2 2 2 2 2 2 2 2 2 2 2 1 2 9 2 2 1 2 2 2 2 9 2 2 2 2 2 2 2 2 2 2 2 2 2 2 2 2 2
left_child=1 -1 3 5 -5 -2 17 -8 13 22 11 39 24 14 57 16 38 18 -4 20 26 55 43 -24 36 -26 -19 -22 29 30 33 59 -33 -29 -12 53 45 -38 -15 -6 -21 -14 -23 44 -10 47 -47 -7 -48 -45 51 -51 -41 -36 -55 -20 -57 58 -9 -32 -61 62 -43 -64 -65 -42 67 -25 -69
right_child=2 -3 6 4 10 12 7 8 9 -11 34 -13 41 15 -16 -17 -18 19 21 40 27 42 23 66 25 -27 -28 28 -30 -31 31 32 -34 -35 35 -37 37 -39 -40 52 65 61 -44 49 -46 46 48 -49 -50 50 -52 -53 -54 54 -56 56 -58 -59 -60 60 -62 -63 63 64 -66 -67 -68 68 -70
leaf_value=0.20146535239754607 -0.020631818028371041 0.014201302869600989 0.019474235532767246 0.085438475968270422 -0.012340795659300876 0.0070414185787503452 0.031085402912918857 0.060135275503037135 0.024315153017260043 0.041218933690490907 -0.025293392022915709 0.023648299427776229 -0.0045555816776280279 0.025832302090717001 0.013312746541789787 -0.022784774565987827 0.050792648568597623 -0.020757716149618351 -0.013407684906375027 0.0002194597103980408 -0.0074734786469179493 0.01634510384309476 0.032726509141354207 0.0091662051017793369 0.030036605777034046 -0.0016525989195655465 0.0085499697320868071 0.015515180482956607 0.034407181627285822 -0.0095762083208393682 0.079137116430971433 0.046866286419534949 0.014073838986260516 -0.0080694006702221894 -0.0041714245343915674 -0.017377330927449742 -0.0093532525749257297 0.0097276812590176912 0.0032980466797598311 0.024984591781965871 -0.0041759849028528842 -0.021026134106529884 -0.0052730285550422317 -0.016467423712384799 -0.0035031375866102403 0.068829243145471841 -0.013947488347456197 -0.018467128625664238 0.036778121835841088 0.019881470040655408 -0.011849409907013291 -0.0026431839206149318 -0.0027308240721007904 0.0013084367294979064 0.028905895470413161 -0.0010471312405626037 -0.017036556434030022 0.052456424586562848 -0.0096866563435320293 0.086509691575487033 -0.0032916185975419942 -0.021416169170579803 -0.016327084477467842 0.036034380543474798 -0.00016490619672477613 -0.021209068074589582 0.015986881346067749 -0.012583266971371852 0.019659160428021023
leaf_weight=9162.2103187171742 521896.52666055039 11218.698285698891 48461.471102297306 25607.210903167725 43048.853858113289 59284.603766307235 134825.23022341728 15900.690078765154 25716.04837782681 19679.44152136147 31201.562065958977 58159.408569991589 106241.75109479576 23684.219963669777 80558.825925126672 20414.815983474255 12724.395925283432 34437.913280829787 210578.08673278987 235835.75897133187 23287.566487336764 52819.838239192963 20608.159785330296 67302.108921397477 30294.096988916397 53889.90494735539 22538.880891261389 49604.67956732749 36199.639464318752 38708.931123934686 6386.5061610937119 14440.39204072929 111135.50717822858 32539.548178255558 54432.082316637039 77213.499357618392 215801.61725324392 33151.326472073793 84547.514055993408 15951.606254696846 43923.598567806184 38865.136067986488 28708.776814222336 54420.723046191037 59694.718358643353 5222.8722590506077 8772.8271241188049 19930.917834624648 5681.3721725940704 25521.150723934174 71413.039288796484 80562.196921584196 20541.544153571129 26599.125442117453 17786.715079188347 121880.031600371 39242.184044346213 27537.10635471344 11479.670856013894 4149.2442900836468 4834.8137192502618 99946.479357816279 25006.071569263935 8963.9504482150078 17669.958315506577 37442.306926369667 33061.902580294758 49317.955586371943 7631.6395889595151
leaf_count=58 737 145 136 19 210 190 131 145 181 233 89 165 827 136 81 83 86 155 727 927 276 432 59 688 72 678 125 301 123 680 17 44 762 187 144 665 1856 197 688 118 171 245 141 238 489 51 232 175 55 31 575 701 96 233 22 982 253 8 122 47 172 677 160 108 195 42 153 499 187
internal_value=0 0.0982927 -0.000659593 -0.00808661 0.00422918 -0.0117357 0.00500981 0.0105268 0.00702607 0.0021928 -0.00180458 0.00861698 -0.00536383 0.0160145 0.0248162 0.00758185 0.0127072 0.000739684 -0.00391427 0.00409693 0.00998023 -0.0064153 0.000642077 0.00758418 -0.000877225 0.00975773 -0.00916409 0.0133753 0.0150046 0.0123217 0.0161212 0.0219193 0.017845 0.00617262 -0.00872968 -0.00579365 -0.00345108 -0.00681233 0.00822936 -0.0023736 -0.00291864 -0.0118973 0.00873262 -0.00325026 0.00487147 0.00501049 0.0226719 0.000623205 0.00599093 -0.00624126 -0.00310652 0.00277898 0.00938394 0.00325748 0.0123679 -0.00973786 -0.00494153 0.0416903 0.0308614 0.0552033 0.0381848 -0.0159928 -0.0100035 -0.00170736 0.0120186 -0.0120143 0.00429038 0.00117796 -0.00826229
internal_weight=0 20380.9 3.74492e+06 1.62116e+06 370542 1.25062e+06 2.12376e+06 926602 791776 514929 344934 137701 728723 276847 135476 141371 120956 1.19716e+06 501690 695465 378264 453229 495250 177922 432030 84184 56976.8 321287 297999 261800 223091 140946 125576 82144.2 207233 176031 347846 248953 108232 79542 317202 296693 81528.6 317328 85410.8 98892.6 19677.1 79215.5 14454.2 231917 177496 106083 36493.2 98817.9 44385.8 371700 161122 54917.5 27380.4 15370.6 8984.06 190452 90505.1 51640 26633.9 81365.9 157314 124252 56949.6
internal_count=20633 203 20430 8216 1761 6455 12214 5514 5383 4034 1742 589 5718 1349 356 993 910 6700 2671 4029 2889 2535 3801 1586 3506 750 280 2609 2333 2210 1530 1042 806 488 1153 1064 2756 2053 824 424 1140 2212 573 2215 670 703 338 365 287 1545 1307 732 214 399 255 1962 1235 275 267 236 219 1385 708 463 303 213 1527 1374 686
cat_boundaries=0 9 18 19 27 36 44 49 50 51 58 59 66
cat_threshold=0 0 16 0 0 0 0 0 65536 33554464 0 1 16777216 1207959552 17825792 65541 20 8519713 32 32 0 0 0 0 0 5 20 0 0 8 0 67108864 1152 32784 0 1048576 1 0 0 0 67108864 1024 49160 2097152 0 0 0 0 1207959552 1 4 0 0 64 0 0 131072 72 2 0 0 0 0 0 0 16384
is_linear=0
shrinkage=0.0534508


Tree=6
num_leaves=70
num_cat=20
split_feature=12 0 0 0 1 9 0 12 19 1 10 0 11 11 10 16 12 18 10 14 16 14 4 15 16 19 16 14 12 1 1 0 16 0 0 10 14 14 9 9 11 4 0 9 16 9 14 9 18 14 18 16 10 15 15 11 18 1 10 1 0 11 1 19 10 14 12 16 1
split_gain=71156.5 70692.6 40782.4 29215 35503.1 27202.6 12174 11106.1 14503.1 11101.9 11096.9 10815.7 9531.08 8405.61 9396.66 8218.64 6362.3 9150.75 8825.94 6584.92 10261.7 6337.37 9404.57 5333.12 4415.98 3554.56 3985.91 3429.08 3297.67 4746.18 4264.37 4187.11 3199.35 6214.64 3135.88 3335.05 3732.42 4412.51 4396.6 13079.1 3492.37 3101.84 3047.28 3044.74 2946.4 2886.91 2714.94 4307.25 2569.6 2482.37 2428.9 2398.08 2842.87 2264.27 2248.45 2983.66 2846.35 2170.26 2024.23 1985.04 1977.46 1933.11 2058.49 5367.67 4994.45 4996.59 1828.77 1694.83 1892.75
threshold=-0.10175457241862124 0 1 2 3 0.8073990799959242 4 1.4108743493518914 0.69657977470593002 5 0.14795018273442212 6 -0.81464892809612877 -0.90808824998537419 0.68915264489757633 -0.78408048228203275 0.14807628763166106 -0.59177432437692046 0.0058845364165941013 1.8560866633230073 -0.47835023311687647 -1.0206768251477738 7 -0.59085765947407543 3.1973217890169923 0.7998744721365213 0.82656695822970394 -0.9759776829580169 1.677496218532273 8 9 10 -0.26746711803923395 11 12 0.45914159847823577 -1.1340379868631214 -1.2366304703810906 -0.15928716699414927 -0.20299898739202007 -0.50837559523693532 13 14 0.43022610496946551 -0.84236381198213495 1.5033294555682628 -0.40751759391304648 0.36265872859533932 0.43262449608002523 0.69538826102443918 0.63990423712636135 -0.57239955016554889 0.93043874261198256 -0.46382442394416706 -0.12280288062258908 -0.73678282652175753 0.96898704788447609 15 -1.0720103673916876 16 17 -0.16576474830970209 18 0.23629281039088318 0.58654967811247838 -0.56992659916359178 0.43345367187251749 -0.47835023311687647 19
decision_type=2 9 9 9 9 2 9 2 2 9 2 9 2 2 2 2 2 2 2 2 2 2 1 2 2 2 2 2 2 9 9 9 2 9 9 2 2 2 2 2 2 1 9 2 2 2 2 2 2 2 2 2 2 2 2 2 2 9 2 9 9 2 9 2 2 2 2 2 9
left_child=2 -2 46 4 5 6 -3 8 -6 -9 -7 -10 27 14 -4 -14 -8 19 -19 20 -18 -17 -23 66 42 28 -27 -13 30 -30 -5 -31 34 -34 -32 36 37 -36 39 58 60 -26 -15 -42 49 50 47 -1 -29 57 -35 53 61 -46 56 -56 -52 -44 -38 -60 -40 62 -53 -64 65 -65 -20 -54 -69
right_child=1 3 13 25 7 10 16 9 11 -11 -12 12 15 24 -16 21 17 18 23 -21 -22 22 -24 -25 41 26 -28 48 29 31 32 -33 33 45 35 -37 38 -39 40 -41 43 -43 44 -45 51 -47 -48 -49 -50 -51 54 52 67 -55 55 -57 -58 -59 59 -61 -62 -63 63 64 -66 -67 -68 68 -70
leaf_value=-0.020459335770972874 0.065089880011826182 0.00051421048542574189 0.0012630172609644592 -0.016607352583904101 -0.018972117577074531 0.015692020147405897 0.032689289073373859 -0.007012635828797918 -0.019467033861794415 0.085050787580989745 0.040287352277669067 -0.017089574941269194 -0.016150950798153114 0.012076270559910963 0.09781184046437251 0.05445588065896665 0.041853215228496297 -0.010260764677094719 0.025981375870340315 0.0095748554230589717 0.009276385749233956 0.043615025340136462 -0.0043232369666122948 -0.0040612005713574258 0.0067417097108320081 0.037307399891275898 -0.0036558377612278441 0.02893861720824769 -0.0023852779251252597 0.042454235884018587 -0.0095076594161719718 -0.0072068355598317053 0.042572960741659671 -0.0055072896631016954 -0.0029003734770346279 -0.020950780747343759 0.014388987202839529 0.023970106598766586 -0.016972120311712129 0.05582418055491041 -0.0015533853215672156 0.045530550552035289 -0.0057293820348698378 0.032772975149464215 -0.020287379647115338 0.022343641529245183 -0.021524174204677355 -0.00058136911465750168 -0.0080027113867290108 0.014223104342598004 0.018519272366077425 -0.0044164920505065392 0.017840839029706984 -0.0066347232148779344 -0.00031833867365486365 0.029287398879845255 -0.0072545009219996213 0.011592436946109744 0.012275765842634243 -0.016355058379976684 -0.0054905176738458553 -0.0098206881249510592 -0.025633260698850295 0.066915329973080362 0.085023561195561204 -0.016892241356230422 0.011187108888971923 0.0056291097492106633 -0.015495627002423228
leaf_weight=82232.180899620056 55236.39390194416 263180.98528671265 6522.0404934957623 69621.066254964098 157676.59942040779 84056.876904562116 51206.886463999748 7340.6962084397674 45132.026847094297 7632.9727111384273 139205.54433326423 33581.923235848546 13209.983979466371 37582.791995905573 5156.9813325405121 20844.359409153461 70632.124886393547 72241.854238793254 54765.957567572594 85706.866205096245 45372.602495551109 22789.971021324396 24007.945076048374 38116.903869152069 17951.733695700765 13358.446757942438 13793.354140251875 10627.804264217615 40515.009187996387 16481.77976334095 258665.10079512745 6874.5487975031137 10312.25043284893 146883.73063959554 34936.370581805706 24443.731030464172 13635.308119814843 34901.945007488364 70712.746661186218 13457.789828419918 26155.14470514236 8766.1977386772633 80294.151453375816 10284.983363702893 50962.819124981761 15998.817510083318 509098.22213203833 50129.092065051198 10892.46815302968 40645.66143900156 16259.468931317329 55271.705422878265 22176.600331967697 108804.82292060927 18423.528080910444 20597.625610664487 49534.669999137521 27825.800388172269 9058.5159512385726 29277.207400090992 108923.87575932778 145197.09741255734 6016.6988171488047 3164.5447900891304 4008.5725860372186 5678.7050240188837 42322.565111875534 53752.89052669704 15643.854316397337
leaf_count=226 36 146 186 2069 1203 156 153 98 385 93 79 114 225 239 48 27 118 193 92 100 147 154 160 94 200 104 177 117 205 96 1864 257 60 1579 140 177 244 64 107 39 201 76 136 134 187 88 445 156 99 87 126 357 161 534 107 126 411 260 157 283 1170 1817 243 67 67 252 137 305 473
internal_value=0 0.00532425 -0.0100303 0.00393286 0.00931932 0.0147175 0.00968473 -0.0051288 -0.00712002 0.0399186 0.0310275 0.0031999 0.0107259 -0.00106388 0.0438983 0.0224108 0.0149266 0.0127043 0.00482199 0.0208106 0.0291117 0.0299417 0.0190222 0.0128809 -0.00183195 -0.00259527 0.0164978 -0.00641554 -0.00309097 0.0086775 -0.00385636 0.0278674 -0.00288344 0.00189784 -0.00497856 -0.00186042 -0.000532324 0.0105282 -0.00327636 0.00886271 -0.00695216 0.0194693 -0.00269819 0.00813517 -0.00359488 0.000327643 -0.0197504 -0.0129311 0.0102408 0.00296204 -0.00107176 -0.00566747 -0.00293248 -0.0109898 0.00514394 0.0153093 -0.000884916 -0.00127133 -0.0032982 -0.0095895 -0.0100128 -0.00623499 0.000787211 0.0160305 0.0355365 0.0130998 0.0195325 0.00497765 0.000866855
internal_weight=0 2.42889e+06 1.33688e+06 2.37365e+06 1.30055e+06 946809 723547 353737 338763 14973.7 223262 181086 135954 695424 11679 80852.3 460366 409159 207447 201712 116005 67642.3 46797.9 135205 683745 1.07311e+06 27151.8 55102.2 1.04596e+06 63871.3 982084 23356.3 912463 278010 634453 375788 351344 69838.3 281506 65428.8 216077 26717.9 657027 36440.1 619444 267698 641459 132361 21520.3 148766 251699 470678 310911 159768 104815 39021.2 65794.1 108120 51971 38335.7 179637 219337 74140.2 18868.5 12851.8 8843.25 97088.5 91573.3 69396.7
internal_count=20633 14111 6522 14075 4090 1415 1180 2675 2484 191 235 1281 896 5695 234 566 1034 881 516 365 265 341 314 323 5461 9985 281 330 9704 558 9146 353 7077 2497 4580 2716 2539 204 2335 723 1612 276 5185 335 4946 2437 827 382 216 483 2349 4463 3742 721 770 233 537 396 684 440 1277 2803 986 629 386 319 229 939 778
cat_boundaries=0 3 11 20 21 30 31 38 39 40 41 50 56 65 66 73 74 75 80 81 82
cat_threshold=32 0 16 32 0 0 0 1207959552 0 16384 20 0 0 72 0 67108864 1152 49240 0 1114116 64 0 0 0 0 0 0 16384 0 4 512 0 0 64 0 0 128 8 4 64 16 0 0 0 0 0 0 0 0 131072 0 0 0 0 134217728 131072 0 0 0 8388608 134217728 1048576 32 0 131072 2 1 0 0 0 0 65536 32 64 512 0 0 0 0 1073741824 64 64
is_linear=0
shrinkage=0.0534508


Tree=7
num_leaves=70
num_cat=21
split_feature=12 0 0 0 1 14 16 8 16 0 11 16 15 15 12 11 0 12 12 0 20 11 1 16 12 16 8 20 12 11 15 14 14 1 16 8 0 11 15 0 1 7 0 16 14 0 15 1 14 11 16 0 16 14 15 11 1 0 15 12 20 12 0 8 0 15 14 8 8
split_gain=67726.5 62068.3 39865 27407.7 29853.8 14333.4 22475.5 10740.6 11898.3 15395.9 8742.16 11448.9 12287.6 13137.7 8018.49 7618.77 6672.28 6504.92 5275.16 5795.04 5289.95 8111.5 6252.87 6600.95 5682.24 5125.06 4960.03 4693.59 6409.31 5057 4325.54 4253.59 4190.83 5175 4119.51 3920.06 6214.33 3155.26 3000.09 2915.78 2880.34 3094.7 2871.32 2810.55 2717.48 4264.37 2564.1 5531.85 7357.4 2476.16 2316.85 2539.61 2832.24 2314.62 2229.84 2164.35 2046.91 1954.7 1857.82 2698.12 1833.19 1684.71 1681.73 1677.33 1587.56 1486.45 1401.2 1383.62 1365.32
threshold=-0.10175457241862124 0 1 2 3 1.8560866633230073 -0.47835023311687647 -0.19015168757147158 -0.80186554390422704 4 0.28585864082165086 -1.1253758439247128 -0.90770685505102977 -0.80158448825529971 0.86425276802474016 -0.90808824998537419 5 0.43345367187251749 1.677496218532273 6 -0.48398412572513078 -0.65891672494738629 7 -0.84236381198213495 1.0000000180025095e-35 -0.73422013291382571 -0.385813622529873 -0.33994430350529475 0.24940861827401919 -0.84060429528758573 0.9104346812196672 -0.27621314131894387 -0.99375957843649465 8 3.1973217890169923 -0.62823382674565786 9 -0.67968101870055198 -0.28663198787106275 10 11 12 13 -0.84236381198213495 -0.40751759391304648 14 -0.68968013986656973 15 -0.94832550384371561 0.21318361268557104 -0.57239955016554889 16 -0.3713672183535775 0.69538826102443918 -0.46382442394416706 -0.31630587802015303 17 18 1.3534300417786145 -0.82058547353906397 -0.40019085701706264 -0.62739209565535548 19 -0.081855176383102135 20 -0.22810301416750273 1.6519145855539537 -0.32157913818840772 -0.49785416973756241
decision_type=2 9 9 9 9 2 2 2 2 9 2 2 2 2 2 2 9 2 2 9 2 2 9 2 2 2 2 2 2 2 2 2 2 9 2 2 9 2 2 9 9 9 9 2 2 9 2 9 2 2 2 9 2 2 2 2 9 9 2 2 2 2 9 2 9 2 2 2 2
left_child=2 -2 44 4 5 6 10 14 -9 38 11 -3 -13 -14 39 31 -15 26 20 -20 30 27 23 -23 -24 -25 -8 29 37 -22 40 -4 -11 -34 42 -30 -37 -29 -10 60 -5 -42 -17 53 45 -1 -38 -48 -49 -36 54 58 65 56 -45 -16 -44 -28 -52 -60 -6 -61 66 -59 -26 -53 -43 68 -41
right_child=1 3 15 18 7 -7 17 8 9 32 -12 12 13 16 55 34 -18 -19 19 -21 21 22 24 25 64 -27 57 28 35 -31 -32 -33 33 -35 49 36 46 -39 -40 67 41 62 43 50 -46 -47 47 48 -50 -51 51 52 -54 -55 -56 -57 -58 63 59 61 -62 -63 -64 -65 -66 -67 -68 -69 -70
leaf_value=-0.00078809917346361457 0.059317494191606195 0.033810982190130179 0.065633020649743787 -0.019317958313017448 -0.010569308721341744 -0.0017764291822744897 0.020642250392707489 -0.018789850310506857 -0.017060727474407834 0.056171522360450199 0.040063827492599229 0.031391151165383185 -0.013332519727478466 0.030243544366266559 0.0059450419918066193 0.011612950133146656 0.0059512852258894041 -0.0060257525552955505 0.027829503246442625 -0.0022639987879708987 0.0046016343988054412 -0.0208364856146965 0.013036420706373614 0.044750543707062107 -0.020874523549348913 -0.0013630748056718989 0.010084506258029532 0.035468103256447447 0.029011208409408115 0.055490480219780321 0.014139249640932546 0.00074727937340350386 0.045650862920987662 0.0028951916847925535 0.0074122133820357025 -0.016270471774322882 0.00028176866769391871 0.0098806203910820588 0.021439766878323479 -0.022973116088232468 0.012996276040342338 -0.0032074817022744425 -0.0056097919743266908 -0.020159176730535668 -0.021414980636198146 -0.020546742170766304 0.0058610586790384406 0.12376747007452929 -0.0024845141683611893 0.041835116251566253 -0.0093917491912035266 0.029726235338290278 -0.0018321284723481139 0.013647397181640783 -0.0065021996076809552 0.047857364564116808 0.011152916956170714 0.0058620124819694442 -0.016883267084900219 0.028594520726957551 0.018496725409709813 0.0031351298150509238 -0.0083288255393413838 -0.013126899622781853 -0.0068237190559655011 0.0062732904783564221 0.018443373971345677 -0.024495564357122909 -0.010081158554571297
leaf_weight=51553.172363162041 58951.31481564045 131398.68694132566 7540.2684889435768 48341.619651392102 14509.913419857621 137203.14741045237 84888.578617572784 34204.201865594834 27701.847539626062 19810.378855735064 80562.535560846329 86576.862965300679 61089.45851495862 57852.917170286179 7087.4360427036881 38039.403864435852 73192.365318953991 96999.114265561104 33941.961795091629 39603.393352299929 10087.637544155121 12180.057713925838 21942.144888490438 17067.15759062767 78079.043377161026 11541.764869425446 61545.042476177216 25117.868083775043 11168.109282016754 12483.049225866795 29569.477330297232 4676.9030277431011 16712.155144244432 15672.868280479684 18412.649921268225 54486.077209949493 24337.362966015935 30474.849652349949 7307.19701141119 34234.072802305222 24121.968708992004 163703.35962527245 79835.431162893772 49939.334493603557 498257.3856697455 79113.64211833477 11054.746752232313 3196.7216734588146 2244.2650862932205 8835.071535050869 150104.89427541662 14862.888133378699 71100.034518312663 41227.900408640504 108085.32207725197 6994.1125467717648 28150.245713338256 25838.594608783722 15888.130092963576 9635.5360246300697 10822.793812602758 32376.71986861527 427233.24198847357 27363.924366116524 32645.803484516218 16069.377964085899 9009.4298514723778 55645.153445079923 74655.166694268584
leaf_count=134 36 54 123 1581 238 134 135 468 331 27 59 158 84 172 53 239 159 180 156 422 202 130 140 37 123 191 38 186 26 56 147 111 89 131 181 127 380 35 131 185 136 1661 136 187 445 248 151 106 117 95 1553 76 1302 87 534 142 260 90 213 86 188 351 3384 102 532 161 117 197 387
internal_value=0 0.0051473 -0.00986594 0.00380696 0.00926558 0.0141663 0.0169446 -0.00465932 0.0079277 0.0184073 0.0239665 0.0208042 0.0146721 0.00713834 -0.0121523 -0.00104028 0.0166813 0.00532951 -0.00221141 0.0116314 -0.00317184 0.00211461 -0.00618538 0.0121169 -0.0118126 0.0261469 0.0108468 0.00991144 0.00673124 0.0327474 -0.00586867 0.0407956 0.0367924 0.0249597 -0.00178917 -0.00094862 -0.00445909 0.0214419 -0.00901923 -0.0150386 -0.00674855 -0.00577487 -0.00263592 -0.00351428 -0.0196151 -0.0127545 0.0113038 0.0275782 0.0716957 0.0185747 -0.0055508 -0.00286599 0.00404085 0.00287346 -0.0108182 0.0267639 -0.00123991 0.00360021 -0.0062538 0.00187896 0.00184687 0.00897472 -0.00652962 -0.0039031 -0.0167369 0.0175429 -0.00207775 -0.0176365 -0.0141345
internal_weight=0 2.44245e+06 1.3237e+06 2.3835e+06 1.24987e+06 924511 787308 325357 121409 87204.4 490673 410110 278712 192135 203949 694780 131045 296635 1.13363e+06 73545.4 1.06009e+06 358107 173456 40789 132667 28608.9 199636 184651 162080 22570.7 701979 12217.2 52195.4 32385 682563 106487 95319.2 55592.7 35009 189867 672410 624068 655315 617276 628924 130667 40833.1 16495.7 5440.99 27247.7 468062 310038 102032 149214 158025 14081.5 107986 114748 208005 57900.4 25332.7 42012.3 599946 53202.5 110725 30932.3 172713 164534 108889
internal_count=20633 14111 6522 14075 3932 1365 1231 2567 1177 709 686 627 573 415 1390 5695 331 545 10143 578 9565 2539 1153 358 795 228 365 1386 1128 258 7026 234 247 220 5461 907 881 221 462 1195 6879 5298 5185 4946 827 382 754 374 223 276 4463 3742 1539 483 721 195 396 230 2203 650 426 437 5162 192 655 237 1778 769 572
cat_boundaries=0 3 11 20 21 28 35 44 45 46 51 56 57 58 65 70 71 80 81 87 96 101
cat_threshold=32 0 16 32 0 0 0 1207959552 0 16384 20 0 0 8 0 67108864 1152 49240 0 1114116 64 0 0 0 0 67108864 128 8 0 0 0 0 67108864 0 8 0 0 64 0 0 0 0 0 131072 512 512 0 0 64 0 1073741824 0 0 0 0 67108864 16 4 1 0 0 0 0 65536 32 0 0 0 0 1073741824 64 4 0 0 0 67108864 16777216 8 0 8519680 64 0 0 0 0 0 128 5 0 0 16777216 0 16973824 65537 2097156 1 0 0 0 0 1073741824
is_linear=0
shrinkage=0.0534508


Tree=8
num_leaves=70
num_cat=17
split_feature=12 0 0 0 1 10 19 8 0 12 12 14 18 10 10 11 10 0 8 10 10 12 0 20 11 1 12 12 14 18 12 12 11 11 0 1 11 0 12 0 14 18 11 11 12 12 8 11 3 18 8 12 8 19 1 11 11 11 10 14 19 0 14 5 12 0 12 10 8
split_gain=64460.3 54840.1 38959.2 25669.1 27765.6 13645.4 10430.2 10660.6 13890.9 9157.59 8370.32 8356.45 15508.6 7035.79 7339.16 6936.56 6828.99 5561.89 6828.99 6071.68 5486.25 4966.65 5287.31 5038.31 7635.24 5955.38 5878.98 5470.34 4274.32 5530.78 4227.6 4009.93 3855.64 6606.8 3633.6 3332.07 3101.32 2904.58 2804.07 2900.26 2718.85 4243.24 2620.21 2393.58 2251.47 2205.96 4262.73 3081.57 1959.07 1923.35 1919.68 1917.47 3093.9 2834.57 2801.11 2145.69 4526.2 1908.92 3085.98 1903.23 1802.83 1687.55 1705.13 1659.76 1645.73 1573.7 1432.12 1374.31 1209.48
threshold=-0.10175457241862124 0 1 2 3 0.25393566490803982 0.69657977470593002 -0.19015168757147158 4 1.1907981600141164 0.38947689807698072 1.8560866633230073 -0.59240463013566624 0.28099578801619751 0.93043874261198256 -0.90808824998537419 0.68915264489757633 5 -0.16462253606312471 0.0058845364165941013 0.073534844186988371 1.677496218532273 6 -0.48398412572513078 -0.65891672494738629 7 0.071989032277257919 1.0000000180025095e-35 -0.5013472874388667 -0.12504323154163546 0.33718812685178462 0.7777433245105082 -0.69525423901542627 -0.84060429528758573 8 9 -0.81464892809612877 10 1.1907981600141164 11 -0.40751759391304648 0.25699152012507293 -0.80426678121954587 -0.31630587802015303 0.24940861827401919 0.5322338414219 -0.039566835188925391 -0.75235604683663182 12 0.93113938231820337 0.038374987102007756 -1.177007457262816 -0.57488382690330242 1.3518531499341677 13 0.61289626743400993 0.85168564559541504 -0.16576474830970209 0.68915264489757633 -0.56992659916359178 -0.99242497658579121 14 -0.80283554657827672 15 -0.70039571321201766 16 0.5322338414219 0.87857350665468026 -0.35480377244878719
decision_type=2 9 9 9 9 2 2 2 9 2 2 2 2 2 2 2 2 9 2 2 2 2 9 2 2 9 2 2 2 2 2 2 2 2 9 9 2 9 2 9 2 2 2 2 2 2 2 2 1 2 2 2 2 2 9 2 2 2 2 2 2 9 2 1 2 9 2 2 2
left_child=2 -2 40 4 5 11 9 10 44 63 30 12 31 -7 -15 16 -4 19 -19 -14 -21 23 -23 35 28 26 -26 -27 29 32 -8 59 33 -25 36 45 -31 -17 39 48 41 -1 -10 -11 50 46 49 -48 -37 61 -9 52 -39 57 -55 67 -57 58 -53 -3 -47 -5 -63 -6 -59 -29 -12 -54 -28
right_child=1 3 15 21 6 13 7 8 42 43 66 -13 17 14 -16 37 -18 18 -20 20 -22 22 -24 24 25 27 68 65 -30 34 -32 -33 -34 -35 -36 38 -38 51 -40 -41 -42 -43 -44 -45 -46 60 47 -49 -50 -51 -52 53 55 54 -56 56 -58 64 -60 -61 -62 62 -64 -65 -66 -67 -68 -69 -70
leaf_value=-0.02056553693027548 0.054374205465191928 0.02526367095085157 0.00068910913373426729 -0.015372191745931671 -0.020250147570579205 0.035114352828383565 -0.0013605722412680737 -0.011852251316903574 0.022146391871972759 0.008725493763286048 -0.022219761970693912 -0.0017323943857768869 -0.0011242970885655809 0.00039812870257708151 0.029801022777747703 0.010511672537183556 0.079062528085871775 -0.0086305789647183519 0.013227967195411253 0.026238159289687608 0.005395859068031009 0.026338086161578598 -0.0022089977808314302 0.0031337225144270442 0.030288116545453783 0.012523809300779811 0.0068684042066225427 -0.020754987641110112 0.039608247093639887 -0.003048211772414571 0.059427419271098104 0.035834013888307023 0.0068741284609939281 0.049311133333533048 -0.0071470211604324745 0.028322813523073868 0.03728458926790048 -0.012933570412089661 0.013915428832278481 -0.016469412648883838 -0.021303982102422774 -0.00081404469244094929 0.045563613216609226 0.057025103036985915 -0.01835993082666796 -0.0042618492800286008 -0.0022130651992760641 0.024700957069604706 -0.005296081343352077 0.006445497362505684 0.030535567260619085 -0.0033066281249253542 -0.0010187333457178057 0.0017923845679790964 0.063740252025146937 -0.020647591750223709 0.0034123396057171621 -0.0029841793239887278 0.027326454794413167 0.01256244204911877 -0.014867061736186713 0.010566338927208221 -0.0062704031289035475 0.00016320820538079196 -0.012122698603550234 -0.0066887863764897929 -0.0048280518305972324 0.020837055401109743 -0.020816539078284214
leaf_weight=76843.487923383713 62553.95211660862 77499.665913820267 6659.503004707396 41973.421693086624 129112.20283215865 108453.42081165314 6452.8571985028684 5949.732283949852 26805.553218752146 6510.4535844922066 48087.654744550586 136959.63075137138 66243.433932781219 47847.72611361742 49185.347054958344 51065.330950766802 6072.6571288704872 108622.18939033151 65430.803340911865 94179.732692718506 58493.315754175186 34899.816448926926 39513.832692086697 14952.524647265673 22258.92393476516 22230.064889932051 7326.691680662334 76466.073968648911 12594.026000380516 10565.539550364017 6622.8875315999612 65279.137674331665 42981.689100921154 21697.247291177511 72523.601204514503 5622.7407537400723 11241.181993424892 42496.731697034091 11829.067807614803 151624.01202384289 487700.64458074421 52173.772783003747 27825.575026646256 5332.5962637215853 23673.90486651659 188943.0877699703 20075.83123280108 30799.314982458949 41489.545746888965 43713.545307517052 6267.2086128592491 74330.574611088261 11800.686689630151 5826.7271497249603 3247.4374644383788 25353.524663271382 187813.97341220174 89326.635870061815 10754.381698906422 59656.846673190594 60447.90598911047 21927.772027373314 79444.452417261899 12478.763671673834 152292.93383203447 32423.795951558277 18823.429749235511 27082.672944307327 11717.591028220952
leaf_count=187 36 150 186 114 1046 26 119 84 70 80 289 134 132 178 28 604 48 130 155 100 178 156 422 173 130 140 68 123 103 111 66 69 98 97 676 137 128 175 228 3402 445 195 134 120 251 721 129 188 839 231 109 932 179 97 164 90 689 781 117 85 354 222 461 88 1497 532 111 136 160
internal_value=0 0.00497721 -0.00970229 0.0036855 0.00892715 0.0135872 -0.00456377 0.00453436 0.0170976 -0.0146744 -0.00968358 0.0101721 0.0129104 0.025759 0.0153024 -0.00101617 0.038072 0.00671886 -0.000413312 0.0123883 0.018253 -0.00216092 0.011186 -0.00310072 0.00204498 -0.00606344 0.0116356 -0.0116388 0.00953916 0.00736214 0.0294294 0.0249295 0.0177351 0.030472 -0.00139444 -0.00574756 0.0177269 -0.00174662 -0.0113662 -0.0128711 -0.019478 -0.0125782 0.0340616 0.0304757 -0.00873806 -0.00331979 0.000361943 0.0140804 -0.00128277 -0.0033691 0.00989227 -0.00273998 0.000407552 -0.0055012 0.0239654 0.00265697 0.000550643 -0.00631969 0.000565341 0.0197393 -0.00683242 -0.00636215 -0.00262783 -0.018451 -0.00874423 -0.0165717 -0.0173273 0.014204 -0.0101654
internal_weight=0 2.45563e+06 1.31084e+06 2.39308e+06 1.26179e+06 937851 323943 170509 90522 153434 79986.8 732365 595405 205486 97033.1 694124 12732.2 392969 174053 218916 152673 1.13128e+06 74413.6 1.05687e+06 358979 172423 41303.2 131120 186556 173962 13075.7 202436 79631.5 36649.8 94330.3 697891 21806.7 681392 210565 198736 616718 129017 54631.1 11843 35890.8 487325 237934 50875.1 47112.3 187059 12216.9 630326 294548 335779 9074.16 252051 213167 326705 85085 137157 249391 143346 101372 141591 241620 108890 66911.1 38883.4 19044.3
internal_count=20633 14111 6522 14075 3932 1365 2567 1233 648 1334 585 1133 999 232 206 5695 234 695 285 410 278 10143 578 9565 2539 1153 358 795 1386 1283 185 304 368 270 915 7026 239 5461 4606 4378 827 382 204 200 444 2420 1345 317 976 1028 193 4857 1269 3588 261 1094 779 3327 1049 235 1075 797 683 1134 2278 655 400 315 228
cat_boundaries=0 3 11 20 21 28 35 44 45 54 55 63 72 73 74 83 84 89
cat_threshold=32 0 16 32 0 0 0 1207959552 0 16384 20 0 0 8 0 67108864 1152 49240 0 1114116 64 0 0 0 0 67108864 128 8 0 0 0 0 67108864 128 8 0 0 64 0 0 0 0 0 131072 512 0 0 0 8388608 134217728 0 0 0 131072 64 1 0 0 0 0 65536 32 2097152 1 0 0 16777216 0 16777216 32 0 35 2 64 0 0 64 16777216 1207959552 0 0 0 32 1 0 0 0 0 1073741824
is_linear=0
shrinkage=0.0534508


Tree=9
num_leaves=70
num_cat=14
split_feature=0 0 16 16 16 0 0 17 14 0 19 9 8 8 16 14 19 0 13 13 10 13 14 13 16 9 13 10 0 15 16 13 18 0 13 4 10 13 15 15 14 8 18 0 0 16 8 17 13 9 10 0 0 13 8 16 18 16 18 16 14 0 10 15 9 16 9 17 9
split_gain=52520 41649.7 54101.1 22208.3 41169.7 62007.5 16470.5 14697.7 15576.6 9827.87 9699.15 9391.59 8494.36 7803.13 9376.38 5995.82 6358.01 5446.86 9344.5 7178.87 11327 5986.9 5339.39 5621.48 5332.97 4618.45 5896.9 4239.91 6067.52 5877.11 5079.4 8557.54 7384.89 4151.32 4094.46 3778.18 3584.95 3521.81 3457.73 4017.39 4127.12 3306.2 3271.78 3051.46 2949.28 2927.3 2886.91 2846.75 2643.16 2579.49 3650.44 4648.47 3940.2 2401.61 2369.84 2358.32 2331.89 2114.55 2093.37 2070.43 2024.75 1918.46 1811.02 2255.16 2338.26 1750.02 1886.23 1699.97 1649.92
threshold=0 1 -0.049148496179235793 -0.049148496179235793 -0.17991111132050827 2 3 0.30239723793926859 -1.0927492516162063 4 0.75449314667277734 -0.64680760825622097 -0.24398646574292496 -0.40801624230283656 -0.52080202904768569 -0.40751759391304648 2.3427329538408275 5 -0.75851860590457376 -0.40228885938341236 0.030689649265738653 -0.37889416380619906 -0.72783998942273509 -0.75851860590457376 -0.84236381198213495 0.089031306467453067 -0.14318833274457377 -1.9334242863347078 6 -0.20718281614580436 -0.90242046153956135 -0.053979887526365393 -0.50272072300266035 7 -0.020467856823343799 8 2.1684393748101978 0.027778607175783104 -0.40271964271749666 -0.32206295496989973 -1.0458343090697204 0.038374987102007756 -0.63647664772467083 9 10 -0.73422013291382571 -0.16462253606312471 -0.62088082118458188 -0.35202347618888918 -1.6915937794066569 -0.18804634585853602 11 12 -0.40228885938341236 -0.385813622529873 -1.08526340723055 -0.28407347152575152 -0.52080202904768569 -0.50272072300266035 -0.027187242246563898 -0.83691598206776829 13 0.66660254230744498 1.0070442041082084 0.062330576702129908 -0.54782477100839688 -2.0373576794027506 0.41172117317865542 0.13754767780382773
decision_type=9 9 2 2 2 9 9 2 2 9 2 2 2 2 2 2 2 9 2 2 2 2 2 2 2 2 2 2 9 2 2 2 2 9 2 1 2 2 2 2 2 2 2 9 9 2 2 2 2 2 2 9 9 2 2 2 2 2 2 2 2 9 2 2 2 2 2 2 2
left_child=3 2 54 4 27 -6 41 17 -9 12 35 -7 13 14 -10 16 60 18 -3 22 33 -22 23 58 -24 26 -23 65 29 30 31 32 -29 -21 57 44 -26 -15 47 -40 -41 -5 -14 -37 -11 -44 -36 -20 -47 -45 52 -52 -51 -42 -2 -46 -31 -32 -19 68 -8 -25 -55 64 -64 66 -1 -57 -49
right_child=1 7 -4 6 5 11 15 8 9 10 -12 -13 42 37 -16 -17 -18 19 38 20 21 25 24 61 36 -27 -28 28 -30 56 34 -33 -34 -35 46 43 -38 -39 39 40 53 -43 45 49 55 48 -48 59 -50 50 51 -53 -54 62 -56 67 -58 -59 -60 -61 -62 -63 63 -65 -66 -67 -68 -69 -70
leaf_value=0.018217635023081359 0.043957503711582947 0.018105364013616083 0.18839492820636763 -0.0049476457200945366 0.16068567009283644 0.046539876998356745 -0.0062457632179869025 0.025103087641435505 0.0023721825728501029 -0.01591002284545091 0.03812513961965007 -0.010261252001196231 -0.020930549386391748 0.023634705682388974 0.031546170228699245 -0.020687473278382936 0.015693434449726575 0.052136281306881714 -0.020703517227726675 -0.013094487148437015 0.034047764208171252 0.011255174386724732 0.0043669959106533828 0.021977764447918574 -0.014272465583468015 -0.0054195671175802252 0.041005115328141439 0.0082900493664774064 -0.010038877357385474 -0.023295285471291657 -0.020549337571807637 -0.0094162812335403714 0.040876917674085828 0.0076608405731026716 -0.0062782183281400008 0.023345194815174556 0.0013821834085870623 0.05309436345167115 0.022238744923849637 0.027647622404210474 0.0098732495592904288 0.0097691755138851043 0.03110313364340898 -0.011020594736382675 0.025849165255292249 0.020485472111753403 0.016858811189256168 0.0026291805683785691 -0.0020791448995879386 0.019411233508332786 0.0082743949702645744 -0.0087737722807772044 -0.0042055035265875177 -0.014216321491873416 0.0078951051865827314 0.018857596989188152 -0.0044189418890136578 0.0016486354426261632 0.018941876138722193 -0.015085171974324624 -0.020432954963304217 -0.0069500382278716473 0.019813275145737975 -0.016912390794558533 -0.0069532615173472541 0.031181933202723638 -0.0069271250242232468 -0.0056290322338771381 -0.0088449317966885366
leaf_weight=17657.532926559448 9502.3774937987328 49947.269509375095 7883.1445886865258 140215.96547605097 10730.805534362793 14292.059545397758 55705.185936361551 150442.52370226383 73863.891118079424 57911.590090870857 20358.942290171981 19888.503034748137 14441.346350371838 20590.55408538878 54843.46076567471 486009.99837934598 26013.618725419044 10554.630425195443 57166.815787732601 64526.80274283886 45125.73311383999 103744.81100292504 129961.24105687439 8750.5502109825611 138820.36447416223 34178.799832228571 23312.880202408182 47861.973748385906 343822.08587253466 33301.630317837 39608.069798976183 36122.247214257717 33971.296573132277 47994.114230707288 28708.524123668671 21139.969500899315 59793.671051383018 26540.631643772125 19666.616264641285 11413.635878659785 23853.998492501676 63300.914316952229 11955.218931496143 36329.604839231819 8672.3893596753478 19013.22159050405 33252.372723937035 65202.525393158197 67419.751697093248 68739.391655236483 90460.043457563967 92295.210020214319 28570.439364353195 71687.695772662759 11516.175535945222 8956.6577334702015 42637.466969639063 17755.666500806808 11177.521557122469 66189.016256660223 59376.820041522384 25842.524350527674 18263.876156151295 17939.787443757057 19048.379188269377 10338.840784467757 16475.225466623902 84644.703713333234 79406.917657718062
leaf_count=63 99 136 85 1481 11 134 239 127 183 100 211 253 25 164 176 723 123 93 150 431 82 323 248 195 406 741 208 84 2851 149 269 125 148 593 83 126 122 44 142 157 229 565 195 340 91 137 111 362 425 118 233 1209 513 531 159 141 101 110 227 336 242 318 64 103 152 104 247 858 309
internal_value=0 0.00522301 0.0689405 -0.00757035 -0.000879304 0.0487327 -0.0135833 0.00437009 0.00931337 0.00636888 0.00196476 0.0134815 0.0142719 0.0216176 0.0148036 -0.0178708 -0.00817122 0.0004388 -0.00382808 0.00346891 0.00939991 0.0168386 -0.00144463 0.0137605 -0.00405116 0.0120221 0.016714 -0.00405555 -0.00513664 0.000245174 0.00438725 0.0122529 0.021818 -0.00424253 -0.00338812 0.00048567 -0.00955954 0.0402247 -0.00626363 -0.000575382 -0.00334156 -0.000370113 0.00282645 0.00369384 -0.00627437 0.00631365 0.0061386 -0.0101243 0.00288456 0.00237914 0.00411755 -0.000335303 0.0124804 -0.00568728 0.0241998 -0.000814879 -0.012697 -0.0136784 0.0350646 -0.00725527 -0.0135658 0.000376177 -0.00861143 -0.00133909 0.00614854 0.0119167 0.00608063 -0.00328575 -0.00367137
internal_weight=0 2.18966e+06 28901.7 1.57705e+06 746424 44911.4 830623 2.16076e+06 957190 806747 518079 34180.6 288668 175839 128707 627106 141096 1.20357e+06 499787 703784 318883 206362 384901 56325.2 328575 161236 127058 701513 657041 313219 237280 117956 81833.3 112521 119325 497720 198614 47131.2 449839 181874 162207 203517 112830 337535 160185 98388.2 61960.9 267965 86433 316395 280065 182755 97309.8 150794 21018.6 102274 75939.1 57363.7 21732.2 210798 115082 34593.1 126940 55252 37312.3 44471.6 34132.8 93601.4 144609
internal_count=20633 12417 343 8216 4843 398 3373 12074 5416 5289 3940 387 1349 567 359 1327 604 6658 2671 3987 2378 1354 1609 833 776 1272 531 4445 4031 1180 930 357 232 1024 573 3729 528 208 2535 1378 1236 2046 782 2539 1190 757 194 1157 562 2413 2073 1442 631 1079 258 1090 250 379 320 1007 481 513 850 319 216 414 310 999 671
cat_boundaries=0 9 18 19 28 37 45 52 61 62 65 72 81 88 94
cat_threshold=33554464 0 1 16777216 1207959552 17825792 65541 20 8519713 0 0 16 0 0 0 0 33554432 65536 32 0 0 0 16777216 0 0 0 0 131073 0 0 8 0 67108864 1152 32784 0 1048576 1 0 0 0 67108864 1024 49160 2097152 32 0 0 16777216 1073741824 16777216 65536 0 0 0 8388608 0 65536 32 0 4 4 1 0 64 1 0 64 0 0 0 16384 0 0 0 0 0 0 8 0 4 0 0 0 0 0 65536 16416 0 0 0 8388608 0 65536
is_linear=0
shrinkage=0.0534508


Tree=10
num_leaves=70
num_cat=9
split_feature=12 12 14 8 20 1 4 1 8 16 11 9 16 12 11 18 15 16 10 12 1 15 12 8 14 11 14 17 10 8 9 11 14 1 15 17 11 17 17 8 1 1 10 17 12 10 8 15 8 11 8 11 16 1 16 12 16 8 17 16 20 9 14 8 12 11 10 9 1
split_gain=58536.6 23749.4 9385.26 18371.6 19797.2 96155.1 14143.9 12451.3 22876.8 11149 13643.6 8682.08 7895.56 9002.42 8940.68 7808.27 9569.22 9184.79 8564.75 7079.37 7006.34 9463.27 6859.62 6645.74 5551.07 9003.52 5398.94 4600.32 4093.06 3937.11 4146.55 3726.02 3189.57 4103.83 3241.08 3119.57 3088.27 2928.33 2894.22 2815.42 2802.02 14502.9 2996.51 2655.4 3131.27 5095.65 2482.24 2414.03 2396.17 5850.94 3568.59 2305.9 2124.97 2077.48 2006.09 1971.81 3260.71 1924.65 1910.63 2468.31 2030.06 1869.61 2674.2 2322.56 1866.54 2440.19 1850.46 2330.42 1818.88
threshold=-0.10175457241862124 -0.24193221452788158 -0.88909904279646279 -0.28598524696193039 1.784898380221972 0 1 2 -0.24398646574292496 -0.78408048228203275 -0.81464892809612877 0.76776534121383866 1.1708137463994295 -0.82058547353906397 -0.89770610310879129 -1.1206764849071831 -0.40271964271749666 -0.52080202904768569 1.0375517299151069 0.39961100002923983 3 -0.94449175361262594 0.7777433245105082 0.085218553161320112 0.10132019886473086 -0.50837559523693532 -0.94832550384371561 0.50817132047134439 -0.11588601757011543 -0.50579136846230532 -1.8211067724650858 -0.65891672494738629 -0.94832550384371561 4 1.3534300417786145 -0.10104085650638238 0.40006225646406196 1.5539408550984728 0.60108626723922742 -0.62823382674565786 5 6 0.64179742945830032 0.55408214415699708 0.14807628763166106 0.14795018273442212 -0.47087056017479045 -0.56408405677203366 -0.41732622144077908 1.0000000180025095e-35 -0.19015168757147158 -0.67968101870055198 2.4577211308179789 7 0.33087782467128446 0.43345367187251749 -0.47835023311687647 -0.42862893784767236 0.034103601595583712 -1.047849867555116 -0.014876836225092399 1.5033294555682628 0.77005852105506822 -0.57488382690330242 0.47530340961270728 -0.50837559523693532 0.93043874261198256 -0.4857492502162804 8
decision_type=2 2 2 2 2 9 1 9 2 2 2 2 2 2 2 2 2 2 2 2 9 2 2 2 2 2 2 2 2 2 2 2 2 9 2 2 2 2 2 2 9 9 2 2 2 2 2 2 2 2 2 2 2 9 2 2 2 2 2 2 2 2 2 2 2 2 2 2 9
left_child=1 12 3 26 7 -6 -7 8 -5 -9 -11 35 13 61 -14 17 20 29 24 -12 21 28 -19 -13 25 43 39 -27 -17 -4 57 -23 33 -15 -34 -10 -32 -26 -25 -2 42 -42 -16 44 -18 -46 -24 53 -3 50 -50 -48 -43 -22 -52 -49 -57 -31 59 -41 64 62 63 -1 65 -61 67 -65 -68
right_child=2 48 15 4 5 6 -8 9 11 10 19 23 14 32 40 16 18 22 -20 -21 47 31 46 38 37 27 -28 -29 -30 30 36 -33 34 -35 -36 -37 -38 -39 -40 58 41 52 -44 -45 45 -47 51 55 49 -51 54 -53 -54 -55 -56 56 -58 -59 -60 60 -62 -63 -64 66 -66 -67 68 -69 -70
leaf_value=-0.011435099127407086 0.01570754297342215 -0.019863899546576944 -0.012573655279796016 0.032930009343080276 0.0041177276458957439 0.089981206834117561 0.17095242559567 -0.020237250462775913 -0.017565805720831069 -0.016018199358145205 -0.009239323530754193 0.0021072101894949288 0.065761408503070218 -0.0099497515329595356 -0.013547693140419611 0.026640929599482239 0.00083133907767674162 0.0090590556243624089 0.02831449332495023 0.033194006968822541 -0.022966819043988593 -0.0020844131370605598 0.042248697310283072 0.033751006622625833 -0.0076532899332939852 0.012255838031682596 0.013732977707720813 0.044356819280235507 0.0050696373135173502 0.022325361228990866 -0.0040870560683684597 -0.015294702527172958 -0.018270410903854634 0.030380380671203393 0.010850457722888432 0.0011207227861263697 0.016340394583069781 0.010940989576700319 0.013559306626318745 0.010616906591768827 0.13294287348757969 -0.012498091343101564 0.0089076555114200508 -0.011140758257819362 0.0021216786901232954 0.037232259683565944 0.036569392621036194 -0.010262788078382608 0.031606183118954877 -0.021362331523870022 -0.019854499303951795 -0.0010793435666938053 0.024068487491675807 -0.010800140260990779 0.0036931361344623714 -0.0017957756857585438 0.060484287211479817 0.0045564198573954731 -0.00021111671965906307 0.018066000664638898 -0.020041769020849497 0.012370278247505792 -0.013656850808895067 0.010302713560825792 -0.010991122042202742 -0.018688222126386413 0.0013638973894421528 -0.014748313034730065 0.012824066827590543
leaf_weight=43592.107731888071 19315.108278751373 414372.83402898721 40659.489358499646 136927.49543392658 69085.154163122177 13607.157299146056 11270.972296148539 61729.905806519091 36345.890424072742 40234.232908047736 14491.208464633673 65506.1328304708 7732.4548124223948 27945.165793657303 25843.82924258709 39015.490434765816 109686.8333183229 68202.791800178587 42766.184639215469 49949.255097568035 62378.36463924963 240705.68551491573 37373.091894581914 46352.247876137495 136443.10226250254 25543.919877529144 58298.601109802723 25475.876083731651 70618.124255985022 46774.852796196938 106688.59510733746 81706.342091619968 183495.88093377277 9713.5158176571131 11609.413371622562 85716.618474751711 26370.256898708642 29413.104910179973 36062.977632403374 16301.099376738071 2959.4902324676514 9298.387305624783 49487.282780617476 31650.440598785877 27546.937695145607 20671.641669899225 9606.1420392990112 14236.711474515498 9433.3652071356773 73619.442366272211 15865.935716435313 9003.3732449263334 8871.9225725531578 112261.85123123787 29654.318511486053 6778.0155527591705 3719.0411088839173 27748.341368556023 118406.24367915839 16061.629751916975 50130.93557472527 29416.499429583549 46267.48212245293 15006.846040535718 73902.34302136302 7603.3330032378435 186085.91825523973 36201.376635506749 50251.649156655185
leaf_count=253 49 440 235 53 134 75 132 671 83 436 297 160 146 126 166 97 489 380 76 194 822 650 98 138 1902 91 344 104 238 124 347 424 1690 233 99 275 124 231 77 146 15 362 223 235 198 64 49 231 131 247 172 148 298 1550 332 107 150 141 648 175 294 81 145 72 290 135 363 394 534
internal_value=0 -0.00938666 0.00466317 0.0085735 0.0138238 0.0365654 0.126668 0.0100966 0.0151339 -0.00222115 0.0084035 0.00610817 -0.00318232 -0.0054051 0.010462 0.00189858 -0.000401677 0.0085729 0.00556175 0.0236516 -0.00464413 -0.000819293 0.0204407 0.0148152 0.00316758 0.00835425 -0.00115777 0.0282854 0.0127464 0.00263587 0.00561504 -0.00543223 -0.0137887 0.000452947 -0.0165376 -0.00444346 -3.85418e-05 -0.0043557 0.0249158 -0.004035 0.00602867 0.0232294 0.00120377 0.0029896 0.00582195 0.0171742 0.0343064 -0.0129325 -0.0178859 -0.0115111 0.00168629 0.0183549 0.00535591 -0.015146 -0.00451431 0.00269574 0.0202711 0.0157094 -0.00538534 -0.00912104 -0.0112996 -0.000608402 -0.00162005 6.17675e-05 -0.00680756 0.00625677 0.00180474 -0.00740681 0.00380069
internal_weight=0 1.28673e+06 2.48034e+06 1.0273e+06 667279 93963.3 24878.1 573316 406911 166405 104675 269984 743779 639586 104193 1.45304e+06 1.08062e+06 372427 449198 64440.5 631420 432046 124185 147921 406432 240576 360019 51019.8 109634 248242 207582 322412 232764 37658.7 195105 122063 133059 165856 82415.2 301721 96460.9 21129.8 75331.1 189556 157905 48218.6 55982.6 199374 542946 128573 54953.6 18609.5 18170.3 174640 45520.3 24733.8 10497.1 74523.2 282406 163999 147698 406822 377405 331138 97567.3 23665 287546 51208.2 236338
internal_count=20633 6522 14111 4806 2725 341 207 2384 786 1598 927 733 5200 3990 1210 9305 7659 1646 3390 491 4269 1409 675 375 3314 1181 2081 195 335 971 736 1074 2148 359 1789 358 471 2133 215 1737 1064 675 389 986 751 262 295 2860 1322 882 635 197 660 2372 504 488 257 265 1688 1040 894 1842 1761 1616 600 310 1363 466 897
cat_boundaries=0 1 2 3 4 5 6 7 8 9
cat_threshold=64 2 64 64 64 64 128 16 64
is_linear=0
shrinkage=0.0534508


Tree=11
num_leaves=70
num_cat=20
split_feature=12 0 0 0 1 9 12 8 0 12 0 12 10 11 14 10 9 9 12 1 0 20 11 1 12 9 12 20 12 15 11 0 17 17 8 0 15 17 14 0 8 9 0 15 0 15 17 15 1 0 12 8 11 1 11 8 12 0 0 17 10 9 11 0 17 14 10 8 14
split_gain=55717.1 43481.7 36595.1 21853.5 24582.9 17394.6 9332.4 9160.3 9040.91 8303.22 7593.83 7149.23 6038.71 5735.35 5495.01 4959.38 4892.24 4552.64 4217.06 4614.81 4397.11 4050.36 7502.23 5360.25 5861.01 5405.44 5216.66 4078.02 5235.44 3848.54 3810.33 3642.84 3256.7 2823.62 3981.93 2822.93 2754.2 2726.66 2707.94 4235.46 2645.23 2621.05 2508.34 2654.61 2468.28 2115.69 1780.78 1753.15 3790.06 6352.78 3627.83 2875.2 2376.28 3085.14 3141.16 3176.68 2275.39 1722.68 1663.96 1662.25 2524.63 1656.84 1647.44 1425.89 1384.47 1901.95 2898.23 1687.47 1317.87
threshold=-0.10175457241862124 0 1 2 3 0.8073990799959242 0.38947689807698072 -0.19015168757147158 4 0.92767813866891136 5 0.48671712717101873 0.073534844186988371 -0.90808824998537419 -0.40751759391304648 0.68915264489757633 -0.37437765553854252 -0.10173140488286612 1.677496218532273 6 7 -0.48398412572513078 -0.65891672494738629 8 1.0000000180025095e-35 0.13754767780382773 0.071989032277257919 -0.35977210120618713 0.24940861827401919 0.9104346812196672 -0.81464892809612877 9 0.18685258373075223 -0.51963599574174302 -0.47087056017479045 10 -0.059530660260783595 0.10281261471136437 -0.40751759391304648 11 -0.48889562379929308 1.6900175638375885 12 -0.68968013986656973 13 -0.61800556147822272 -0.5828248269289239 1.3534300417786145 14 15 -0.82058547353906397 -0.57488382690330242 -0.16576474830970209 16 -0.86136858904075142 -0.25775389360180717 -0.82058547353906397 17 18 0.070127032960585062 0.13667513143935636 -0.10173140488286612 -0.73678282652175753 19 -0.5828248269289239 0.10132019886473086 0.93043874261198256 -0.32157913818840772 1.6519145855539537
decision_type=2 9 9 9 9 2 2 2 9 2 9 2 2 2 2 2 2 2 2 9 9 2 2 9 2 2 2 2 2 2 2 9 2 2 2 9 2 2 2 9 2 2 9 2 9 2 2 2 9 9 2 2 2 9 2 2 2 9 9 2 2 2 2 9 2 2 2 2 2
left_child=2 -2 38 4 5 6 12 9 36 35 17 -7 -3 15 -14 -4 40 -8 19 -5 -20 29 27 25 -25 26 -24 37 46 41 -10 -18 -32 -30 -35 61 -9 -23 39 -1 -12 63 -36 -44 -15 -45 -29 50 56 -50 51 -46 53 57 -55 -56 -49 -52 -26 60 -37 -6 -63 68 65 66 -53 -67 -21
right_child=1 3 13 18 7 11 10 8 30 -11 16 -13 14 44 -16 -17 31 -19 20 21 -22 22 23 24 58 -27 -28 28 33 -31 32 -33 -34 34 42 59 -38 -39 -40 -41 -42 -43 43 45 47 -47 -48 48 49 -51 52 64 -54 54 55 -57 -58 -59 -60 -61 -62 62 -64 -65 -66 67 -68 -69 -70
leaf_value=-8.8103552803631884e-05 0.046147161957469228 0.027971135954580652 0.00043480292616634547 -0.016146387967975052 -0.011603259466979576 0.01320047606035628 -0.0079898463400335917 -0.015372169327431275 -0.0032263794529138051 0.028423960977646302 0.0084638561777687846 0.031626265735627976 -0.0035057593762850155 0.0095387052784302335 0.025143507973352148 0.064639730402219819 -0.0074457918579280327 0.0063962714221791773 0.023192447338206842 -0.0028791596461946707 -0.0023820069614846045 0.050344254821357376 0.062063344720494108 0.014092004211320265 -0.021516050011100043 -0.0053014965044574942 0.0036043655759575946 0.010372718996046101 -0.016502132684693766 0.015054538567960794 0.011265902180918233 0.011839218704994514 0.036885419756142714 0.031731613287262816 -0.012280631182018739 -0.021013938354720083 0.021679094165143568 0.012563698156767495 -0.020977524388891888 -0.020176803803267449 0.021950847747140186 0.017618857298326886 -0.0041869732622253613 0.048490020563344283 -0.012647110533130602 0.0079477807183613389 0.029242575067125479 -0.017686447972861192 0.052153487503028145 -0.011669988168205648 -0.020020366582595546 -0.0010285057451243698 -0.012571267679415634 -0.025893478533241272 0.055770731312625256 -8.4968688403540773e-05 0.0046151723368670402 0.004727437245389072 -0.0064006923272705513 -0.02240616325185835 -0.0011812448522190615 0.035309804134421176 -0.0035718499953536322 -0.007561184486046018 -0.010282783577291652 0.0036497808319359655 0.025513829587672086 -0.0067839669955344073 0.01805951468647634
leaf_weight=50188.52714574337 69636.120010972023 94547.906527921557 6722.2842394337058 71150.977590942755 12913.112097769976 99021.883474051952 151078.80548405647 44883.743668671697 17658.736110050231 13656.244594968855 71067.929543495178 153308.35994423926 47661.979421257973 52442.900329113007 31947.19673538208 7033.2875590324402 57254.206037998199 107611.55160188675 37108.44470334053 156169.13051266223 39796.92723800987 11160.053808927536 8922.0554065853357 21140.624351844192 68545.06236743927 24909.817385822535 8531.3457770496607 27757.721327781677 23280.737976789474 27384.596977949142 26101.058573450893 54700.276062965393 31030.187602706254 12979.22982865572 29104.145493507385 38122.018931286409 6570.3988614678383 10682.545868754387 459092.64597510546 74515.09734518826 100030.58524090052 13784.211837083101 18859.840220689774 6630.2432128190994 46332.678524874151 8258.1259770989418 29450.232681870461 17811.876511931419 10871.87820032239 7538.4842186197639 16937.222578585148 22937.657771432772 153693.41668890044 3242.5175556391478 7243.1031837239861 4860.90219630301 49096.544253826141 15269.40231654048 29958.874716423452 86575.509377926588 35335.39335796237 6179.2037143707275 6273.6407159268856 434692.42286554817 25227.013758290559 158197.65889260918 24103.268846803345 61502.071123570204 9086.9720131158829
leaf_count=134 36 163 186 2139 204 123 131 600 175 185 59 109 181 604 47 48 81 108 156 1608 422 27 48 88 83 164 146 17 122 119 109 182 184 89 56 136 109 157 445 248 181 110 241 33 260 187 174 157 154 514 96 210 1626 83 182 158 266 134 377 504 139 99 123 3463 247 310 323 137 117
internal_value=0 0.00451084 -0.00922699 0.00331374 0.00805693 0.0123281 0.00807475 -0.00465542 0.00660739 -0.0117985 0.00461454 0.0243955 0.0188382 -0.000903153 0.00799122 0.0332649 0.010664 -0.00200524 -0.00211906 -0.00300203 0.0099636 -0.00204895 0.0026654 -0.00565875 -0.0114441 0.0106803 0.0334896 0.0102348 0.00721183 -0.00455035 0.0184689 0.00197748 0.0251812 -0.000219815 0.00477895 -0.0147614 -0.0106365 0.031868 -0.0190796 -0.0120952 0.0163489 -0.00542514 -0.000786997 0.00912672 -0.00159714 0.0260041 0.0200871 -0.00253198 0.0045876 0.0260638 -0.00365791 -0.000277422 -0.00934054 0.00110117 0.0208237 0.0333399 -0.0013218 -0.00829666 -0.0169247 -0.017386 -0.0114739 0.00180969 0.0157217 -0.00595462 0.00168554 0.00281748 0.0125715 0.000728949 -0.00172749
internal_weight=0 2.49251e+06 1.27486e+06 2.42287e+06 1.29353e+06 968231 715900 325299 126244 199055 541743 252330 174157 691064 79609.2 13755.6 283053 258690 1.12934e+06 1.05244e+06 76905.4 981288 340171 162008 119645 42363.2 17453.4 178163 156320 641117 74790 111954 57131.2 99112.3 75831.6 185399 51454.1 21842.6 583796 124704 171099 613733 62852.4 33748.2 677309 14888.4 57208 624866 85318.8 18410.4 539547 338300 201247 47553.1 15346.5 12104 66908.4 32206.6 98503.9 160033 73457.4 25366 12452.8 599949 291968 266741 47040.9 219700 165256
internal_count=20633 14111 6522 14075 3932 1365 1133 2567 1177 1390 742 232 391 5695 228 234 503 239 10143 9565 578 7426 2009 906 548 358 194 1103 919 5417 468 263 293 728 606 1205 709 184 827 382 240 5298 517 461 5461 220 191 4857 1091 668 3766 1487 2279 653 423 340 423 230 460 779 275 426 222 5188 1227 980 533 447 1725
cat_boundaries=0 3 11 20 21 28 37 38 47 48 55 60 65 70 78 79 84 85 94 99 108
cat_threshold=32 0 16 32 0 0 0 1207959552 0 16384 20 0 0 8 0 67108864 1152 49240 0 1114116 64 0 0 0 0 67108864 128 8 0 0 0 0 67108864 0 16384 0 4 16 0 0 64 0 0 0 0 0 131072 512 0 0 0 0 0 0 32776 0 0 0 0 67108864 0 0 0 0 1073741824 0 0 0 0 1073741824 1 0 0 0 0 65536 32 2097152 64 0 0 0 0 67108864 64 0 0 0 0 67108864 0 0 0 8388608 0 0 0 0 1073741824 5 0 0 16777216 0 16973824 65537 2097152 1
is_linear=0
shrinkage=0.0534508


Tree=12
num_leaves=70
num_cat=15
split_feature=12 0 0 0 9 0 0 9 9 4 11 13 19 12 9 17 15 16 0 12 0 14 13 16 9 17 19 11 11 17 0 9 13 13 11 16 14 9 0 13 14 9 16 16 0 0 10 16 4 13 14 11 0 16 9 14 13 10 17 10 17 15 15 14 0 17 14 16 17
split_gain=53045 38988.5 35714.5 20506.6 14491.1 13275.3 8418.22 10229.2 5389.25 5498.18 5259.81 6516.22 4173.2 8186.88 6102.33 5035.14 5232.01 7540.74 8465.32 3976.36 4038.3 3718.25 3490.98 3281.08 2941.35 2919.62 6937.12 3110.55 8190.2 4048.08 3455.97 3338.06 3315.09 3195.42 3285.7 2835.81 2819.31 9557.38 4678.23 3529.08 2704.83 4181.32 2566.74 2532.89 2458.11 2432.86 2380.41 2372.36 2273.8 2266.58 2911.03 2321.61 2226.12 2347.6 2186.66 2126.19 3275.8 2063.93 3430.69 3177.7 2004.47 1996.62 5199.82 1967.38 1910.16 1881.56 1896.24 1782.16 1744.08
threshold=-0.10175457241862124 0 1 2 0.8073990799959242 3 4 1.2903685842462111 0.21370010418647709 5 -0.90808824998537419 -0.053979887526365393 1.0000000180025095e-35 0.11188663537753697 -0.79838594430410248 1.9122961009148305 -0.94449175361262594 -1.012931033537843 6 1.677496218532273 7 -0.5013472874388667 -0.95675048176891597 3.1973217890169923 -0.64680760825622097 0.53386265101503949 2.4713913866385391 -0.75235604683663182 -0.70563638589200905 0.41172117317865542 8 0.26866088423453355 -0.33257209017625206 0.027778607175783104 -0.65891672494738629 -0.78408048228203275 -0.90359966835902916 -0.79838594430410248 9 -0.75851860590457376 -0.40751759391304648 0.36265872859533932 -0.22882549492327353 -0.22882549492327353 10 11 0.012649567193633552 -0.75306219358662629 12 -1.2516898226917066 -0.27621314131894387 -0.86136858904075142 13 -0.84236381198213495 -0.58683019830321514 -0.61691047232646345 -0.20120742985009596 2.1684393748101978 -0.039848001905582395 0.73650786033685234 0.55408214415699708 -0.75274120764343999 -0.87266465680633754 0.69538826102443918 14 -0.30576619136040911 0.46689323491736362 -0.73422013291382571 -2.2461035815130748
decision_type=2 9 9 9 2 9 9 2 2 1 2 2 2 2 2 2 2 2 9 2 9 2 2 2 2 2 2 2 2 2 9 2 2 2 2 2 2 2 9 2 2 2 2 2 9 9 2 2 1 2 2 2 9 2 2 2 2 2 2 2 2 2 2 2 9 2 2 2 2
left_child=2 -2 40 4 5 8 -6 60 9 22 11 -4 15 21 -15 16 24 -18 54 25 -21 -14 -3 52 -7 26 27 30 32 31 -5 47 -29 34 -33 -9 37 -32 39 -39 41 -1 -35 -36 -27 -38 -24 -30 -25 -46 51 -51 -12 63 -19 56 -55 58 -57 -60 -8 62 -16 68 -53 -20 -67 -31 -54
right_child=1 3 10 19 6 12 7 35 -10 -11 23 -13 13 14 61 -17 17 18 65 20 -22 -23 46 48 -26 44 -28 28 29 67 36 33 -34 42 43 -37 45 38 -40 -41 -42 -43 -44 -45 49 -47 -48 -49 -50 50 -52 64 53 55 -56 57 -58 -59 59 -61 -62 -63 -64 -65 -66 66 -68 -69 -70
leaf_value=-0.019849574707963915 0.042869867912111115 0.016184844375091583 0.066894627134636384 -0.0149550635433189 0.024812030534091454 0.048055623726303606 -0.015502274829336594 0.033041410060333593 -0.013316620261942537 -0.010609050375030831 0.0098919433871334471 -0.0054563779416302209 0.0090407046726111145 -0.017416508372702377 0.0033134928008796455 0.031113842897911477 0.026012628997249845 -0.019126428142815063 0.021986084503411035 0.02205285375831079 -0.0023244169505086975 0.049583867781503824 -0.0056271014431335288 0.0051529205508093834 0.013061621312519771 -0.015575047284992304 0.042452168400938427 0.046239445012578005 -0.016662584820502625 0.022636527648315537 0.062071758898819697 0.010302828754983166 0.012253112510820478 0.0406961813743804 -0.011636730106770089 0.011252222707293882 -0.021177020691425727 0.038992586782747717 -0.014267253538124669 0.0029919303194625834 -0.02085954296440326 0.00030698171769853776 0.001095612070613605 0.008531637722794019 -0.017308092918338045 -0.0033166335596981509 0.0074188556270049577 -0.0030173654299056512 0.03669320652064529 -0.0036945558012783887 -0.0048832847404233657 0.053181872951631605 0.007183795920644903 0.0044313975585827297 0.00010889370863862599 -0.013413043997105101 -0.020194599736226095 0.0016547936512379651 -0.0048220439780396421 0.02378614571639014 0.0072293194999446262 0.00022044124555080729 0.029074947740431477 0.012373156147531409 0.013586054741737755 0.012952339593843542 -0.0075048385912315106 -0.00060630825638825401 -0.0067121161407891665
leaf_weight=74740.779579710215 72924.931347370148 60701.367758750916 7223.9327591359615 83073.591160297394 190517.8778181076 16091.004815280437 42657.978964019567 30604.649109899998 103400.76398086548 86786.266767144203 39837.173662476009 7004.2077680751681 10869.009069826454 38785.092689123005 78825.054160326719 43006.478451102972 54534.049788832664 40931.157582879066 39969.069113358855 37979.137712240219 39702.243387185037 15943.49914598465 77138.979593515396 18851.613088265061 11966.678343221545 74071.527596965432 10365.887995064259 14357.666741073132 62144.362320847809 27788.276877135038 7743.7953305840492 52844.512610912323 19119.932774364948 10475.241254508495 68540.248226221651 38576.906068203971 27426.014188766479 10415.610063672066 36051.241403177381 30734.804028570652 449562.35340524465 48470.012664578855 8447.1255189329386 24025.816988140345 34972.727583318949 105845.06866061315 82900.851722881198 87882.668742168229 9991.3657931983471 12429.47946959734 210942.50932584563 5328.2826710939407 42785.143363267183 107124.68379612942 28738.920546025038 184308.77554897312 18029.434430927038 60299.859600067139 74432.465739477426 13034.929293841124 14971.896927215159 100906.56147229671 31263.09514528513 42577.857061058283 10107.904510438442 46110.946871556342 17997.144597902894 14261.194716060534 65017.679537728429
leaf_count=226 36 58 85 338 48 85 273 94 208 96 239 149 126 146 354 110 164 64 88 156 422 93 111 200 132 708 49 89 437 100 65 257 125 53 720 127 58 42 522 365 445 156 155 193 229 1293 164 1052 76 275 1837 95 88 1267 177 1502 259 150 1086 199 156 537 82 87 227 162 277 281 308
internal_value=0 0.00436592 -0.00906842 0.00321062 0.00777399 0.00457918 0.01771 0.00703501 -0.00276012 0.000789133 -0.000882915 0.0312785 0.00981549 0.00508244 0.00206949 0.0141894 0.0113499 0.00867263 0.00323002 -0.00206992 0.00959892 0.0331496 0.00527047 -0.0015596 0.0331314 -0.00293376 -0.000948482 -0.00159942 0.00155267 -0.000821621 -0.00567844 -0.00290504 0.0268297 0.00235765 -0.000331058 0.0208916 -0.00214526 0.00546439 -0.000213993 0.0120988 -0.0189359 -0.0119201 0.023019 -0.00640187 -0.0069376 -0.00699594 0.00113068 -0.00866959 0.0160794 -0.00459922 -0.00273836 0.0134982 -0.00234542 -0.00314799 -0.0111886 -0.00505348 0.000883701 -0.00729113 -0.00927601 -0.000558474 -0.00959661 0.00565148 0.0106295 0.00264516 0.0273422 0.0128817 0.00720925 0.0147536 -0.00119699
